{"learner":{"attributes":{"scikit_learn":"{\"_estimator_type\": \"regressor\"}"},"feature_names":["k_rolling_3","k_rolling_5","k_rolling_10","k_rolling_20","whiff_pct_3","whiff_pct_5","whiff_pct_10","whiff_pct_20","csw_pct_3","csw_pct_5","csw_pct_10","csw_pct_20","zone_pct_3","zone_pct_5","zone_pct_10","zone_pct_20","o_swing_pct_3","o_swing_pct_5","o_swing_pct_10","o_swing_pct_20","avg_velo_3","avg_velo_5","avg_velo_10","avg_velo_20","k9_season","k_pct_season","bb_pct_season","fip_season","xfip_season","swstr_season","stuff_plus","days_rest","pitches_last","opp_lineup_k_pct","opp_lineup_o_swing","opp_lineup_contact","opp_lineup_swstr","opp_lineup_wrc_plus","opp_lineup_size","park_k_factor","is_home","is_night_game","lineup_confirmed","umpire_k_pct"],"feature_types":["float","float","float","float","float","float","float","float","float","float","float","float","float","float","float","float","float","float","float","float","float","float","float","float","float","float","float","float","float","float","float","int","int","float","float","float","float","float","int","float","int","int","int","float"],"gradient_booster":{"model":{"cats":{"enc":[],"feature_segments":[],"sorted_idx":[]},"gbtree_model_param":{"num_parallel_tree":"1","num_trees":"500"},"iteration_indptr":[0,1,2,3,4,5,6,7,8,9,10,11,12,13,14,15,16,17,18,19,20,21,22,23,24,25,26,27,28,29,30,31,32,33,34,35,36,37,38,39,40,41,42,43,44,45,46,47,48,49,50,51,52,53,54,55,56,57,58,59,60,61,62,63,64,65,66,67,68,69,70,71,72,73,74,75,76,77,78,79,80,81,82,83,84,85,86,87,88,89,90,91,92,93,94,95,96,97,98,99,100,101,102,103,104,105,106,107,108,109,110,111,112,113,114,115,116,117,118,119,120,121,122,123,124,125,126,127,128,129,130,131,132,133,134,135,136,137,138,139,140,141,142,143,144,145,146,147,148,149,150,151,152,153,154,155,156,157,158,159,160,161,162,163,164,165,166,167,168,169,170,171,172,173,174,175,176,177,178,179,180,181,182,183,184,185,186,187,188,189,190,191,192,193,194,195,196,197,198,199,200,201,202,203,204,205,206,207,208,209,210,211,212,213,214,215,216,217,218,219,220,221,222,223,224,225,226,227,228,229,230,231,232,233,234,235,236,237,238,239,240,241,242,243,244,245,246,247,248,249,250,251,252,253,254,255,256,257,258,259,260,261,262,263,264,265,266,267,268,269,270,271,272,273,274,275,276,277,278,279,280,281,282,283,284,285,286,287,288,289,290,291,292,293,294,295,296,297,298,299,300,301,302,303,304,305,306,307,308,309,310,311,312,313,314,315,316,317,318,319,320,321,322,323,324,325,326,327,328,329,330,331,332,333,334,335,336,337,338,339,340,341,342,343,344,345,346,347,348,349,350,351,352,353,354,355,356,357,358,359,360,361,362,363,364,365,366,367,368,369,370,371,372,373,374,375,376,377,378,379,380,381,382,383,384,385,386,387,388,389,390,391,392,393,394,395,396,397,398,399,400,401,402,403,404,405,406,407,408,409,410,411,412,413,414,415,416,417,418,419,420,421,422,423,424,425,426,427,428,429,430,431,432,433,434,435,436,437,438,439,440,441,442,443,444,445,446,447,448,449,450,451,452,453,454,455,456,457,458,459,460,461,462,463,464,465,466,467,468,469,470,471,472,473,474,475,476,477,478,479,480,481,482,483,484,485,486,487,488,489,490,491,492,493,494,495,496,497,498,499,500],"tree_info":[0,0,0,0,0,0,0,0,0,0,0,0,0,0,0,0,0,0,0,0,0,0,0,0,0,0,0,0,0,0,0,0,0,0,0,0,0,0,0,0,0,0,0,0,0,0,0,0,0,0,0,0,0,0,0,0,0,0,0,0,0,0,0,0,0,0,0,0,0,0,0,0,0,0,0,0,0,0,0,0,0,0,0,0,0,0,0,0,0,0,0,0,0,0,0,0,0,0,0,0,0,0,0,0,0,0,0,0,0,0,0,0,0,0,0,0,0,0,0,0,0,0,0,0,0,0,0,0,0,0,0,0,0,0,0,0,0,0,0,0,0,0,0,0,0,0,0,0,0,0,0,0,0,0,0,0,0,0,0,0,0,0,0,0,0,0,0,0,0,0,0,0,0,0,0,0,0,0,0,0,0,0,0,0,0,0,0,0,0,0,0,0,0,0,0,0,0,0,0,0,0,0,0,0,0,0,0,0,0,0,0,0,0,0,0,0,0,0,0,0,0,0,0,0,0,0,0,0,0,0,0,0,0,0,0,0,0,0,0,0,0,0,0,0,0,0,0,0,0,0,0,0,0,0,0,0,0,0,0,0,0,0,0,0,0,0,0,0,0,0,0,0,0,0,0,0,0,0,0,0,0,0,0,0,0,0,0,0,0,0,0,0,0,0,0,0,0,0,0,0,0,0,0,0,0,0,0,0,0,0,0,0,0,0,0,0,0,0,0,0,0,0,0,0,0,0,0,0,0,0,0,0,0,0,0,0,0,0,0,0,0,0,0,0,0,0,0,0,0,0,0,0,0,0,0,0,0,0,0,0,0,0,0,0,0,0,0,0,0,0,0,0,0,0,0,0,0,0,0,0,0,0,0,0,0,0,0,0,0,0,0,0,0,0,0,0,0,0,0,0,0,0,0,0,0,0,0,0,0,0,0,0,0,0,0,0,0,0,0,0,0,0,0,0,0,0,0,0,0,0,0,0,0,0,0,0,0,0,0,0,0,0,0,0,0,0,0,0,0,0,0,0,0,0,0,0,0,0,0,0,0,0,0,0,0,0,0,0,0,0,0,0,0,0,0,0,0,0,0,0,0,0,0,0,0,0,0,0,0,0,0,0,0,0,0,0,0,0,0,0],"trees":[{"base_weights":[-8.5605704E-4,-1.8999544E-1,7E-1,-2.1161571E-1,2.466074E-1,3.7548107E-1,7E-1,-2.2709922E-1,-1.15791306E-1,1.3576254E-1,6.448388E-1,1.9477187E-1,4.4217694E-1,4.133181E-1,7E-1,-1.2817921E-2,-9.713666E-3,-6.6773253E-3,-2.061394E-3,1.4442894E-2,4.5189685E-3,2.4510967E-2,3.5E-2,5.024796E-3,1.3071301E-2,1.6869098E-2,2.6598895E-2,3.1645715E-2,1.6993446E-2,3.100403E-2,3.5E-2],"categories":[],"categories_nodes":[],"categories_segments":[],"categories_sizes":[],"default_left":[0,0,1,0,0,1,0,1,0,0,0,0,0,0,0,0,0,0,0,0,0,0,0,0,0,0,0,0,0,0,0],"id":0,"left_children":[1,3,5,7,9,11,13,15,17,19,21,23,25,27,29,-1,-1,-1,-1,-1,-1,-1,-1,-1,-1,-1,-1,-1,-1,-1,-1],"loss_changes":[3.9502234E4,2.199998E3,2.0064375E3,3.294297E2,4.853404E2,2.29594E2,1.623457E2,1.835586E2,4.0886658E1,5.9761307E1,5.4558533E1,3.226848E1,1.3080396E2,3.1766907E1,4.1216797E1,0E0,0E0,0E0,0E0,0E0,0E0,0E0,0E0,0E0,0E0,0E0,0E0,0E0,0E0,0E0,0E0],"parents":[2147483647,0,0,1,1,2,2,3,3,4,4,5,5,6,6,7,7,8,8,9,9,10,10,11,11,12,12,13,13,14,14],"right_children":[2,4,6,8,10,12,14,16,18,20,22,24,26,28,30,-1,-1,-1,-1,-1,-1,-1,-1,-1,-1,-1,-1,-1,-1,-1,-1],"split_conditions":[5.5E1,2.6E0,1.9435737E-1,1.5454545E0,4.65E0,1.5625E-1,2.7E0,9.211764E0,2.2E0,1E0,3E0,2.2088805E-1,2.2295572E-1,7.26771E-1,2.0708956E-1,-1.2817921E-2,-9.713666E-3,-6.6773253E-3,-2.061394E-3,1.4442894E-2,4.5189685E-3,2.4510967E-2,3.5E-2,5.024796E-3,1.3071301E-2,1.6869098E-2,2.6598895E-2,3.1645715E-2,1.6993446E-2,3.100403E-2,3.5E-2],"split_indices":[32,2,25,3,3,25,2,24,3,32,8,33,33,35,25,0,0,0,0,0,0,0,0,0,0,0,0,0,0,0,0],"split_type":[0,0,0,0,0,0,0,0,0,0,0,0,0,0,0,0,0,0,0,0,0,0,0,0,0,0,0,0,0,0,0],"sum_hessian":[2.9539128E5,2.330517E5,6.2339594E4,2.2205636E5,1.0995336E4,1.905649E4,4.32831E4,1.9116508E5,3.0891285E4,8.602487E3,2.3928486E3,5.1387407E3,1.3917749E4,1.980965E3,4.1302137E4,1.0106844E5,9.009664E4,2.494839E4,5.9428945E3,1.965274E3,6.637213E3,1.4160957E3,9.76753E2,2.1300276E3,3.0087131E3,6.425387E3,7.4923623E3,4.9426056E2,1.4867043E3,6.5313003E3,3.4770836E4],"tree_param":{"num_deleted":"0","num_feature":"44","num_nodes":"31","size_leaf_vector":"1"}},{"base_weights":[6.45606E-4,-1.923372E-1,6.591577E-1,-2.052976E-1,2.712041E-1,3.8400218E-1,7E-1,-2.1822107E-1,-7.2157644E-2,-1.5049009E-1,3.00815E-1,-6.1117325E-2,4.3347973E-1,1.2509075E-1,7E-1,-1.246581E-2,-9.911527E-3,-6.292324E-3,1.0445815E-3,-1.5825842E-2,-4.4844984E-3,2.5663838E-2,1.202223E-2,-2.126868E-3,-1.487412E-2,1.3623047E-2,2.439498E-2,1.1973996E-3,1.6002094E-2,3.5E-2,2.892529E-2],"categories":[],"categories_nodes":[],"categories_segments":[],"categories_sizes":[],"default_left":[0,0,0,0,0,0,0,0,0,0,0,0,0,0,0,0,0,0,0,0,0,0,0,0,0,0,0,0,0,0,0],"id":1,"left_children":[1,3,5,7,9,11,13,15,17,19,21,23,25,27,29,-1,-1,-1,-1,-1,-1,-1,-1,-1,-1,-1,-1,-1,-1,-1,-1],"loss_changes":[3.7630285E4,1.3758594E3,2.1368652E3,3.8328027E2,7.7873566E1,4.9619263E2,2.2183789E2,1.2617578E2,9.850666E1,4.112034E0,7.4549805E1,9.908436E0,1.7750317E2,1.3272131E1,1.440957E2,0E0,0E0,0E0,0E0,0E0,0E0,0E0,0E0,0E0,0E0,0E0,0E0,0E0,0E0,0E0,0E0],"parents":[2147483647,0,0,1,1,2,2,3,3,4,4,5,5,6,6,7,7,8,8,9,9,10,10,11,11,12,12,13,13,14,14],"right_children":[2,4,6,8,10,12,14,16,18,20,22,24,26,28,30,-1,-1,-1,-1,-1,-1,-1,-1,-1,-1,-1,-1,-1,-1,-1,-1],"split_conditions":[2.75E0,5.6E1,4.1E0,1.8E0,5E0,5E0,5E0,1E0,5E0,3.2619047E-1,7.257472E-1,7.1428573E-1,6.6E1,4.9597573E-1,4.4857893E0,-1.246581E-2,-9.911527E-3,-6.292324E-3,1.0445815E-3,-1.5825842E-2,-4.4844984E-3,2.5663838E-2,1.202223E-2,-2.126868E-3,-1.487412E-2,1.3623047E-2,2.439498E-2,1.1973996E-3,1.6002094E-2,3.5E-2,2.892529E-2],"split_indices":[1,32,2,2,31,31,31,2,31,6,35,6,32,15,27,0,0,0,0,0,0,0,0,0,0,0,0,0,0,0,0],"split_type":[0,0,0,0,0,0,0,0,0,0,0,0,0,0,0,0,0,0,0,0,0,0,0,0,0,0,0,0,0,0,0],"sum_hessian":[2.961077E5,2.2899827E5,6.7109414E4,2.2277048E5,6.2277866E3,2.252532E4,4.4584094E4,2.0305883E5,1.9711656E4,4.081261E2,5.8196606E3,2.253119E3,2.0272203E4,6.720138E2,4.3912082E4,7.9453305E4,1.2360552E5,1.2499975E4,7.211682E3,1.07828514E2,3.0029758E2,1.2857069E3,4.5339536E3,2.0904016E3,1.6271727E2,5.1227446E3,1.5149458E4,4.435375E2,2.2847629E2,3.4116332E4,9.795748E3],"tree_param":{"num_deleted":"0","num_feature":"44","num_nodes":"31","size_leaf_vector":"1"}},{"base_weights":[6.170714E-4,-1.8952999E-1,6.229577E-1,-2.1038522E-1,5.395584E-2,3.8529778E-1,7E-1,-2.2811155E-1,-1.5018326E-1,-1.0493283E-1,1.7448184E-1,-3.592135E-2,4.256628E-1,5.216784E-1,7E-1,-1.2674543E-2,-9.7144125E-3,-8.992756E-3,-5.1178103E-3,-8.573792E-3,-3.3642158E-3,3.8354117E-3,1.3414281E-2,-2.9612933E-3,7.076738E-3,1.0937719E-2,2.4459356E-2,2.2601215E-2,3.3276077E-2,9.426712E-3,3.5E-2],"categories":[],"categories_nodes":[],"categories_segments":[],"categories_sizes":[],"default_left":[0,0,0,0,0,0,1,1,0,0,0,0,1,1,0,0,0,0,0,0,0,0,0,0,0,0,0,0,0,0,0],"id":2,"left_children":[1,3,5,7,9,11,13,15,17,19,21,23,25,27,29,-1,-1,-1,-1,-1,-1,-1,-1,-1,-1,-1,-1,-1,-1,-1,-1],"loss_changes":[3.4975367E4,1.1496294E3,2.2717383E3,2.2249219E2,3.4211862E2,4.6065283E2,3.9570898E2,1.3823242E2,6.7299805E1,1.9293732E1,9.313931E1,9.832735E0,3.2479688E2,1.2455469E2,9.4634766E1,0E0,0E0,0E0,0E0,0E0,0E0,0E0,0E0,0E0,0E0,0E0,0E0,0E0,0E0,0E0,0E0],"parents":[2147483647,0,0,1,1,2,2,3,3,4,4,5,5,6,6,7,7,8,8,9,9,10,10,11,11,12,12,13,13,14,14],"right_children":[2,4,6,8,10,12,14,16,18,20,22,24,26,28,30,-1,-1,-1,-1,-1,-1,-1,-1,-1,-1,-1,-1,-1,-1,-1,-1],"split_conditions":[2.75E0,2E0,4.3E0,1.3333334E0,5E0,5E0,2.200957E-1,9.223982E0,4E0,3E0,2.2E0,3.95E0,1.657754E-1,2.3656681E-1,5E0,-1.2674543E-2,-9.7144125E-3,-8.992756E-3,-5.1178103E-3,-8.573792E-3,-3.3642158E-3,3.8354117E-3,1.3414281E-2,-2.9612933E-3,7.076738E-3,1.0937719E-2,2.4459356E-2,2.2601215E-2,3.3276077E-2,9.426712E-3,3.5E-2],"split_indices":[1,3,2,3,31,31,25,24,31,31,1,3,25,33,31,0,0,0,0,0,0,0,0,0,0,0,0,0,0,0,0],"split_type":[0,0,0,0,0,0,0,0,0,0,0,0,0,0,0,0,0,0,0,0,0,0,0,0,0,0,0,0,0,0,0],"sum_hessian":[2.955555E5,2.2638686E5,6.916865E4,2.0852653E5,1.786033E4,2.7088074E4,4.2080574E4,1.610896E5,4.743693E4,7.7037812E3,1.0156548E4,2.368616E3,2.4719459E4,1.2459816E4,2.962076E4,9.2027414E4,6.906218E4,2.9271854E4,1.8165078E4,2.7814368E3,4.922344E3,4.9744556E3,5.1820923E3,2.0947512E3,2.7386456E2,5.807984E3,1.8911475E4,8.398026E3,4.0617903E3,3.6301907E2,2.925774E4],"tree_param":{"num_deleted":"0","num_feature":"44","num_nodes":"31","size_leaf_vector":"1"}},{"base_weights":[1.181401E-3,-1.8281078E-1,6.060924E-1,-2.0376638E-1,1.9210331E-1,4.1668886E-1,7E-1,-2.2767532E-1,-1.5683776E-1,9.019082E-2,4.963817E-1,2.8073728E-1,5.107239E-1,-1.1648769E-2,7E-1,-1.2977833E-2,-9.796946E-3,-1.0086911E-2,-6.4111487E-3,-2.2872956E-3,8.885233E-3,4.0612905E-3,2.7653879E-2,4.777802E-3,1.61958E-2,2.2326484E-2,3.153881E-2,-6.912097E-3,7.925459E-3,3.5E-2,2.4342975E-2],"categories":[],"categories_nodes":[],"categories_segments":[],"categories_sizes":[],"default_left":[0,0,1,0,0,1,0,1,0,0,0,1,1,0,0,0,0,0,0,0,0,0,0,0,0,0,0,0,0,0,0],"id":3,"left_children":[1,3,5,7,9,11,13,15,17,19,21,23,25,27,29,-1,-1,-1,-1,-1,-1,-1,-1,-1,-1,-1,-1,-1,-1,-1,-1],"loss_changes":[3.284091E4,1.7776294E3,2.3487227E3,2.4038184E2,3.7137823E2,4.70687E2,1.7781445E2,1.435747E2,9.290137E1,1.0679902E2,7.063855E1,1.2038269E2,1.6749219E2,7.6547885E0,8.355664E1,0E0,0E0,0E0,0E0,0E0,0E0,0E0,0E0,0E0,0E0,0E0,0E0,0E0,0E0,0E0,0E0],"parents":[2147483647,0,0,1,1,2,2,3,3,4,4,5,5,6,6,7,7,8,8,9,9,10,10,11,11,12,12,13,13,14,14],"right_children":[2,4,6,8,10,12,14,16,18,20,22,24,26,28,30,-1,-1,-1,-1,-1,-1,-1,-1,-1,-1,-1,-1,-1,-1,-1,-1],"split_conditions":[5.3E1,2.5E0,2.2372882E-1,1.25E0,4.3E0,1.8115942E-1,5E0,8.756757E0,3E0,5E0,5E0,1.4035088E-1,2.3627038E-1,1.2815407E-1,1.2E1,-1.2977833E-2,-9.796946E-3,-1.0086911E-2,-6.4111487E-3,-2.2872956E-3,8.885233E-3,4.0612905E-3,2.7653879E-2,4.777802E-3,1.61958E-2,2.2326484E-2,3.153881E-2,-6.912097E-3,7.925459E-3,3.5E-2,2.4342975E-2],"split_indices":[32,2,25,2,2,25,31,24,31,31,31,25,33,36,31,0,0,0,0,0,0,0,0,0,0,0,0,0,0,0,0],"split_type":[0,0,0,0,0,0,0,0,0,0,0,0,0,0,0,0,0,0,0,0,0,0,0,0,0,0,0,0,0,0,0],"sum_hessian":[2.9506572E5,2.2624934E5,6.881638E4,2.1427339E5,1.1975961E4,3.682846E4,3.1987924E4,1.4194834E5,7.232505E4,8.972434E3,3.0035273E3,1.5060182E4,2.1768281E4,3.5079156E2,3.1637133E4,7.08073E4,7.114104E4,2.8147812E4,4.417723E4,3.5137695E3,5.458664E3,3.6139627E2,2.642131E3,2.8486516E3,1.2211529E4,1.418751E4,7.5807705E3,2.0158943E2,1.4920213E2,2.9787092E4,1.850041E3],"tree_param":{"num_deleted":"0","num_feature":"44","num_nodes":"31","size_leaf_vector":"1"}},{"base_weights":[9.0334215E-4,-1.8094265E-1,5.7185674E-1,-2.0237355E-1,5.887292E-2,4.090661E-1,7E-1,-2.2109772E-1,-1.4020884E-1,-1.0356406E-1,1.7575285E-1,2.682424E-1,4.7911462E-1,2.6892083E-2,7E-1,-1.2391191E-2,-9.335945E-3,-8.300873E-3,-3.229728E-3,-8.104727E-3,-3.559252E-3,-4.241061E-3,1.01927435E-2,4.637116E-3,1.5642585E-2,-4.7865376E-4,2.493057E-2,-4.7574806E-4,1.4246404E-2,2.3754645E-2,3.5E-2],"categories":[],"categories_nodes":[],"categories_segments":[],"categories_sizes":[],"default_left":[0,0,1,0,0,1,0,1,0,0,1,1,0,0,0,0,0,0,0,0,0,0,0,0,0,0,0,0,0,0,0],"id":4,"left_children":[1,3,5,7,9,11,13,15,17,19,21,23,25,27,29,-1,-1,-1,-1,-1,-1,-1,-1,-1,-1,-1,-1,-1,-1,-1,-1],"loss_changes":[3.0668547E4,1.1514385E3,2.0448535E3,2.3933984E2,3.4899362E2,3.7478613E2,6.04709E2,1.4516846E2,9.289276E1,1.4566147E1,7.83212E1,9.88233E1,2.4187793E2,1.2635138E1,1.175E2,0E0,0E0,0E0,0E0,0E0,0E0,0E0,0E0,0E0,0E0,0E0,0E0,0E0,0E0,0E0,0E0],"parents":[2147483647,0,0,1,1,2,2,3,3,4,4,5,5,6,6,7,7,8,8,9,9,10,10,11,11,12,12,13,13,14,14],"right_children":[2,4,6,8,10,12,14,16,18,20,22,24,26,28,30,-1,-1,-1,-1,-1,-1,-1,-1,-1,-1,-1,-1,-1,-1,-1,-1],"split_conditions":[2.9E0,2E0,2.2816901E-1,1.3333334E0,5E0,1.8115942E-1,5E0,9.211764E0,5E0,3E0,4.811881E0,1.4655173E-1,5E0,5.25E0,3.6666667E0,-1.2391191E-2,-9.335945E-3,-8.300873E-3,-3.229728E-3,-8.104727E-3,-3.559252E-3,-4.241061E-3,1.01927435E-2,4.637116E-3,1.5642585E-2,-4.7865376E-4,2.493057E-2,-4.7574806E-4,1.4246404E-2,2.3754645E-2,3.5E-2],"split_indices":[2,2,25,3,31,25,31,24,31,31,24,25,31,3,1,0,0,0,0,0,0,0,0,0,0,0,0,0,0,0,0],"split_type":[0,0,0,0,0,0,0,0,0,0,0,0,0,0,0,0,0,0,0,0,0,0,0,0,0,0,0,0,0,0,0],"sum_hessian":[2.953814E5,2.2402955E5,7.135186E4,2.0565222E5,1.8377334E4,3.8006336E4,3.3345523E4,1.5804458E5,4.7607633E4,7.68967E3,1.0687664E4,1.2627199E4,2.5379137E4,1.3350588E3,3.2010467E4,8.891387E4,6.913071E4,3.549125E4,1.2116381E4,2.736285E3,4.953385E3,1.039879E3,9.647785E3,2.560218E3,1.0066981E4,9.7350653E2,2.4405629E4,1.170487E3,1.6457181E2,2.332485E3,2.967798E4],"tree_param":{"num_deleted":"0","num_feature":"44","num_nodes":"31","size_leaf_vector":"1"}},{"base_weights":[1.4361251E-3,-1.8561739E-1,5.2331483E-1,-1.9593404E-1,2.4250388E-1,3.6654216E-1,7E-1,-2.1352154E-1,-1.2589309E-1,-1.7966814E-1,2.731412E-1,1.3942914E-1,4.363848E-1,4.8217353E-1,7E-1,-1.2104055E-2,-8.963375E-3,-8.273593E-3,-3.6643136E-3,-1.030468E-2,8.469533E-3,8.123007E-3,1.9386612E-2,-2.1807158E-3,1.1486332E-2,1.5890358E-2,2.7516454E-2,3.004784E-2,2.1977296E-2,3.5E-2,2.2077424E-2],"categories":[],"categories_nodes":[],"categories_segments":[],"categories_sizes":[],"default_left":[0,0,0,0,0,0,1,1,0,1,1,0,1,0,0,0,0,0,0,0,0,0,0,0,0,0,0,0,0,0,0],"id":5,"left_children":[1,3,5,7,9,11,13,15,17,19,21,23,25,27,29,-1,-1,-1,-1,-1,-1,-1,-1,-1,-1,-1,-1,-1,-1,-1,-1],"loss_changes":[2.8771307E4,9.583716E2,2.1881523E3,2.609453E2,6.613574E1,6.584536E2,4.3016602E2,1.6561426E2,8.852777E1,3.2676096E0,6.0316864E1,1.6147342E2,4.2881592E2,4.570508E1,6.7555664E1,0E0,0E0,0E0,0E0,0E0,0E0,0E0,0E0,0E0,0E0,0E0,0E0,0E0,0E0,0E0,0E0],"parents":[2147483647,0,0,1,1,2,2,3,3,4,4,5,5,6,6,7,7,8,8,9,9,10,10,11,11,12,12,13,13,14,14],"right_children":[2,4,6,8,10,12,14,16,18,20,22,24,26,28,30,-1,-1,-1,-1,-1,-1,-1,-1,-1,-1,-1,-1,-1,-1,-1,-1],"split_conditions":[2.6E0,5.7E1,4.8E0,1.5E0,5E0,5.7E1,2.254902E-1,9.211764E0,4E0,9.818182E0,1.7183098E-1,5E0,1.9435737E-1,7.297901E-1,1.9E1,-1.2104055E-2,-8.963375E-3,-8.273593E-3,-3.6643136E-3,-1.030468E-2,8.469533E-3,8.123007E-3,1.9386612E-2,-2.1807158E-3,1.1486332E-2,1.5890358E-2,2.7516454E-2,3.004784E-2,2.1977296E-2,3.5E-2,2.2077424E-2],"split_indices":[2,32,2,2,31,32,25,24,31,24,25,31,25,35,31,0,0,0,0,0,0,0,0,0,0,0,0,0,0,0,0],"split_type":[0,0,0,0,0,0,0,0,0,0,0,0,0,0,0,0,0,0,0,0,0,0,0,0,0,0,0,0,0,0,0],"sum_hessian":[2.9472606E5,2.169622E5,7.776387E4,2.1185773E5,5.1044683E3,4.151476E4,3.62491E4,1.6933397E5,4.2523758E4,3.4482092E2,4.7596475E3,9.765125E3,3.1749639E4,9.076207E3,2.7172893E4,9.233773E4,7.699624E4,2.4264389E4,1.825937E4,3.2120053E2,2.3620386E1,2.4228035E3,2.3368442E3,3.225689E3,6.539436E3,1.556078E4,1.6188858E4,2.3928914E3,6.683316E3,2.6154426E4,1.01846716E3],"tree_param":{"num_deleted":"0","num_feature":"44","num_nodes":"31","size_leaf_vector":"1"}},{"base_weights":[9.2456624E-4,-1.7778474E-1,5.120447E-1,-1.9785197E-1,2.1496073E-3,3.6543265E-1,6.6836584E-1,-2.1198903E-1,-1.3709523E-1,-1.230176E-1,1.3907406E-1,2.4277057E-1,4.3692833E-1,1.6372511E-2,6.9655246E-1,-1.1664888E-2,-8.737433E-3,-7.4346936E-3,-4.354367E-3,-8.907392E-3,-4.228847E-3,9.62459E-3,-2.3954527E-3,4.899631E-3,1.4549853E-2,8.027811E-5,2.2628577E-2,-3.2808797E-3,7.6546343E-3,2.5078947E-2,3.5E-2],"categories":[],"categories_nodes":[],"categories_segments":[],"categories_sizes":[],"default_left":[0,0,1,1,0,1,0,0,0,0,0,1,0,0,0,0,0,0,0,0,0,0,0,0,0,0,0,0,0,0,0],"id":6,"left_children":[1,3,5,7,9,11,13,15,17,19,21,23,25,27,29,-1,-1,-1,-1,-1,-1,-1,-1,-1,-1,-1,-1,-1,-1,-1,-1],"loss_changes":[2.6897842E4,7.878447E2,1.7481484E3,1.6856787E2,3.7526883E2,3.4514355E2,6.78416E2,1.2632031E2,2.147705E1,2.422496E1,1.044798E2,1.0120044E2,1.6931738E2,1.7222584E1,2.3829102E2,0E0,0E0,0E0,0E0,0E0,0E0,0E0,0E0,0E0,0E0,0E0,0E0,0E0,0E0,0E0,0E0],"parents":[2147483647,0,0,1,1,2,2,3,3,4,4,5,5,6,6,7,7,8,8,9,9,10,10,11,11,12,12,13,13,14,14],"right_children":[2,4,6,8,10,12,14,16,18,20,22,24,26,28,30,-1,-1,-1,-1,-1,-1,-1,-1,-1,-1,-1,-1,-1,-1,-1,-1],"split_conditions":[2.6666667E0,2E0,2.2672065E-1,2.8793773E-1,5E0,1.8421052E-1,5E0,4E0,3.512605E-1,3E0,9.9921255E0,6E0,5E0,4E0,4.3333335E0,-1.1664888E-2,-8.737433E-3,-7.4346936E-3,-4.354367E-3,-8.907392E-3,-4.228847E-3,9.62459E-3,-2.3954527E-3,4.899631E-3,1.4549853E-2,8.027811E-5,2.2628577E-2,-3.2808797E-3,7.6546343E-3,2.5078947E-2,3.5E-2],"split_indices":[1,1,25,25,31,25,31,31,25,31,24,24,31,31,0,0,0,0,0,0,0,0,0,0,0,0,0,0,0,0,0],"split_type":[0,0,0,0,0,0,0,0,0,0,0,0,0,0,0,0,0,0,0,0,0,0,0,0,0,0,0,0,0,0,0],"sum_hessian":[2.9447034E5,2.181843E5,7.628604E4,1.9629311E5,2.1891184E4,3.936755E4,3.6918484E4,1.5923719E5,3.705592E4,1.1436274E4,1.0454909E4,1.4498644E4,2.4868906E4,1.5301134E3,3.538837E4,1.0127836E5,5.7958824E4,3.007619E4,6.9797344E3,4.6956724E3,6.7406025E3,8.1321924E3,2.3227168E3,3.624087E3,1.0874557E4,8.6291907E2,2.4005988E4,9.563724E2,5.73741E2,6.075552E3,2.931282E4],"tree_param":{"num_deleted":"0","num_feature":"44","num_nodes":"31","size_leaf_vector":"1"}},{"base_weights":[1.1144215E-3,-1.6969192E-1,5.0885093E-1,-1.9130105E-1,1.7504258E-1,3.6417922E-1,6.7955655E-1,-2.137702E-1,-1.2920949E-1,1.0053116E-1,4.8703074E-1,2.3450164E-1,4.2322585E-1,5.650886E-1,7E-1,-1.243443E-2,-9.291297E-3,-9.1422815E-3,-4.9657575E-3,-2.1899696E-3,8.883741E-3,1.9671412E-2,3.2047134E-2,5.4195565E-3,1.4041941E-2,1.744962E-2,2.49091E-2,2.4368843E-2,3.440614E-2,2.1571985E-2,3.5E-2],"categories":[],"categories_nodes":[],"categories_segments":[],"categories_sizes":[],"default_left":[0,0,1,0,0,1,0,1,0,0,0,1,1,0,0,0,0,0,0,0,0,0,0,0,0,0,0,0,0,0,0],"id":7,"left_children":[1,3,5,7,9,11,13,15,17,19,21,23,25,27,29,-1,-1,-1,-1,-1,-1,-1,-1,-1,-1,-1,-1,-1,-1,-1,-1],"loss_changes":[2.556119E4,1.643002E3,1.8320449E3,2.895122E2,3.0239743E2,3.074087E2,2.4695215E2,1.4864893E2,8.8411865E1,1.16985535E2,3.587805E1,7.340485E1,1.5336768E2,1.371377E2,5.3734375E1,0E0,0E0,0E0,0E0,0E0,0E0,0E0,0E0,0E0,0E0,0E0,0E0,0E0,0E0,0E0,0E0],"parents":[2147483647,0,0,1,1,2,2,3,3,4,4,5,5,6,6,7,7,8,8,9,9,10,10,11,11,12,12,13,13,14,14],"right_children":[2,4,6,8,10,12,14,16,18,20,22,24,26,28,30,-1,-1,-1,-1,-1,-1,-1,-1,-1,-1,-1,-1,-1,-1,-1,-1],"split_conditions":[5.7E1,2.6666667E0,2.2672065E-1,1.3333334E0,4.85E0,1.7560975E-1,2.5373134E-1,8.633721E0,3E0,5E0,5.3333335E0,1.4441417E-1,2.267953E-1,2.331844E-1,6.6E1,-1.243443E-2,-9.291297E-3,-9.1422815E-3,-4.9657575E-3,-2.1899696E-3,8.883741E-3,1.9671412E-2,3.2047134E-2,5.4195565E-3,1.4041941E-2,1.744962E-2,2.49091E-2,2.4368843E-2,3.440614E-2,2.1571985E-2,3.5E-2],"split_indices":[32,3,25,3,3,25,25,24,31,31,0,25,33,33,32,0,0,0,0,0,0,0,0,0,0,0,0,0,0,0,0],"split_type":[0,0,0,0,0,0,0,0,0,0,0,0,0,0,0,0,0,0,0,0,0,0,0,0,0,0,0,0,0,0,0],"sum_hessian":[2.9473575E5,2.2054367E5,7.419206E4,2.0753539E5,1.3008282E4,4.016027E4,3.4031797E4,1.5238688E5,5.5148508E4,1.0501803E4,2.506479E3,1.2567131E4,2.7593139E4,1.4376669E4,1.9655127E4,6.773526E4,8.4651625E4,1.973382E4,3.5414688E4,3.657675E3,6.8441274E3,1.5612196E3,9.452594E2,3.3782996E3,9.188831E3,1.3866911E4,1.3726228E4,8.814783E3,5.561886E3,7.515623E2,1.8903564E4],"tree_param":{"num_deleted":"0","num_feature":"44","num_nodes":"31","size_leaf_vector":"1"}},{"base_weights":[1.975042E-3,-1.765058E-1,4.551018E-1,-1.8780552E-1,1.5347806E-1,3.0712166E-1,5.9340745E-1,-2.0347355E-1,-9.374618E-2,-1.1616666E-1,1.9383216E-1,1.06003806E-1,3.6793706E-1,4.7993487E-1,7E-1,-1.1651783E-2,-8.53518E-3,-7.097774E-3,-1.7688746E-3,-6.612573E-3,1.4569404E-2,1.726815E-2,6.809262E-3,-2.2285248E-3,9.236607E-3,1.4006302E-2,2.2831997E-2,1.7534798E-2,2.6801104E-2,2.7510006E-2,3.5E-2],"categories":[],"categories_nodes":[],"categories_segments":[],"categories_sizes":[],"default_left":[0,0,0,0,0,0,1,1,0,1,0,0,1,0,0,0,0,0,0,0,0,0,0,0,0,0,0,0,0,0,0],"id":8,"left_children":[1,3,5,7,9,11,13,15,17,19,21,23,25,27,29,-1,-1,-1,-1,-1,-1,-1,-1,-1,-1,-1,-1,-1,-1,-1,-1],"loss_changes":[2.3890008E4,7.9026025E2,1.7082207E3,3.0194775E2,7.641385E1,4.9320947E2,5.824834E2,1.7011523E2,8.233273E1,6.0739613E0,5.328363E1,1.11066956E2,2.4105615E2,1.6043896E2,1.07703125E2,0E0,0E0,0E0,0E0,0E0,0E0,0E0,0E0,0E0,0E0,0E0,0E0,0E0,0E0,0E0,0E0],"parents":[2147483647,0,0,1,1,2,2,3,3,4,4,5,5,6,6,7,7,8,8,9,9,10,10,11,11,12,12,13,13,14,14],"right_children":[2,4,6,8,10,12,14,16,18,20,22,24,26,28,30,-1,-1,-1,-1,-1,-1,-1,-1,-1,-1,-1,-1,-1,-1,-1,-1],"split_conditions":[2.6E0,4.8E1,4.6E0,1.5454545E0,5E0,5.8E1,2.4944812E-1,9.211764E0,4E0,1.0227273E1,7.29317E-1,5E0,1.9435737E-1,2.1304336E-1,8.3E1,-1.1651783E-2,-8.53518E-3,-7.097774E-3,-1.7688746E-3,-6.612573E-3,1.4569404E-2,1.726815E-2,6.809262E-3,-2.2285248E-3,9.236607E-3,1.4006302E-2,2.2831997E-2,1.7534798E-2,2.6801104E-2,2.7510006E-2,3.5E-2],"split_indices":[1,32,3,3,31,32,25,24,31,24,35,31,25,33,32,0,0,0,0,0,0,0,0,0,0,0,0,0,0,0,0],"split_type":[0,0,0,0,0,0,0,0,0,0,0,0,0,0,0,0,0,0,0,0,0,0,0,0,0,0,0,0,0,0,0],"sum_hessian":[2.953923E5,2.119201E5,8.347223E4,2.0490423E5,7.015849E3,4.0327625E4,4.3144605E4,1.7564394E5,2.92603E4,9.127212E2,6.103128E3,9.364248E3,3.0963377E4,2.2159727E4,2.0984877E4,9.2336805E4,8.330713E4,1.6023023E4,1.3237276E4,8.7895276E2,3.3768414E1,1.6800969E3,4.4230312E3,3.2148162E3,6.1494316E3,1.5562564E4,1.54008125E4,6.7091646E3,1.5450562E4,4.8217617E3,1.6163116E4],"tree_param":{"num_deleted":"0","num_feature":"44","num_nodes":"31","size_leaf_vector":"1"}},{"base_weights":[1.0448894E-3,-1.7712776E-1,4.2496482E-1,-2.0014866E-1,-7.500801E-2,2.862497E-1,5.609668E-1,-2.2861348E-1,-1.6822296E-1,-1.12622574E-1,-1.5447921E-3,1.5784465E-1,3.4246603E-1,4.8563838E-1,7E-1,-1.2470201E-2,-1.0094997E-2,-9.356144E-3,-6.742652E-3,-6.173166E-3,6.670029E-4,-2.167833E-3,4.2416407E-3,-3.6558134E-3,8.907375E-3,8.011237E-3,1.8755058E-2,1.7105853E-2,2.5997544E-2,2.570108E-2,3.5E-2],"categories":[],"categories_nodes":[],"categories_segments":[],"categories_sizes":[],"default_left":[0,0,0,1,0,0,1,0,0,0,0,1,1,0,0,0,0,0,0,0,0,0,0,0,0,0,0,0,0,0,0],"id":9,"left_children":[1,3,5,7,9,11,13,15,17,19,21,23,25,27,29,-1,-1,-1,-1,-1,-1,-1,-1,-1,-1,-1,-1,-1,-1,-1,-1],"loss_changes":[2.228526E4,4.8833984E2,1.6470059E3,1.540122E2,1.0560193E2,3.1196997E2,5.598408E2,4.9719727E1,5.0369873E1,3.4531006E1,4.6772003E1,6.1773804E1,1.7872314E2,1.511914E2,5.1578613E1,0E0,0E0,0E0,0E0,0E0,0E0,0E0,0E0,0E0,0E0,0E0,0E0,0E0,0E0,0E0,0E0],"parents":[2147483647,0,0,1,1,2,2,3,3,4,4,5,5,6,6,7,7,8,8,9,9,10,10,11,11,12,12,13,13,14,14],"right_children":[2,4,6,8,10,12,14,16,18,20,22,24,26,28,30,-1,-1,-1,-1,-1,-1,-1,-1,-1,-1,-1,-1,-1,-1,-1,-1],"split_conditions":[2.5E0,1.5E0,4.6E0,9.194594E0,1.9473684E0,3.2E0,2.689655E-1,1E0,2.8793773E-1,2.5E0,2.2E0,1.2962963E-1,1.657754E-1,2.049589E-1,1.964877E-1,-1.2470201E-2,-1.0094997E-2,-9.356144E-3,-6.742652E-3,-6.173166E-3,6.670029E-4,-2.167833E-3,4.2416407E-3,-3.6558134E-3,8.907375E-3,8.011237E-3,1.8755058E-2,1.7105853E-2,2.5997544E-2,2.570108E-2,3.5E-2],"split_indices":[2,3,3,24,3,1,25,3,25,0,1,25,25,33,33,0,0,0,0,0,0,0,0,0,0,0,0,0,0,0,0],"split_type":[0,0,0,0,0,0,0,0,0,0,0,0,0,0,0,0,0,0,0,0,0,0,0,0,0,0,0,0,0,0,0],"sum_hessian":[2.950442E5,2.0773427E5,8.730993E4,1.6951784E5,3.8216418E4,4.322573E4,4.40842E4,8.96114E4,7.9906445E4,2.527384E4,1.294258E4,1.3163734E4,3.0061996E4,3.0738838E4,1.3345361E4,5.0385484E4,3.922591E4,5.1008734E4,2.889771E4,2.3271809E4,2.0020315E3,8.722184E3,4.220397E3,1.0630603E3,1.2100674E4,4.5671343E3,2.5494861E4,5.93364E3,2.4805197E4,1.5054181E3,1.1839943E4],"tree_param":{"num_deleted":"0","num_feature":"44","num_nodes":"31","size_leaf_vector":"1"}},{"base_weights":[2.1191726E-3,-1.6316777E-1,4.3885422E-1,-1.8366891E-1,1.4879678E-1,3.2761508E-1,5.997079E-1,-2.0281033E-1,-1.18089765E-1,8.1491955E-2,3.6999172E-1,2.1635231E-1,3.8463646E-1,5.31618E-1,7E-1,-1.15496265E-2,-8.438318E-3,-7.6131127E-3,-3.533784E-3,-2.30024E-3,7.602069E-3,1.43329E-2,2.5736718E-2,6.6914293E-3,1.3643487E-2,1.6867632E-2,2.3683943E-2,2.313434E-2,3.193331E-2,5.623217E-3,3.5E-2],"categories":[],"categories_nodes":[],"categories_segments":[],"categories_sizes":[],"default_left":[0,0,1,0,0,1,0,1,0,0,0,0,0,0,0,0,0,0,0,0,0,0,0,0,0,0,0,0,0,0,0],"id":10,"left_children":[1,3,5,7,9,11,13,15,17,19,21,23,25,27,29,-1,-1,-1,-1,-1,-1,-1,-1,-1,-1,-1,-1,-1,-1,-1,-1],"loss_changes":[2.1271322E4,1.3672388E3,1.4474131E3,2.517622E2,1.9623138E2,3.0336133E2,3.0257422E2,1.489253E2,7.3423035E1,9.096354E1,3.694449E1,7.5562744E1,1.3297754E2,1.6516699E2,3.815918E1,0E0,0E0,0E0,0E0,0E0,0E0,0E0,0E0,0E0,0E0,0E0,0E0,0E0,0E0,0E0,0E0],"parents":[2147483647,0,0,1,1,2,2,3,3,4,4,5,5,6,6,7,7,8,8,9,9,10,10,11,11,12,12,13,13,14,14],"right_children":[2,4,6,8,10,12,14,16,18,20,22,24,26,28,30,-1,-1,-1,-1,-1,-1,-1,-1,-1,-1,-1,-1,-1,-1,-1,-1],"split_conditions":[5.4E1,2.5E0,2.3344947E-1,1.4E0,4.65E0,1.8115942E-1,2.761905E-1,9.211764E0,4E0,5E0,4.3333335E0,2.2012159E-1,2.3656681E-1,2.3290585E-1,5.8E1,-1.15496265E-2,-8.438318E-3,-7.6131127E-3,-3.533784E-3,-2.30024E-3,7.602069E-3,1.43329E-2,2.5736718E-2,6.6914293E-3,1.3643487E-2,1.6867632E-2,2.3683943E-2,2.313434E-2,3.193331E-2,5.623217E-3,3.5E-2],"split_indices":[32,2,25,3,3,25,25,24,31,31,8,33,33,33,32,0,0,0,0,0,0,0,0,0,0,0,0,0,0,0,0],"split_type":[0,0,0,0,0,0,0,0,0,0,0,0,0,0,0,0,0,0,0,0,0,0,0,0,0,0,0,0,0,0,0],"sum_hessian":[2.9466728E5,2.137658E5,8.09015E4,2.0058484E5,1.3180953E4,4.7828867E4,3.3072633E4,1.5526272E5,4.5322113E4,1.0107331E4,3.0736218E3,1.6208548E4,3.162032E4,2.2421994E4,1.0650638E4,8.4939555E4,7.032317E4,2.6336465E4,1.8985648E4,3.6001248E3,6.5072065E3,1.9529224E3,1.1206993E3,6.590537E3,9.618011E3,2.0656889E4,1.0963433E4,1.3643092E4,8.778902E3,1.1130051E2,1.0539337E4],"tree_param":{"num_deleted":"0","num_feature":"44","num_nodes":"31","size_leaf_vector":"1"}},{"base_weights":[2.2800192E-3,-1.6103747E-1,4.1411227E-1,-1.8320593E-1,9.7651675E-2,3.202823E-1,5.524359E-1,-2.0152561E-1,-1.2779063E-1,1.8431228E-2,2.9220992E-1,2.1902356E-1,3.7327838E-1,5.0132966E-1,6.8604064E-1,-1.18050575E-2,-8.708231E-3,-8.465042E-3,-5.145114E-3,-5.0717928E-3,3.6903147E-3,1.4648637E-3,1.6962027E-2,3.923407E-3,1.2613389E-2,1.2227852E-2,2.0215176E-2,2.2249168E-2,2.9401412E-2,2.6495472E-2,3.5E-2],"categories":[],"categories_nodes":[],"categories_segments":[],"categories_sizes":[],"default_left":[0,0,1,0,0,1,0,1,0,0,0,1,0,0,1,0,0,0,0,0,0,0,0,0,0,0,0,0,0,0,0],"id":11,"left_children":[1,3,5,7,9,11,13,15,17,19,21,23,25,27,29,-1,-1,-1,-1,-1,-1,-1,-1,-1,-1,-1,-1,-1,-1,-1,-1],"loss_changes":[1.977474E4,1.2073276E3,1.0833672E3,1.968208E2,2.561228E2,2.6686426E2,2.300459E2,1.3781934E2,4.9760193E1,7.8427376E1,5.9417084E1,7.984241E1,1.3029297E2,1.1898389E2,6.0268555E1,0E0,0E0,0E0,0E0,0E0,0E0,0E0,0E0,0E0,0E0,0E0,0E0,0E0,0E0,0E0,0E0],"parents":[2147483647,0,0,1,1,2,2,3,3,4,4,5,5,6,6,7,7,8,8,9,9,10,10,11,11,12,12,13,13,14,14],"right_children":[2,4,6,8,10,12,14,16,18,20,22,24,26,28,30,-1,-1,-1,-1,-1,-1,-1,-1,-1,-1,-1,-1,-1,-1,-1,-1],"split_conditions":[5.2E1,2.25E0,8.888199E0,1.3333334E0,4E0,7.120879E0,1.0576036E1,8.633721E0,3E0,4E0,5E0,5.6511626E0,7.6E1,2.3264177E-1,2.0682384E-1,-1.18050575E-2,-8.708231E-3,-8.465042E-3,-5.145114E-3,-5.0717928E-3,3.6903147E-3,1.4648637E-3,1.6962027E-2,3.923407E-3,1.2613389E-2,1.2227852E-2,2.0215176E-2,2.2249168E-2,2.9401412E-2,2.6495472E-2,3.5E-2],"split_indices":[32,3,24,3,3,24,24,24,31,31,31,24,32,33,33,0,0,0,0,0,0,0,0,0,0,0,0,0,0,0,0],"split_type":[0,0,0,0,0,0,0,0,0,0,0,0,0,0,0,0,0,0,0,0,0,0,0,0,0,0,0,0,0,0,0],"sum_hessian":[2.94003E5,2.105192E5,8.348379E4,1.9390327E5,1.6615934E4,4.974439E4,3.3739402E4,1.4572408E5,4.8179188E4,1.18091E4,4.806834E3,1.7092691E4,3.2651697E4,2.4408291E4,9.331111E3,6.4369887E4,8.135419E4,1.8055453E4,3.0123734E4,3.730744E3,8.0783555E3,7.2995514E2,4.076879E3,3.27069E3,1.3822001E4,6.3437954E3,2.6307902E4,1.479813E4,9.610162E3,2.1630603E3,7.1680503E3],"tree_param":{"num_deleted":"0","num_feature":"44","num_nodes":"31","size_leaf_vector":"1"}},{"base_weights":[4.2182938E-4,-1.6847916E-1,3.6867005E-1,-1.7828496E-1,1.3039432E-1,2.5203532E-1,4.791283E-1,-1.987689E-1,-1.21392325E-1,1.566232E-2,2.1492942E-1,7.6074354E-2,3.0798233E-1,4.2154577E-1,5.972389E-1,-1.1562123E-2,-8.506237E-3,-6.9542327E-3,-3.0211795E-3,3.3416128E-4,2.8218145E-2,6.096242E-3,1.5527743E-2,1.4826043E-3,7.470301E-3,1.2703049E-2,2.009633E-2,1.5818663E-2,2.319595E-2,2.5348691E-2,3.3025976E-2],"categories":[],"categories_nodes":[],"categories_segments":[],"categories_sizes":[],"default_left":[0,0,0,0,0,0,1,1,0,0,1,0,1,0,0,0,0,0,0,0,0,0,0,0,0,0,0,0,0,0,0],"id":12,"left_children":[1,3,5,7,9,11,13,15,17,19,21,23,25,27,29,-1,-1,-1,-1,-1,-1,-1,-1,-1,-1,-1,-1,-1,-1,-1,-1],"loss_changes":[1.835374E4,5.9293506E2,1.1952783E3,2.2823877E2,6.232522E1,4.4428735E2,3.2385156E2,1.3392236E2,5.5924805E1,1.34904585E1,3.2866104E1,3.7071045E1,1.7337329E2,1.426289E2,8.885791E1,0E0,0E0,0E0,0E0,0E0,0E0,0E0,0E0,0E0,0E0,0E0,0E0,0E0,0E0,0E0,0E0],"parents":[2147483647,0,0,1,1,2,2,3,3,4,4,5,5,6,6,7,7,8,8,9,9,10,10,11,11,12,12,13,13,14,14],"right_children":[2,4,6,8,10,12,14,16,18,20,22,24,26,28,30,-1,-1,-1,-1,-1,-1,-1,-1,-1,-1,-1,-1,-1,-1,-1,-1],"split_conditions":[2.5E0,4.8E1,4.6E0,1.3333334E0,6.3E1,5.7E1,9.940298E0,8.786983E0,1.85E0,5.8520645E-1,1.2566611E-1,3.5E0,2.3510551E-1,2.1204713E-1,9.1E1,-1.1562123E-2,-8.506237E-3,-6.9542327E-3,-3.0211795E-3,3.3416128E-4,2.8218145E-2,6.096242E-3,1.5527743E-2,1.4826043E-3,7.470301E-3,1.2703049E-2,2.009633E-2,1.5818663E-2,2.319595E-2,2.5348691E-2,3.3025976E-2],"split_indices":[2,32,3,3,32,32,24,24,3,15,36,3,33,33,32,0,0,0,0,0,0,0,0,0,0,0,0,0,0,0,0],"split_type":[0,0,0,0,0,0,0,0,0,0,0,0,0,0,0,0,0,0,0,0,0,0,0,0,0,0,0,0,0,0,0],"sum_hessian":[2.950841E5,2.0229816E5,9.278594E4,1.9587247E5,6.4256787E3,4.5133203E4,4.7652734E4,1.440159E5,5.185657E4,2.7269707E3,3.6987078E3,1.0889232E4,3.4243973E4,3.203843E4,1.5614304E4,6.749129E4,7.652462E4,4.0190805E4,1.1665766E4,2.6842395E3,4.2731247E1,1.8767324E3,1.8219753E3,6.669747E3,4.219485E3,2.1759443E4,1.2484529E4,9.204139E3,2.2834291E4,6.439474E3,9.174829E3],"tree_param":{"num_deleted":"0","num_feature":"44","num_nodes":"31","size_leaf_vector":"1"}},{"base_weights":[1.5130356E-3,-1.655971E-1,3.558257E-1,-1.7543903E-1,1.2950283E-1,2.4821955E-1,4.6749777E-1,-1.9625333E-1,-1.1718669E-1,-1.17457114E-1,1.701585E-1,7.760783E-2,2.9995495E-1,4.2410213E-1,6.3502496E-1,-1.1521345E-2,-8.459164E-3,-8.294039E-3,-4.4528055E-3,-7.3085553E-3,5.390564E-3,-2.968423E-3,1.0146451E-2,-2.2778655E-3,7.000378E-3,1.0392651E-2,1.7764335E-2,1.6686251E-2,2.3061872E-2,2.7989442E-2,3.5E-2],"categories":[],"categories_nodes":[],"categories_segments":[],"categories_sizes":[],"default_left":[0,0,0,0,0,0,1,1,0,0,1,0,1,1,1,0,0,0,0,0,0,0,0,0,0,0,0,0,0,0,0],"id":13,"left_children":[1,3,5,7,9,11,13,15,17,19,21,23,25,27,29,-1,-1,-1,-1,-1,-1,-1,-1,-1,-1,-1,-1,-1,-1,-1,-1],"loss_changes":[1.740502E4,5.80188E2,1.1319658E3,2.3434717E2,6.4786964E1,4.2347656E2,3.358291E2,1.3170312E2,6.9696045E1,5.9431696E0,4.1688446E1,8.585279E1,1.8754224E2,1.230874E2,4.9243896E1,0E0,0E0,0E0,0E0,0E0,0E0,0E0,0E0,0E0,0E0,0E0,0E0,0E0,0E0,0E0,0E0],"parents":[2147483647,0,0,1,1,2,2,3,3,4,4,5,5,6,6,7,7,8,8,9,9,10,10,11,11,12,12,13,13,14,14],"right_children":[2,4,6,8,10,12,14,16,18,20,22,24,26,28,30,-1,-1,-1,-1,-1,-1,-1,-1,-1,-1,-1,-1,-1,-1,-1,-1],"split_conditions":[2.5E0,4.8E1,4.7E0,1.3333334E0,5E0,5.7E1,2.8125E-1,8.633721E0,3E0,9.790368E0,5E0,5E0,1.8421052E-1,2.2485207E-1,2.2508053E-1,-1.1521345E-2,-8.459164E-3,-8.294039E-3,-4.4528055E-3,-7.3085553E-3,5.390564E-3,-2.968423E-3,1.0146451E-2,-2.2778655E-3,7.000378E-3,1.0392651E-2,1.7764335E-2,1.6686251E-2,2.3061872E-2,2.7989442E-2,3.5E-2],"split_indices":[2,32,3,3,31,32,25,24,31,24,24,31,25,25,33,0,0,0,0,0,0,0,0,0,0,0,0,0,0,0,0],"split_type":[0,0,0,0,0,0,0,0,0,0,0,0,0,0,0,0,0,0,0,0,0,0,0,0,0,0,0,0,0,0,0],"sum_hessian":[2.9395378E5,1.9974508E5,9.420872E4,1.9329906E5,6.4460103E3,4.7979887E4,4.622883E4,1.4241006E5,5.0889E4,9.10556E2,5.535454E3,1.1164923E4,3.681496E4,3.6720906E4,9.507925E3,6.29412E4,7.946887E4,1.8630727E4,3.2258275E4,8.083182E2,1.0223782E2,6.910973E2,4.844357E3,3.75397E3,7.410953E3,1.3819084E4,2.2995879E4,1.0697888E4,2.6023018E4,4.571619E3,4.9363057E3],"tree_param":{"num_deleted":"0","num_feature":"44","num_nodes":"31","size_leaf_vector":"1"}},{"base_weights":[1.1361327E-3,-1.6067007E-1,3.4636906E-1,-1.7060412E-1,1.6901751E-1,2.4944952E-1,4.415259E-1,-1.8802574E-1,-9.1076516E-2,-1.4517842E-1,1.9796118E-1,-4.7159288E-2,2.7481025E-1,3.9661917E-1,5.682612E-1,-1.0854141E-2,-7.7836E-3,-5.9797033E-3,-1.4841051E-3,-5.549042E-3,-1.9388646E-2,7.3066377E-3,1.7441107E-2,-4.6495683E-3,7.664215E-4,4.1722856E-3,1.4704366E-2,1.7748317E-2,2.4293633E-2,3.102223E-2,2.3560178E-2],"categories":[],"categories_nodes":[],"categories_segments":[],"categories_sizes":[],"default_left":[0,0,0,0,0,0,1,1,0,0,1,0,1,0,0,0,0,0,0,0,0,0,0,0,0,0,0,0,0,0,0],"id":14,"left_children":[1,3,5,7,9,11,13,15,17,19,21,23,25,27,29,-1,-1,-1,-1,-1,-1,-1,-1,-1,-1,-1,-1,-1,-1,-1,-1],"loss_changes":[1.651151E4,6.5920166E2,8.6981445E2,2.7066064E2,5.3604996E1,3.5158545E2,2.7065234E2,1.5062695E2,6.1465088E1,4.0997458E0,4.211165E1,1.05652485E1,1.5877588E2,1.3049219E2,6.275586E1,0E0,0E0,0E0,0E0,0E0,0E0,0E0,0E0,0E0,0E0,0E0,0E0,0E0,0E0,0E0,0E0],"parents":[2147483647,0,0,1,1,2,2,3,3,4,4,5,5,6,6,7,7,8,8,9,9,10,10,11,11,12,12,13,13,14,14],"right_children":[2,4,6,8,10,12,14,16,18,20,22,24,26,28,30,-1,-1,-1,-1,-1,-1,-1,-1,-1,-1,-1,-1,-1,-1,-1,-1],"split_conditions":[2.6E0,5.4E1,4.7E0,1.5E0,5E0,5E0,1.029375E1,9.211764E0,5E0,5.4723346E-1,2.4295093E-1,4E0,6E0,2.3856816E-1,3.5241666E0,-1.0854141E-2,-7.7836E-3,-5.9797033E-3,-1.4841051E-3,-5.549042E-3,-1.9388646E-2,7.3066377E-3,1.7441107E-2,-4.6495683E-3,7.664215E-4,4.1722856E-3,1.4704366E-2,1.7748317E-2,2.4293633E-2,3.102223E-2,2.3560178E-2],"split_indices":[1,32,3,3,31,31,24,24,31,12,33,31,24,33,27,0,0,0,0,0,0,0,0,0,0,0,0,0,0,0,0],"split_type":[0,0,0,0,0,0,0,0,0,0,0,0,0,0,0,0,0,0,0,0,0,0,0,0,0,0,0,0,0,0,0],"sum_hessian":[2.9557878E5,2.0125392E5,9.432486E4,1.9536794E5,5.8859893E3,4.6731934E4,4.7592926E4,1.6025848E5,3.510945E4,4.958502E2,5.390139E3,3.6805771E3,4.3051355E4,3.5144812E4,1.2448115E4,8.442613E4,7.583234E4,2.397196E4,1.1137489E4,4.362267E2,5.9623474E1,4.0138188E3,1.3763201E3,2.1238994E3,1.5566776E3,3.9408523E3,3.9110504E4,2.3966305E4,1.1178508E4,8.0913496E3,4.356765E3],"tree_param":{"num_deleted":"0","num_feature":"44","num_nodes":"31","size_leaf_vector":"1"}},{"base_weights":[1.1792751E-3,-1.5996183E-1,3.2630834E-1,-1.7909732E-1,-4.176029E-2,1.9761081E-1,4.0136924E-1,-1.9427527E-1,-1.1970228E-1,-1.0887009E-1,5.4666422E-2,-4.2562667E-2,2.259461E-1,3.306755E-1,4.8721758E-1,-1.1184358E-2,-8.653844E-3,-4.3341476E-3,-6.797799E-3,-7.385321E-3,-3.917284E-3,4.6382337E-3,-3.04637E-3,-8.778273E-3,-7.716537E-4,5.5869753E-3,1.2977741E-2,2.1689927E-2,1.4765716E-2,2.1979649E-2,2.9357914E-2],"categories":[],"categories_nodes":[],"categories_segments":[],"categories_sizes":[],"default_left":[0,0,0,1,0,0,1,0,1,0,0,1,1,0,0,0,0,0,0,0,0,0,0,0,0,0,0,0,0,0,0],"id":15,"left_children":[1,3,5,7,9,11,13,15,17,19,21,23,25,27,29,-1,-1,-1,-1,-1,-1,-1,-1,-1,-1,-1,-1,-1,-1,-1,-1],"loss_changes":[1.5463162E4,4.4633008E2,9.447295E2,1.530835E2,1.7797757E2,2.45255E2,3.7474414E2,8.430127E1,1.8540863E1,1.9210815E1,4.972307E1,1.3729879E1,1.2367346E2,1.23427246E2,1.3251318E2,0E0,0E0,0E0,0E0,0E0,0E0,0E0,0E0,0E0,0E0,0E0,0E0,0E0,0E0,0E0,0E0],"parents":[2147483647,0,0,1,1,2,2,3,3,4,4,5,5,6,6,7,7,8,8,9,9,10,10,11,11,12,12,13,13,14,14],"right_children":[2,4,6,8,10,12,14,16,18,20,22,24,26,28,30,-1,-1,-1,-1,-1,-1,-1,-1,-1,-1,-1,-1,-1,-1,-1,-1],"split_conditions":[2.5E0,1.6E0,4.181818E0,2.857143E-1,5E0,5E0,2.4698795E-1,3E0,7.3241156E-1,3E0,2.7853882E-1,1.6733068E-1,1.6438356E-1,7.285697E-1,2.9032257E-1,-1.1184358E-2,-8.653844E-3,-4.3341476E-3,-6.797799E-3,-7.385321E-3,-3.917284E-3,4.6382337E-3,-3.04637E-3,-8.778273E-3,-7.716537E-4,5.5869753E-3,1.2977741E-2,2.1689927E-2,1.4765716E-2,2.1979649E-2,2.9357914E-2],"split_indices":[2,3,3,25,31,31,25,31,35,31,25,25,25,35,25,0,0,0,0,0,0,0,0,0,0,0,0,0,0,0,0],"split_type":[0,0,0,0,0,0,0,0,0,0,0,0,0,0,0,0,0,0,0,0,0,0,0,0,0,0,0,0,0,0,0],"sum_hessian":[2.951413E5,1.9733698E5,9.780434E4,1.6984038E5,2.74966E4,3.6031176E4,6.1773168E4,1.3526939E5,3.4570992E4,1.621347E4,1.1283131E4,3.8018865E3,3.222929E4,3.387997E4,2.7893203E4,5.6652355E4,7.861703E4,1.140805E4,2.3162941E4,7.132125E3,9.081345E3,8.48699E3,2.7961409E3,6.425633E2,3.1593232E3,7.3296177E3,2.4899672E4,8.64747E3,2.5232498E4,1.8895398E4,8.997805E3],"tree_param":{"num_deleted":"0","num_feature":"44","num_nodes":"31","size_leaf_vector":"1"}},{"base_weights":[1.6721195E-3,-1.5481849E-1,3.2199422E-1,-1.7154762E-1,8.894564E-3,2.520075E-1,4.354573E-1,-1.890838E-1,-1.1920572E-1,-8.941645E-2,9.226994E-2,-5.1898886E-2,2.7237427E-1,4.0606648E-1,6.2261796E-1,-1.1051255E-2,-8.328936E-3,-6.665818E-3,-3.9043978E-3,-7.451009E-3,-2.68624E-3,-5.0455537E-3,5.71918E-3,-6.322098E-3,-3.7593654E-4,8.869661E-3,1.5492802E-2,1.806442E-2,2.3875242E-2,2.7712813E-2,3.5E-2],"categories":[],"categories_nodes":[],"categories_segments":[],"categories_sizes":[],"default_left":[0,0,0,1,0,0,1,0,0,0,1,0,1,1,0,0,0,0,0,0,0,0,0,0,0,0,0,0,0,0,0],"id":16,"left_children":[1,3,5,7,9,11,13,15,17,19,21,23,25,27,29,-1,-1,-1,-1,-1,-1,-1,-1,-1,-1,-1,-1,-1,-1,-1,-1],"loss_changes":[1.476807E4,5.420752E2,7.6770996E2,1.647959E2,1.504503E2,3.702251E2,2.0266553E2,9.665088E1,2.6134888E1,1.7907951E1,4.2458305E1,1.2430427E1,1.9948193E2,1.0182031E2,3.7236084E1,0E0,0E0,0E0,0E0,0E0,0E0,0E0,0E0,0E0,0E0,0E0,0E0,0E0,0E0,0E0,0E0],"parents":[2147483647,0,0,1,1,2,2,3,3,4,4,5,5,6,6,7,7,8,8,9,9,10,10,11,11,12,12,13,13,14,14],"right_children":[2,4,6,8,10,12,14,16,18,20,22,24,26,28,30,-1,-1,-1,-1,-1,-1,-1,-1,-1,-1,-1,-1,-1,-1,-1,-1],"split_conditions":[2.6E0,1.85E0,5.15E0,1.0640394E1,5E0,5E0,1.125E1,3E0,1.2375E1,3E0,4.811881E0,2.183614E-1,7.120879E0,2.331844E-1,2.3487361E-1,-1.1051255E-2,-8.328936E-3,-6.665818E-3,-3.9043978E-3,-7.451009E-3,-2.68624E-3,-5.0455537E-3,5.71918E-3,-6.322098E-3,-3.7593654E-4,8.869661E-3,1.5492802E-2,1.806442E-2,2.3875242E-2,2.7712813E-2,3.5E-2],"split_indices":[1,3,3,24,31,31,24,31,24,31,24,33,24,33,33,0,0,0,0,0,0,0,0,0,0,0,0,0,0,0,0],"split_type":[0,0,0,0,0,0,0,0,0,0,0,0,0,0,0,0,0,0,0,0,0,0,0,0,0,0,0,0,0,0,0],"sum_hessian":[2.9460653E5,1.9791639E5,9.669015E4,1.795677E5,1.8348686E4,5.9805074E4,3.688508E4,1.345011E5,4.506661E4,8.419577E3,9.929108E3,3.7557969E3,5.6049277E4,3.1882166E4,5.0029136E3,5.5589742E4,7.891135E4,3.354879E4,1.1517822E4,3.151205E3,5.2683716E3,1.01902246E3,8.910086E3,1.4000696E3,2.3557273E3,1.5862111E4,4.0187164E4,1.960258E4,1.2279584E4,3.186347E3,1.816567E3],"tree_param":{"num_deleted":"0","num_feature":"44","num_nodes":"31","size_leaf_vector":"1"}},{"base_weights":[7.709651E-4,-1.5347281E-1,3.064333E-1,-1.641401E-1,1.2281675E-1,2.4513485E-1,4.2037076E-1,-1.8051142E-1,-8.892772E-2,-1.120295E-1,1.574615E-1,9.737321E-2,2.810595E-1,3.790517E-1,5.450962E-1,-1.0488772E-2,-7.412273E-3,-7.2826105E-3,-3.0966003E-3,-6.75184E-3,7.2369054E-3,2.6735742E-4,9.471969E-3,-1.8858372E-3,7.4443887E-3,1.0684224E-2,1.7216748E-2,1.4567479E-2,2.0784257E-2,2.246624E-2,2.9935528E-2],"categories":[],"categories_nodes":[],"categories_segments":[],"categories_sizes":[],"default_left":[0,0,0,0,0,0,1,1,0,0,1,0,1,0,1,0,0,0,0,0,0,0,0,0,0,0,0,0,0,0,0],"id":17,"left_children":[1,3,5,7,9,11,13,15,17,19,21,23,25,27,29,-1,-1,-1,-1,-1,-1,-1,-1,-1,-1,-1,-1,-1,-1,-1,-1],"loss_changes":[1.3876933E4,5.7659375E2,6.8933984E2,2.3189697E2,5.9219254E1,3.4068164E2,1.7774756E2,1.4602051E2,5.1556305E1,5.57623E0,3.0817245E1,8.740897E1,2.2004321E2,8.321533E1,4.3830322E1,0E0,0E0,0E0,0E0,0E0,0E0,0E0,0E0,0E0,0E0,0E0,0E0,0E0,0E0,0E0,0E0],"parents":[2147483647,0,0,1,1,2,2,3,3,4,4,5,5,6,6,7,7,8,8,9,9,10,10,11,11,12,12,13,13,14,14],"right_children":[2,4,6,8,10,12,14,16,18,20,22,24,26,28,30,-1,-1,-1,-1,-1,-1,-1,-1,-1,-1,-1,-1,-1,-1,-1,-1],"split_conditions":[2.6E0,4.8E1,5.3E0,1.5E0,5E0,6.1E1,2.9032257E-1,9.211764E0,3E0,1.02E0,1.3194445E-1,5E0,2.025862E-1,2.1304336E-1,2.1712787E-1,-1.0488772E-2,-7.412273E-3,-7.2826105E-3,-3.0966003E-3,-6.75184E-3,7.2369054E-3,2.6735742E-4,9.471969E-3,-1.8858372E-3,7.4443887E-3,1.0684224E-2,1.7216748E-2,1.4567479E-2,2.0784257E-2,2.246624E-2,2.9935528E-2],"split_indices":[1,32,3,3,31,32,25,24,31,39,25,31,25,33,33,0,0,0,0,0,0,0,0,0,0,0,0,0,0,0,0],"split_type":[0,0,0,0,0,0,0,0,0,0,0,0,0,0,0,0,0,0,0,0,0,0,0,0,0,0,0,0,0,0,0],"sum_hessian":[2.9433206E5,1.956188E5,9.871327E4,1.8834762E5,7.2711694E3,6.418547E4,3.4527805E4,1.5467675E5,3.367088E4,9.3409595E2,6.337073E3,1.2554416E4,5.163105E4,2.5939426E4,8.588378E3,8.110707E4,7.356967E4,1.085462E4,2.2816258E4,8.5807306E2,7.6022896E1,1.101532E3,5.2355415E3,3.4653445E3,9.089071E3,2.5008365E4,2.6622686E4,7.646074E3,1.8293352E4,3.0863933E3,5.501985E3],"tree_param":{"num_deleted":"0","num_feature":"44","num_nodes":"31","size_leaf_vector":"1"}},{"base_weights":[5.776128E-4,-1.5285286E-1,2.8765175E-1,-1.618874E-1,1.0111364E-1,1.7380625E-1,3.446718E-1,-1.7866713E-1,-1.0421558E-1,-1.2350772E-1,1.3686821E-1,4.2597115E-2,2.2927597E-1,2.8435662E-1,4.247248E-1,-1.0633745E-2,-7.772279E-3,-5.8814497E-3,-2.460645E-3,-3.3164632E-3,-9.605157E-3,9.581137E-3,7.255174E-4,-4.8278663E-3,4.0053013E-3,9.561992E-3,1.7093284E-2,9.75837E-3,1.5957544E-2,1.5662892E-2,2.2979764E-2],"categories":[],"categories_nodes":[],"categories_segments":[],"categories_sizes":[],"default_left":[0,0,0,1,0,0,1,0,0,0,0,0,0,1,0,0,0,0,0,0,0,0,0,0,0,0,0,0,0,0,0],"id":18,"left_children":[1,3,5,7,9,11,13,15,17,19,21,23,25,27,29,-1,-1,-1,-1,-1,-1,-1,-1,-1,-1,-1,-1,-1,-1,-1,-1],"loss_changes":[1.3039702E4,4.4271973E2,6.693008E2,1.8026611E2,5.3279083E1,2.5044739E2,3.3160498E2,1.1393359E2,3.097107E1,3.5585938E0,3.830236E1,5.341478E1,1.0352222E2,1.21534424E2,1.14583984E2,0E0,0E0,0E0,0E0,0E0,0E0,0E0,0E0,0E0,0E0,0E0,0E0,0E0,0E0,0E0,0E0],"parents":[2147483647,0,0,1,1,2,2,3,3,4,4,5,5,6,6,7,7,8,8,9,9,10,10,11,11,12,12,13,13,14,14],"right_children":[2,4,6,8,10,12,14,16,18,20,22,24,26,28,30,-1,-1,-1,-1,-1,-1,-1,-1,-1,-1,-1,-1,-1,-1,-1,-1],"split_conditions":[2.5E0,4.8E1,4.1E0,2.857143E-1,5E0,5.7E1,2.4864864E-1,3E0,3.512605E-1,1.85E-1,8E0,4E0,2.435181E-1,2.115234E-1,8.3E1,-1.0633745E-2,-7.772279E-3,-5.8814497E-3,-2.460645E-3,-3.3164632E-3,-9.605157E-3,9.581137E-3,7.255174E-4,-4.8278663E-3,4.0053013E-3,9.561992E-3,1.7093284E-2,9.75837E-3,1.5957544E-2,1.5662892E-2,2.2979764E-2],"split_indices":[2,32,2,25,31,32,25,31,25,17,31,31,33,33,32,0,0,0,0,0,0,0,0,0,0,0,0,0,0,0,0],"split_type":[0,0,0,0,0,0,0,0,0,0,0,0,0,0,0,0,0,0,0,0,0,0,0,0,0,0,0,0,0,0,0],"sum_hessian":[2.960436E5,1.9292986E5,1.03113734E5,1.8630311E5,6.6267456E3,3.4412316E4,6.870142E4,1.443116E5,4.1991527E4,9.0925726E2,5.7174883E3,1.022633E4,2.4185986E4,3.918424E4,2.951718E4,5.855126E4,8.576033E4,3.375644E4,8.235084E3,4.9776483E2,4.1149243E2,3.9489634E3,1.7685251E3,2.1703396E3,8.05599E3,1.8081207E4,6.1047793E3,1.0999169E4,2.818507E4,7.0366553E3,2.2480523E4],"tree_param":{"num_deleted":"0","num_feature":"44","num_nodes":"31","size_leaf_vector":"1"}},{"base_weights":[2.2754963E-3,-1.4927873E-1,2.8064442E-1,-1.7076598E-1,-5.9748836E-2,1.7424469E-1,3.40485E-1,-1.9989574E-1,-1.4118598E-1,-9.202328E-2,2.545345E-3,4.0449217E-2,1.9630682E-1,2.8148556E-1,4.1250432E-1,-1.1127259E-2,-8.51209E-3,-8.122745E-3,-5.3045335E-3,-5.081644E-3,8.648783E-4,-2.1640914E-3,3.4367074E-3,-5.6574713E-3,3.8399731E-3,7.680639E-3,1.3040672E-2,9.692741E-3,1.5980853E-2,1.9438613E-2,2.7105143E-2],"categories":[],"categories_nodes":[],"categories_segments":[],"categories_sizes":[],"default_left":[0,0,0,1,0,1,1,0,0,0,1,1,0,0,0,0,0,0,0,0,0,0,0,0,0,0,0,0,0,0,0],"id":19,"left_children":[1,3,5,7,9,11,13,15,17,19,21,23,25,27,29,-1,-1,-1,-1,-1,-1,-1,-1,-1,-1,-1,-1,-1,-1,-1,-1],"loss_changes":[1.2434726E4,3.6711523E2,6.614785E2,1.3258398E2,7.428369E1,1.1038916E2,2.8244727E2,5.2038574E1,5.698462E1,2.5579117E1,3.826667E1,2.9607086E1,8.838928E1,1.2208984E2,9.189258E1,0E0,0E0,0E0,0E0,0E0,0E0,0E0,0E0,0E0,0E0,0E0,0E0,0E0,0E0,0E0,0E0],"parents":[2147483647,0,0,1,1,2,2,3,3,4,4,5,5,6,6,7,7,8,8,9,9,10,10,11,11,12,12,13,13,14,14],"right_children":[2,4,6,8,10,12,14,16,18,20,22,24,26,28,30,-1,-1,-1,-1,-1,-1,-1,-1,-1,-1,-1,-1,-1,-1,-1,-1],"split_conditions":[2.5E0,1.5E0,4.181818E0,9.095339E0,1.9473684E0,1.5471698E-1,2.4864864E-1,1E0,2.3487361E-1,2.5E0,2.323722E-1,1.15384616E-1,2.3373175E-1,2.1392234E-1,3.1325302E-1,-1.1127259E-2,-8.51209E-3,-8.122745E-3,-5.3045335E-3,-5.081644E-3,8.648783E-4,-2.1640914E-3,3.4367074E-3,-5.6574713E-3,3.8399731E-3,7.680639E-3,1.3040672E-2,9.692741E-3,1.5980853E-2,1.9438613E-2,2.7105143E-2],"split_indices":[2,3,3,24,3,25,25,3,33,0,33,25,33,33,25,0,0,0,0,0,0,0,0,0,0,0,0,0,0,0,0],"split_type":[0,0,0,0,0,0,0,0,0,0,0,0,0,0,0,0,0,0,0,0,0,0,0,0,0,0,0,0,0,0,0],"sum_hessian":[2.9474134E5,1.9084075E5,1.0390058E5,1.5390208E5,3.693867E4,3.740251E4,6.649807E4,7.753659E4,7.6365484E4,2.433296E4,1.2605712E4,5.2954873E3,3.2107023E4,3.655659E4,2.9941479E4,4.395459E4,3.3582004E4,4.7545098E4,2.8820385E4,2.2367762E4,1.9652002E3,7.447865E3,5.157847E3,1.0124591E3,4.2830283E3,1.9322951E4,1.278407E4,1.1086705E4,2.5469887E4,2.5311256E4,4.630223E3],"tree_param":{"num_deleted":"0","num_feature":"44","num_nodes":"31","size_leaf_vector":"1"}},{"base_weights":[1.7893414E-3,-1.4763375E-1,2.703247E-1,-1.663009E-1,-3.942353E-2,1.7044707E-1,3.2566455E-1,-1.8121347E-1,-1.04605645E-1,-1.0506696E-1,5.3185064E-2,-4.455713E-2,1.936959E-1,3.0043137E-1,4.683001E-1,-1.0514762E-2,-8.013285E-3,-3.5995913E-3,-6.0431613E-3,-7.21377E-3,-3.746535E-3,4.0522157E-3,-3.3883385E-3,-4.6473714E-3,1.1145662E-3,1.0507811E-2,8.819255E-4,1.5626205E-2,6.1817234E-3,9.747629E-4,2.3812696E-2],"categories":[],"categories_nodes":[],"categories_segments":[],"categories_sizes":[],"default_left":[0,0,0,1,0,0,1,0,1,0,0,0,0,0,0,0,0,0,0,0,0,0,0,0,0,0,0,0,0,0,0],"id":20,"left_children":[1,3,5,7,9,11,13,15,17,19,21,23,25,27,29,-1,-1,-1,-1,-1,-1,-1,-1,-1,-1,-1,-1,-1,-1,-1,-1],"loss_changes":[1.1849432E4,3.8324072E2,5.834746E2,1.4885352E2,1.6974622E2,1.8820154E2,2.4437012E2,7.935449E1,1.6693298E1,1.9294891E1,3.9046577E1,1.19068775E1,9.842627E1,1.2335742E2,3.6389404E1,0E0,0E0,0E0,0E0,0E0,0E0,0E0,0E0,0E0,0E0,0E0,0E0,0E0,0E0,0E0,0E0],"parents":[2147483647,0,0,1,1,2,2,3,3,4,4,5,5,6,6,7,7,8,8,9,9,10,10,11,11,12,12,13,13,14,14],"right_children":[2,4,6,8,10,12,14,16,18,20,22,24,26,28,30,-1,-1,-1,-1,-1,-1,-1,-1,-1,-1,-1,-1,-1,-1,-1,-1],"split_conditions":[2.5E0,1.5555556E0,4.181818E0,2.8723404E-1,5E0,5E0,2.9032257E-1,3E0,7.3241156E-1,3E0,2.988048E-1,4E0,5.987814E0,1.2E1,5E0,-1.0514762E-2,-8.013285E-3,-3.5995913E-3,-6.0431613E-3,-7.21377E-3,-3.746535E-3,4.0522157E-3,-3.3883385E-3,-4.6473714E-3,1.1145662E-3,1.0507811E-2,8.819255E-4,1.5626205E-2,6.1817234E-3,9.747629E-4,2.3812696E-2],"split_indices":[2,3,3,25,31,31,25,31,35,31,25,31,27,31,31,0,0,0,0,0,0,0,0,0,0,0,0,0,0,0,0],"split_type":[0,0,0,0,0,0,0,0,0,0,0,0,0,0,0,0,0,0,0,0,0,0,0,0,0,0,0,0,0,0,0],"sum_hessian":[2.9530575E5,1.8973192E5,1.05573836E5,1.6181589E5,2.7916023E4,3.7642445E4,6.793139E4,1.30313734E5,3.1502156E4,1.6336923E4,1.1579102E4,3.6726572E3,3.396979E4,5.772351E4,1.0207877E4,5.4557645E4,7.575609E4,1.0483373E4,2.1018783E4,7.0967188E3,9.240204E3,9.412292E3,2.1668088E3,2.1311006E3,1.5415566E3,3.1064666E4,2.9051208E3,5.4026793E4,3.696716E3,1.780352E2,1.0029842E4],"tree_param":{"num_deleted":"0","num_feature":"44","num_nodes":"31","size_leaf_vector":"1"}},{"base_weights":[-1.0590641E-4,-1.4829189E-1,2.5363323E-1,-1.647391E-1,-4.7247507E-2,1.3227017E-1,3.0007443E-1,-1.8298952E-1,-1.1976012E-1,-7.7241234E-2,2.4644775E-2,7.619654E-2,1.801214E-1,2.2954383E-1,3.4972516E-1,-1.04769375E-2,-8.20618E-3,-6.6197263E-3,-3.6915622E-3,-5.51243E-3,-1.456089E-3,-7.3488173E-4,6.4827786E-3,4.9933414E-3,-2.602756E-3,3.4672644E-3,1.0429736E-2,8.644739E-3,1.3520493E-2,1.3684921E-2,1.9019373E-2],"categories":[],"categories_nodes":[],"categories_segments":[],"categories_sizes":[],"default_left":[0,0,0,1,0,0,1,0,0,1,0,0,1,0,1,0,0,0,0,0,0,0,0,0,0,0,0,0,0,0,0],"id":21,"left_children":[1,3,5,7,9,11,13,15,17,19,21,23,25,27,29,-1,-1,-1,-1,-1,-1,-1,-1,-1,-1,-1,-1,-1,-1,-1,-1],"loss_changes":[1.1108423E4,3.0994287E2,6.138657E2,1.3164355E2,5.63214E1,8.087677E1,2.7578223E2,5.7115234E1,2.6854797E1,2.926033E1,3.1792868E1,4.2172966E1,5.127881E1,7.530188E1,1.0765576E2,0E0,0E0,0E0,0E0,0E0,0E0,0E0,0E0,0E0,0E0,0E0,0E0,0E0,0E0,0E0,0E0],"parents":[2147483647,0,0,1,1,2,2,3,3,4,4,5,5,6,6,7,7,8,8,9,9,10,10,11,11,12,12,13,13,14,14],"right_children":[2,4,6,8,10,12,14,16,18,20,22,24,26,28,30,-1,-1,-1,-1,-1,-1,-1,-1,-1,-1,-1,-1,-1,-1,-1,-1],"split_conditions":[2.3333333E0,1.6E0,3.8E0,1.0274336E1,2.2E0,3.2E0,2.2816901E-1,9.5E-1,1.2229412E1,2.323722E-1,2.4192245E-1,1.0724299E1,1.657754E-1,2.2167814E-1,2.1238329E-1,-1.04769375E-2,-8.20618E-3,-6.6197263E-3,-3.6915622E-3,-5.51243E-3,-1.456089E-3,-7.3488173E-4,6.4827786E-3,4.9933414E-3,-2.602756E-3,3.4672644E-3,1.0429736E-2,8.644739E-3,1.3520493E-2,1.3684921E-2,1.9019373E-2],"split_indices":[1,3,3,24,3,1,25,3,24,33,33,24,25,33,33,0,0,0,0,0,0,0,0,0,0,0,0,0,0,0,0],"split_type":[0,0,0,0,0,0,0,0,0,0,0,0,0,0,0,0,0,0,0,0,0,0,0,0,0,0,0,0,0,0,0],"sum_hessian":[2.9542838E5,1.8650725E5,1.08921125E5,1.6039739E5,2.610986E4,3.0146463E4,7.877466E4,1.1409682E5,4.6300566E4,1.8424434E4,7.6854263E3,1.3882814E4,1.6263648E4,3.2547475E4,4.6227184E4,4.73906E4,6.670622E4,3.630853E4,9.992036E3,1.0926247E4,7.4981875E3,5.5907524E3,2.0946738E3,1.1720639E4,2.162175E3,3.3269639E3,1.2936685E4,1.3643016E4,1.890446E4,1.3289423E4,3.293776E4],"tree_param":{"num_deleted":"0","num_feature":"44","num_nodes":"31","size_leaf_vector":"1"}},{"base_weights":[4.1797644E-4,-1.3603921E-1,2.5838706E-1,-1.5461823E-1,5.3657666E-2,3.154311E-1,1.8328966E-1,-1.841857E-1,-1.248173E-1,-8.5258186E-2,1.008514E-1,2.869471E-1,4.075773E-1,1.9927892E-1,3.3347365E-2,-1.0082616E-2,-6.305332E-3,-6.981554E-3,-3.988105E-3,-7.0577743E-3,-1.8111548E-3,1.3533507E-3,8.869889E-3,1.1929314E-2,1.6980141E-2,1.4831372E-2,2.180971E-2,8.188386E-3,1.3870078E-2,-5.132947E-3,2.6950515E-3],"categories":[],"categories_nodes":[],"categories_segments":[],"categories_sizes":[],"default_left":[0,0,0,1,0,0,0,0,0,0,0,0,0,0,1,0,0,0,0,0,0,0,0,0,0,0,0,0,0,0,0],"id":22,"left_children":[1,3,5,7,9,11,13,15,17,19,21,23,25,27,29,-1,-1,-1,-1,-1,-1,-1,-1,-1,-1,-1,-1,-1,-1,-1,-1],"loss_changes":[1.0386793E4,6.801731E2,4.372412E2,1.5485205E2,1.1289705E2,1.5215186E2,1.0563745E2,8.9470215E1,5.8415405E1,1.1960749E1,7.257449E1,1.1277368E2,4.3343994E1,1.1043677E2,1.1901558E1,0E0,0E0,0E0,0E0,0E0,0E0,0E0,0E0,0E0,0E0,0E0,0E0,0E0,0E0,0E0,0E0],"parents":[2147483647,0,0,1,1,2,2,3,3,4,4,5,5,6,6,7,7,8,8,9,9,10,10,11,11,12,12,13,13,14,14],"right_children":[2,4,6,8,10,12,14,16,18,20,22,24,26,28,30,-1,-1,-1,-1,-1,-1,-1,-1,-1,-1,-1,-1,-1,-1,-1,-1],"split_conditions":[4.8E1,2.1E0,4.2652383E0,9.211764E0,4E0,1.0311558E1,1.3E1,1.2352941E0,1.17E1,3E0,3.3E0,2.2790934E-1,2.0576398E-1,2.3883271E-1,5.2777777E0,-1.0082616E-2,-6.305332E-3,-6.981554E-3,-3.988105E-3,-7.0577743E-3,-1.8111548E-3,1.3533507E-3,8.869889E-3,1.1929314E-2,1.6980141E-2,1.4831372E-2,2.180971E-2,8.188386E-3,1.3870078E-2,-5.132947E-3,2.6950515E-3],"split_indices":[32,2,27,24,31,24,31,3,24,31,2,33,33,33,24,0,0,0,0,0,0,0,0,0,0,0,0,0,0,0,0],"split_type":[0,0,0,0,0,0,0,0,0,0,0,0,0,0,0,0,0,0,0,0,0,0,0,0,0,0,0,0,0,0,0],"sum_hessian":[2.9506022E5,1.9298014E5,1.02080086E5,1.757662E5,1.7213934E4,5.8010633E4,4.406945E4,8.8224445E4,8.754176E4,4.3643735E3,1.2849561E4,4.4316754E4,1.3693878E4,3.9821992E4,4.247458E3,6.78232E4,2.0401244E4,6.587746E4,2.1664291E4,2.0376488E3,2.3267249E3,6.544176E3,6.305385E3,2.310435E4,2.1212404E4,2.8108516E3,1.0883026E4,2.738041E4,1.2441584E4,5.5645593E2,3.691002E3],"tree_param":{"num_deleted":"0","num_feature":"44","num_nodes":"31","size_leaf_vector":"1"}},{"base_weights":[3.7557073E-4,-1.3948712E-1,2.3747805E-1,-1.576615E-1,-3.635755E-2,1.7261544E-1,3.0040824E-1,-1.7670819E-1,-1.1389314E-1,-9.7939305E-2,5.018576E-2,-5.2108843E-2,1.9154373E-1,2.6782203E-1,3.9271608E-1,-1.0324946E-2,-7.780598E-3,-6.2384806E-3,-3.1146496E-3,-6.9800005E-3,-3.2968284E-3,-2.5181023E-3,4.509286E-3,-4.5154197E-3,4.588814E-5,6.75399E-3,1.1622385E-2,8.832583E-3,1.44733135E-2,1.7524885E-2,2.2923073E-2],"categories":[],"categories_nodes":[],"categories_segments":[],"categories_sizes":[],"default_left":[0,0,0,1,0,0,1,0,0,0,1,0,0,0,1,0,0,0,0,0,0,0,0,0,0,0,0,0,0,0,0],"id":23,"left_children":[1,3,5,7,9,11,13,15,17,19,21,23,25,27,29,-1,-1,-1,-1,-1,-1,-1,-1,-1,-1,-1,-1,-1,-1,-1,-1],"loss_changes":[9.794587E3,3.4817944E2,4.4724902E2,1.3164062E2,1.4838019E2,2.2959229E2,1.6719824E2,6.912891E1,2.6867493E1,2.1675903E1,4.6569298E1,8.509729E0,1.1492651E2,8.106641E1,4.011206E1,0E0,0E0,0E0,0E0,0E0,0E0,0E0,0E0,0E0,0E0,0E0,0E0,0E0,0E0,0E0,0E0],"parents":[2147483647,0,0,1,1,2,2,3,3,4,4,5,5,6,6,7,7,8,8,9,9,10,10,11,11,12,12,13,13,14,14],"right_children":[2,4,6,8,10,12,14,16,18,20,22,24,26,28,30,-1,-1,-1,-1,-1,-1,-1,-1,-1,-1,-1,-1,-1,-1,-1,-1],"split_conditions":[2.5E0,1.5555556E0,4.8E0,1.02E1,5E0,5E0,2.7572018E-1,3E0,3.3445945E-1,3E0,3.6548486E0,4E0,2.221852E-1,2.049589E-1,2.3373175E-1,-1.0324946E-2,-7.780598E-3,-6.2384806E-3,-3.1146496E-3,-6.9800005E-3,-3.2968284E-3,-2.5181023E-3,4.509286E-3,-4.5154197E-3,4.588814E-5,6.75399E-3,1.1622385E-2,8.832583E-3,1.44733135E-2,1.7524885E-2,2.2923073E-2],"split_indices":[2,3,1,24,31,31,25,31,25,31,27,31,33,33,33,0,0,0,0,0,0,0,0,0,0,0,0,0,0,0,0],"split_type":[0,0,0,0,0,0,0,0,0,0,0,0,0,0,0,0,0,0,0,0,0,0,0,0,0,0,0,0,0,0,0],"sum_hessian":[2.9535303E5,1.857703E5,1.0958273E5,1.5793597E5,2.7834342E4,5.396546E4,5.561726E4,1.10043125E5,4.7892836E4,1.6263045E4,1.1571296E4,4.19179E3,4.977367E4,4.1109797E4,1.4507464E4,4.5615055E4,6.442807E4,3.9552457E4,8.340378E3,7.0625864E3,9.200459E3,3.292411E3,8.278885E3,2.43723E3,1.7545602E3,2.0912607E4,2.8861062E4,7.889827E3,3.3219973E4,8.839216E3,5.6682476E3],"tree_param":{"num_deleted":"0","num_feature":"44","num_nodes":"31","size_leaf_vector":"1"}},{"base_weights":[1.5002177E-3,-1.3906488E-1,2.2735655E-1,-1.4629352E-1,8.243577E-2,7.3299155E-2,2.5582E-1,-1.648475E-1,-9.579236E-2,-1.7965606E-3,1.5266272E-1,-4.8010718E-2,1.2331301E-1,1.8925087E-1,3.1520152E-1,-9.9745495E-3,-6.972798E-3,-6.8358644E-3,-3.621918E-3,-4.42191E-4,2.7577702E-2,4.6407017E-3,1.4730788E-2,-4.15494E-3,8.33064E-4,1.830765E-3,8.445848E-3,6.534669E-3,1.1115677E-2,1.20674595E-2,1.7265653E-2],"categories":[],"categories_nodes":[],"categories_segments":[],"categories_sizes":[],"default_left":[0,0,0,0,0,0,1,1,0,0,0,0,0,1,1,0,0,0,0,0,0,0,0,0,0,0,0,0,0,0,0],"id":24,"left_children":[1,3,5,7,9,11,13,15,17,19,21,23,25,27,29,-1,-1,-1,-1,-1,-1,-1,-1,-1,-1,-1,-1,-1,-1,-1,-1],"loss_changes":[9.3991045E3,2.9221948E2,4.9798096E2,1.655647E2,3.4145615E1,1.0750128E2,3.7887158E2,1.1365381E2,4.5375977E1,1.0289143E1,2.6706543E1,1.1752584E1,4.9581787E1,8.747449E1,1.1257617E2,0E0,0E0,0E0,0E0,0E0,0E0,0E0,0E0,0E0,0E0,0E0,0E0,0E0,0E0,0E0,0E0],"parents":[2147483647,0,0,1,1,2,2,3,3,4,4,5,5,6,6,7,7,8,8,9,9,10,10,11,11,12,12,13,13,14,14],"right_children":[2,4,6,8,10,12,14,16,18,20,22,24,26,28,30,-1,-1,-1,-1,-1,-1,-1,-1,-1,-1,-1,-1,-1,-1,-1,-1],"split_conditions":[2.3333333E0,4.8E1,5.8E1,1.3333334E0,6.3E1,5E0,2.2416107E-1,8.540816E0,3E0,6.051743E-1,1.3403204E-1,4E0,3.142857E0,2.176732E-1,2.1304336E-1,-9.9745495E-3,-6.972798E-3,-6.8358644E-3,-3.621918E-3,-4.42191E-4,2.7577702E-2,4.6407017E-3,1.4730788E-2,-4.15494E-3,8.33064E-4,1.830765E-3,8.445848E-3,6.534669E-3,1.1115677E-2,1.20674595E-2,1.7265653E-2],"split_indices":[1,32,32,3,32,31,25,24,31,14,36,31,3,33,33,0,0,0,0,0,0,0,0,0,0,0,0,0,0,0,0],"split_type":[0,0,0,0,0,0,0,0,0,0,0,0,0,0,0,0,0,0,0,0,0,0,0,0,0,0,0,0,0,0,0],"sum_hessian":[2.9605338E5,1.8248255E5,1.1357082E5,1.7671623E5,5.7663145E3,1.7712059E4,9.5858766E4,1.29232375E5,4.748386E4,2.6215264E3,3.1447878E3,5.1700386E3,1.254202E4,4.519696E4,5.0661805E4,5.4653684E4,7.457869E4,1.7248648E4,3.023521E4,2.5897097E3,3.1816807E1,2.2137915E3,9.3099646E2,3.3524263E3,1.8176123E3,4.32457E3,8.217449E3,1.6312956E4,2.8884006E4,1.4676992E4,3.5984812E4],"tree_param":{"num_deleted":"0","num_feature":"44","num_nodes":"31","size_leaf_vector":"1"}},{"base_weights":[5.7301094E-4,-1.3767974E-1,2.161859E-1,-1.5324202E-1,-5.0198734E-2,1.08568154E-1,2.5701913E-1,-1.8443881E-1,-1.3358183E-1,-9.2973866E-2,2.2459188E-2,-5.3666186E-2,1.361763E-1,3.1299096E-1,2.1118113E-1,-1.9252678E-2,-9.092941E-3,-8.236518E-3,-5.5291024E-3,-6.4195464E-3,-3.1992595E-3,-2.5056945E-3,2.9239764E-3,-1.7258835E-3,-7.6623894E-3,7.5897984E-3,2.9545752E-4,1.6624825E-2,1.1638759E-2,1.3721691E-2,9.141686E-3],"categories":[],"categories_nodes":[],"categories_segments":[],"categories_sizes":[],"default_left":[0,0,0,0,0,0,0,0,0,0,1,0,0,0,1,0,0,0,0,0,0,0,0,0,0,0,0,0,0,0,0],"id":25,"left_children":[1,3,5,7,9,11,13,15,17,19,21,23,25,27,29,-1,-1,-1,-1,-1,-1,-1,-1,-1,-1,-1,-1,-1,-1,-1,-1],"loss_changes":[8.816791E3,2.4533252E2,5.0776514E2,9.38147E1,8.4620316E1,1.424083E2,2.1485889E2,3.0559937E1,6.722302E1,1.7584091E1,2.6388456E1,8.817995E0,5.526245E1,5.8923584E1,8.253735E1,0E0,0E0,0E0,0E0,0E0,0E0,0E0,0E0,0E0,0E0,0E0,0E0,0E0,0E0,0E0,0E0],"parents":[2147483647,0,0,1,1,2,2,3,3,4,4,5,5,6,6,7,7,8,8,9,9,10,10,11,11,12,12,13,13,14,14],"right_children":[2,4,6,8,10,12,14,16,18,20,22,24,26,28,30,-1,-1,-1,-1,-1,-1,-1,-1,-1,-1,-1,-1,-1,-1,-1,-1],"split_conditions":[2.25E0,1.5454545E0,3.8E0,1E0,5E0,5E0,3.822941E0,7.785407E1,3E0,3E0,3.6548486E0,5.4458623E0,5.987814E0,7.6278156E-1,7.3167974E-1,-1.9252678E-2,-9.092941E-3,-8.236518E-3,-5.5291024E-3,-6.4195464E-3,-3.1992595E-3,-2.5056945E-3,2.9239764E-3,-1.7258835E-3,-7.6623894E-3,7.5897984E-3,2.9545752E-4,1.6624825E-2,1.1638759E-2,1.3721691E-2,9.141686E-3],"split_indices":[2,3,2,3,31,31,27,23,31,31,27,27,27,35,35,0,0,0,0,0,0,0,0,0,0,0,0,0,0,0,0],"split_type":[0,0,0,0,0,0,0,0,0,0,0,0,0,0,0,0,0,0,0,0,0,0,0,0,0,0,0,0,0,0,0],"sum_hessian":[2.9577078E5,1.802152E5,1.1555557E5,1.529963E5,2.7218896E4,3.1786633E4,8.376894E4,5.913981E4,9.385649E4,1.7133293E4,1.00856045E4,4.621958E3,2.7164676E4,3.7711812E4,4.6057125E4,7.4853174E2,5.8391277E4,3.9861586E4,5.3994906E4,7.7085054E3,9.424787E3,3.3443352E3,6.741269E3,3.8785112E3,7.4344696E2,2.42554E4,2.909274E3,3.0331828E4,7.379982E3,1.4249485E4,3.180764E4],"tree_param":{"num_deleted":"0","num_feature":"44","num_nodes":"31","size_leaf_vector":"1"}},{"base_weights":[-2.7146848E-4,-1.2757264E-1,2.2385527E-1,-1.451738E-1,4.5963373E-2,1.6741106E-1,2.9388666E-1,-1.6300176E-1,-9.350636E-2,-8.546154E-2,8.603423E-2,7.727787E-2,1.8828656E-1,2.0552427E-1,3.1377202E-1,-9.646981E-3,-7.123124E-3,-5.260259E-3,-1.9223251E-3,-8.657929E-3,-8.4589975E-4,2.2718748E-3,9.845126E-3,2.970728E-3,1.1188892E-2,-5.109226E-3,9.730046E-3,6.271531E-3,1.1744217E-2,1.6279837E-2,7.4985065E-3],"categories":[],"categories_nodes":[],"categories_segments":[],"categories_sizes":[],"default_left":[0,0,1,1,0,1,0,0,0,1,0,0,0,0,0,0,0,0,0,0,0,0,0,0,0,0,0,0,0,0,0],"id":26,"left_children":[1,3,5,7,9,11,13,15,17,19,21,23,25,27,29,-1,-1,-1,-1,-1,-1,-1,-1,-1,-1,-1,-1,-1,-1,-1,-1],"loss_changes":[8.423637E3,5.751509E2,4.2269678E2,1.574502E2,9.1346466E1,1.11406494E2,8.378955E1,7.812329E1,2.8242767E1,2.4351776E1,5.9810143E1,2.9150642E1,8.824109E1,2.0591675E1,7.5390625E1,0E0,0E0,0E0,0E0,0E0,0E0,0E0,0E0,0E0,0E0,0E0,0E0,0E0,0E0,0E0,0E0],"parents":[2147483647,0,0,1,1,2,2,3,3,4,4,5,5,6,6,7,7,8,8,9,9,10,10,11,11,12,12,13,13,14,14],"right_children":[2,4,6,8,10,12,14,16,18,20,22,24,26,28,30,-1,-1,-1,-1,-1,-1,-1,-1,-1,-1,-1,-1,-1,-1,-1,-1],"split_conditions":[4.8E1,2.2E0,2.3157895E-1,2.8125E-1,4E0,1.657754E-1,2.042975E-1,3E0,3.512605E-1,2.2058824E-1,4.3333335E0,2.5538617E-1,5E0,8.4E1,1.1E1,-9.646981E-3,-7.123124E-3,-5.260259E-3,-1.9223251E-3,-8.657929E-3,-8.4589975E-4,2.2718748E-3,9.845126E-3,2.970728E-3,1.1188892E-2,-5.109226E-3,9.730046E-3,6.271531E-3,1.1744217E-2,1.6279837E-2,7.4985065E-3],"split_indices":[32,3,25,25,31,25,33,31,25,25,8,33,31,32,31,0,0,0,0,0,0,0,0,0,0,0,0,0,0,0,0],"split_type":[0,0,0,0,0,0,0,0,0,0,0,0,0,0,0,0,0,0,0,0,0,0,0,0,0,0,0,0,0,0,0],"sum_hessian":[2.9523475E5,1.8828955E5,1.0694522E5,1.7095128E5,1.7338268E4,5.92198E4,4.7725418E4,1.2709338E5,4.3857895E4,4.0503264E3,1.328794E4,1.1138234E4,4.8081566E4,8.770275E3,3.8955145E4,5.1709254E4,7.538413E4,3.6169965E4,7.6879287E3,1.7755896E3,2.2747368E3,9.7281045E3,3.5598362E3,9.929571E3,1.208663E3,1.02231586E3,4.705925E4,2.3548828E3,6.415393E3,3.633085E4,2.6242917E3],"tree_param":{"num_deleted":"0","num_feature":"44","num_nodes":"31","size_leaf_vector":"1"}},{"base_weights":[1.3996067E-3,-1.323767E-1,2.0553564E-1,-1.3984397E-1,9.245238E-2,8.065737E-2,2.342951E-1,-1.8169822E-1,-1.1888142E-1,2.0899622E-1,4.980761E-2,-9.522006E-2,1.1310457E-1,1.7308651E-1,2.8715503E-1,-1.1495928E-2,-7.7394545E-3,-7.654795E-3,-4.785962E-3,7.40555E-3,1.9581499E-2,-5.999601E-3,3.8073664E-3,2.1024829E-2,-4.9887444E-3,4.0477514E-3,9.820293E-3,3.936413E-3,9.66379E-3,1.4871384E-2,5.386081E-3],"categories":[],"categories_nodes":[],"categories_segments":[],"categories_sizes":[],"default_left":[0,0,0,0,0,0,1,1,0,0,0,0,0,1,0,0,0,0,0,0,0,0,0,0,0,0,0,0,0,0,0],"id":27,"left_children":[1,3,5,7,9,11,13,15,17,19,21,23,25,27,29,-1,-1,-1,-1,-1,-1,-1,-1,-1,-1,-1,-1,-1,-1,-1,-1],"loss_changes":[8.0725176E3,2.9983984E2,4.2026172E2,1.5162134E2,2.8527405E1,1.2506273E2,3.077046E2,7.4802E1,9.125134E1,1.7043846E1,1.8839252E1,8.110483E0,4.9525833E1,8.395471E1,9.4026855E1,0E0,0E0,0E0,0E0,0E0,0E0,0E0,0E0,0E0,0E0,0E0,0E0,0E0,0E0,0E0,0E0],"parents":[2147483647,0,0,1,1,2,2,3,3,4,4,5,5,6,6,7,7,8,8,9,9,10,10,11,11,12,12,13,13,14,14],"right_children":[2,4,6,8,10,12,14,16,18,20,22,24,26,28,30,-1,-1,-1,-1,-1,-1,-1,-1,-1,-1,-1,-1,-1,-1,-1,-1],"split_conditions":[2.25E0,4.8E1,6.6E1,1E0,7.29317E-1,4E0,2.2416107E-1,7.4968686E0,3E0,7.9E1,5E0,1.5E0,4.3333335E0,1.657754E-1,1.1E1,-1.1495928E-2,-7.7394545E-3,-7.654795E-3,-4.785962E-3,7.40555E-3,1.9581499E-2,-5.999601E-3,3.8073664E-3,2.1024829E-2,-4.9887444E-3,4.0477514E-3,9.820293E-3,3.936413E-3,9.66379E-3,1.4871384E-2,5.386081E-3],"split_indices":[1,32,32,3,35,31,25,24,31,32,31,2,0,25,31,0,0,0,0,0,0,0,0,0,0,0,0,0,0,0,0],"split_type":[0,0,0,0,0,0,0,0,0,0,0,0,0,0,0,0,0,0,0,0,0,0,0,0,0,0,0,0,0,0,0],"sum_hessian":[2.9559912E5,1.7857412E5,1.17024984E5,1.7283458E5,5.7395435E3,2.1907283E4,9.51177E4,5.767236E4,1.1516222E5,1.5358834E3,4.20366E3,3.4113447E3,1.849594E4,4.4080887E4,5.1036816E4,2.065248E4,3.701988E4,4.648543E4,6.867679E4,1.1536469E3,3.8223657E2,5.635257E2,3.6401345E3,2.8873653E1,3.382471E3,1.3347672E4,5.148267E3,7.7711035E3,3.630978E4,4.827201E4,2.7648074E3],"tree_param":{"num_deleted":"0","num_feature":"44","num_nodes":"31","size_leaf_vector":"1"}},{"base_weights":[1.0243212E-3,-1.2229956E-1,2.1069163E-1,-1.391671E-1,3.9769407E-2,1.5925018E-1,2.7592978E-1,-1.543789E-1,-8.1631824E-2,-7.663507E-2,7.701687E-2,1.2780333E-1,2.2193576E-1,2.5099248E-1,3.4882036E-1,-9.229224E-3,-6.680285E-3,-5.626501E-3,-3.115563E-3,-1.0299879E-2,-2.5291927E-3,4.4102568E-4,6.666592E-3,3.446736E-3,7.885157E-3,1.2111145E-2,2.497167E-3,1.0861372E-2,1.5061912E-2,1.569781E-2,1.9774651E-2],"categories":[],"categories_nodes":[],"categories_segments":[],"categories_sizes":[],"default_left":[0,0,1,1,0,0,0,0,0,1,0,1,0,0,1,0,0,0,0,0,0,0,0,0,0,0,0,0,0,0,0],"id":28,"left_children":[1,3,5,7,9,11,13,15,17,19,21,23,25,27,29,-1,-1,-1,-1,-1,-1,-1,-1,-1,-1,-1,-1,-1,-1,-1,-1],"loss_changes":[7.632774E3,5.0812622E2,3.6684277E2,1.4732153E2,7.5995155E1,1.20475586E2,8.7523926E1,8.3517334E1,2.1010742E1,1.4313063E1,5.0978783E1,7.16438E1,7.121887E1,6.086792E1,1.9862549E1,0E0,0E0,0E0,0E0,0E0,0E0,0E0,0E0,0E0,0E0,0E0,0E0,0E0,0E0,0E0,0E0],"parents":[2147483647,0,0,1,1,2,2,3,3,4,4,5,5,6,6,7,7,8,8,9,9,10,10,11,11,12,12,13,13,14,14],"right_children":[2,4,6,8,10,12,14,16,18,20,22,24,26,28,30,-1,-1,-1,-1,-1,-1,-1,-1,-1,-1,-1,-1,-1,-1,-1,-1],"split_conditions":[4.8E1,2.1E0,2.32493E-1,2.8793773E-1,4E0,2.3759142E-1,2.8624535E-1,3E0,2.1936083E-1,1.8933333E-1,3.3E0,1.8115942E-1,1.3E1,2.3290585E-1,2.3052861E-1,-9.229224E-3,-6.680285E-3,-5.626501E-3,-3.115563E-3,-1.0299879E-2,-2.5291927E-3,4.4102568E-4,6.666592E-3,3.446736E-3,7.885157E-3,1.2111145E-2,2.497167E-3,1.0861372E-2,1.5061912E-2,1.569781E-2,1.9774651E-2],"split_indices":[32,2,25,25,31,33,25,31,33,25,3,25,31,33,33,0,0,0,0,0,0,0,0,0,0,0,0,0,0,0,0],"split_type":[0,0,0,0,0,0,0,0,0,0,0,0,0,0,0,0,0,0,0,0,0,0,0,0,0,0,0,0,0,0,0],"sum_hessian":[2.95187E5,1.8586394E5,1.0932307E5,1.6834408E5,1.7519861E4,6.112774E4,4.8195336E4,1.3313969E5,3.5204383E4,4.2461616E3,1.3273699E4,4.0709855E4,2.041788E4,3.5914188E4,1.2281147E4,5.4247562E4,7.8892125E4,1.35402705E4,2.1664113E4,7.099612E2,3.5362004E3,6.00486E3,7.26884E3,1.3714512E4,2.6995346E4,1.8262734E4,2.155148E3,2.1484182E4,1.4430006E4,7.035526E3,5.245621E3],"tree_param":{"num_deleted":"0","num_feature":"44","num_nodes":"31","size_leaf_vector":"1"}},{"base_weights":[7.693307E-4,-1.2674916E-1,1.904783E-1,-1.340167E-1,7.73489E-2,1.1615017E-1,2.3243491E-1,-1.4863159E-1,-8.026552E-2,1.2748608E-2,1.6667454E-1,-4.307281E-2,1.3991824E-1,1.755184E-1,2.7549577E-1,-9.029517E-3,-6.3531804E-3,-2.3419724E-3,-4.7686393E-3,-5.473528E-3,2.2751645E-3,-3.2902274E-3,9.886255E-3,-4.204539E-3,1.2166527E-3,3.633673E-3,8.746347E-3,5.383487E-3,9.833623E-3,1.4179151E-2,5.400998E-3],"categories":[],"categories_nodes":[],"categories_segments":[],"categories_sizes":[],"default_left":[0,0,0,1,0,0,1,0,1,0,1,0,1,1,0,0,0,0,0,0,0,0,0,0,0,0,0,0,0,0,0],"id":29,"left_children":[1,3,5,7,9,11,13,15,17,19,21,23,25,27,29,-1,-1,-1,-1,-1,-1,-1,-1,-1,-1,-1,-1,-1,-1,-1,-1],"loss_changes":[7.1506997E3,2.6222925E2,3.7051416E2,1.3407153E2,3.507346E1,1.6228204E2,1.8608545E2,9.247876E1,1.8421616E1,1.4154161E1,1.8453926E1,1.5418464E1,8.780817E1,4.692816E1,5.8509277E1,0E0,0E0,0E0,0E0,0E0,0E0,0E0,0E0,0E0,0E0,0E0,0E0,0E0,0E0,0E0,0E0],"parents":[2147483647,0,0,1,1,2,2,3,3,4,4,5,5,6,6,7,7,8,8,9,9,10,10,11,11,12,12,13,13,14,14],"right_children":[2,4,6,8,10,12,14,16,18,20,22,24,26,28,30,-1,-1,-1,-1,-1,-1,-1,-1,-1,-1,-1,-1,-1,-1,-1,-1],"split_conditions":[2.25E0,4.8E1,8.2E1,2.8723404E-1,7E1,5E0,2.2416107E-1,3E0,7.313967E-1,5E0,4.811881E0,4E0,1.9787517E-1,1.7307693E-1,1.1E1,-9.029517E-3,-6.3531804E-3,-2.3419724E-3,-4.7686393E-3,-5.473528E-3,2.2751645E-3,-3.2902274E-3,9.886255E-3,-4.204539E-3,1.2166527E-3,3.633673E-3,8.746347E-3,5.383487E-3,9.833623E-3,1.4179151E-2,5.400998E-3],"split_indices":[1,32,32,25,32,31,25,31,35,31,24,31,25,25,31,0,0,0,0,0,0,0,0,0,0,0,0,0,0,0,0],"split_type":[0,0,0,0,0,0,0,0,0,0,0,0,0,0,0,0,0,0,0,0,0,0,0,0,0,0,0,0,0,0,0],"sum_hessian":[2.9558366E5,1.7676538E5,1.1881827E5,1.7068833E5,6.0770425E3,4.287296E4,7.594531E4,1.3419672E5,3.6491613E4,3.527916E3,2.5491267E3,5.567968E3,3.7304992E4,3.2713293E4,4.323202E4,5.4068203E4,8.0128516E4,1.1362299E4,2.5129312E4,7.445066E2,2.7834094E3,2.9984116E2,2.2492854E3,3.4623103E3,2.1056575E3,1.2774203E4,2.453079E4,7.777829E3,2.4935463E4,4.123933E4,1.9926918E3],"tree_param":{"num_deleted":"0","num_feature":"44","num_nodes":"31","size_leaf_vector":"1"}},{"base_weights":[3.3197214E-4,-1.2512428E-1,1.8401204E-1,-1.4388819E-1,-4.763297E-2,7.866884E-2,2.1125421E-1,-1.7169257E-1,-1.13405794E-1,-8.106876E-2,-3.1902478E-3,-1.3100162E-1,8.68925E-2,1.542781E-1,2.3554851E-1,-9.837018E-3,-7.343513E-3,-6.898777E-3,-4.3800557E-3,-5.677014E-3,-2.467701E-3,-1.9609078E-3,2.976527E-3,7.543709E-4,-9.305257E-3,1.7037586E-3,5.866879E-3,5.535655E-3,9.889844E-3,9.455442E-3,1.324059E-2],"categories":[],"categories_nodes":[],"categories_segments":[],"categories_sizes":[],"default_left":[0,0,0,1,0,1,0,0,0,0,1,0,1,1,1,0,0,0,0,0,0,0,0,0,0,0,0,0,0,0,0],"id":30,"left_children":[1,3,5,7,9,11,13,15,17,19,21,23,25,27,29,-1,-1,-1,-1,-1,-1,-1,-1,-1,-1,-1,-1,-1,-1,-1,-1],"loss_changes":[6.8016226E3,2.5498804E2,3.4372778E2,1.1964111E2,5.0803932E1,4.2475998E1,1.3169482E2,4.5875977E1,4.269104E1,2.008606E1,3.3194344E1,7.5117435E0,3.808191E1,5.392328E1,9.061621E1,0E0,0E0,0E0,0E0,0E0,0E0,0E0,0E0,0E0,0E0,0E0,0E0,0E0,0E0,0E0,0E0],"parents":[2147483647,0,0,1,1,2,2,3,3,4,4,5,5,6,6,7,7,8,8,9,9,10,10,11,11,12,12,13,13,14,14],"right_children":[2,4,6,8,10,12,14,16,18,20,22,24,26,28,30,-1,-1,-1,-1,-1,-1,-1,-1,-1,-1,-1,-1,-1,-1,-1,-1],"split_conditions":[2.3333333E0,1.5E0,3.5E0,9.211764E0,1.85E0,4.811881E0,2.1392234E-1,9.375E-1,2.2755939E-1,2.2583035E-1,2.3567078E-1,8.581688E1,2.183614E-1,8.888199E0,8.429268E0,-9.837018E-3,-7.343513E-3,-6.898777E-3,-4.3800557E-3,-5.677014E-3,-2.467701E-3,-1.9609078E-3,2.976527E-3,7.543709E-4,-9.305257E-3,1.7037586E-3,5.866879E-3,5.535655E-3,9.889844E-3,9.455442E-3,1.324059E-2],"split_indices":[1,3,3,24,3,24,33,3,33,33,33,20,33,24,24,0,0,0,0,0,0,0,0,0,0,0,0,0,0,0,0],"split_type":[0,0,0,0,0,0,0,0,0,0,0,0,0,0,0,0,0,0,0,0,0,0,0,0,0,0,0,0,0,0,0],"sum_hessian":[2.9515556E5,1.7537297E5,1.1978259E5,1.4118416E5,3.4188812E4,2.4613158E4,9.516944E4,7.383135E4,6.73528E4,1.9508684E4,1.4680129E4,9.2791614E2,2.3685242E4,2.8452584E4,6.671685E4,3.6743312E4,3.7088043E4,3.4497773E4,3.2855027E4,9.6365E3,9.872184E3,9.325417E3,5.3547124E3,2.5384373E2,6.740724E2,8.662537E3,1.5022705E4,1.4221656E4,1.4230928E4,2.5793877E4,4.0922977E4],"tree_param":{"num_deleted":"0","num_feature":"44","num_nodes":"31","size_leaf_vector":"1"}},{"base_weights":[-9.820308E-5,-1.1474517E-1,1.9164898E-1,-1.3168354E-1,4.1144993E-2,1.5631466E-1,2.6285002E-1,-1.4744519E-1,-7.925018E-2,-7.3433794E-2,7.3348016E-2,1.05313495E-1,1.8525171E-1,2.319902E-1,3.0858693E-1,-8.93901E-3,-6.31088E-3,-4.612283E-3,-1.3435305E-3,-7.6310993E-3,-5.508274E-4,4.9666255E-3,-1.8493653E-3,-9.424087E-3,5.5667884E-3,5.996251E-3,1.0457452E-2,9.251599E-3,1.3016648E-2,1.4514607E-2,2.0527333E-2],"categories":[],"categories_nodes":[],"categories_segments":[],"categories_sizes":[],"default_left":[0,0,1,1,0,1,1,0,0,1,0,0,1,0,0,0,0,0,0,0,0,0,0,0,0,0,0,0,0,0,0],"id":31,"left_children":[1,3,5,7,9,11,13,15,17,19,21,23,25,27,29,-1,-1,-1,-1,-1,-1,-1,-1,-1,-1,-1,-1,-1,-1,-1,-1],"loss_changes":[6.496283E3,4.8835132E2,2.7814673E2,1.3784302E2,6.690407E1,1.090459E2,5.1688965E1,8.528882E1,2.6239914E1,1.9653912E1,4.0589836E1,4.7391876E1,7.357568E1,2.9100098E1,2.744043E1,0E0,0E0,0E0,0E0,0E0,0E0,0E0,0E0,0E0,0E0,0E0,0E0,0E0,0E0,0E0,0E0],"parents":[2147483647,0,0,1,1,2,2,3,3,4,4,5,5,6,6,7,7,8,8,9,9,10,10,11,11,12,12,13,13,14,14],"right_children":[2,4,6,8,10,12,14,16,18,20,22,24,26,28,30,-1,-1,-1,-1,-1,-1,-1,-1,-1,-1,-1,-1,-1,-1,-1,-1],"split_conditions":[5.2E1,2.25E0,2.4796748E-1,2.857143E-1,4E0,1.923077E-1,2.3264177E-1,3E0,3.512605E-1,2.1875E-1,5.274839E0,5E0,2.1123755E-1,9E1,3.1117824E-1,-8.93901E-3,-6.31088E-3,-4.612283E-3,-1.3435305E-3,-7.6310993E-3,-5.508274E-4,4.9666255E-3,-1.8493653E-3,-9.424087E-3,5.5667884E-3,5.996251E-3,1.0457452E-2,9.251599E-3,1.3016648E-2,1.4514607E-2,2.0527333E-2],"split_indices":[32,3,25,25,31,25,33,31,25,25,27,31,33,32,25,0,0,0,0,0,0,0,0,0,0,0,0,0,0,0,0],"split_type":[0,0,0,0,0,0,0,0,0,0,0,0,0,0,0,0,0,0,0,0,0,0,0,0,0,0,0,0,0,0,0],"sum_hessian":[2.9550638E5,1.8493397E5,1.1057239E5,1.668099E5,1.8124064E4,7.3902195E4,3.667019E4,1.2825294E5,3.8556973E4,3.9753455E3,1.414872E4,2.6754986E4,4.714721E4,2.1901186E4,1.4769004E4,5.1790477E4,7.646246E4,3.0890348E4,7.666626E3,1.750921E3,2.2244243E3,1.1452587E4,2.6961323E3,5.364705E2,2.6218518E4,1.2630413E4,3.45168E4,8.247612E3,1.3653574E4,1.2526232E4,2.2427712E3],"tree_param":{"num_deleted":"0","num_feature":"44","num_nodes":"31","size_leaf_vector":"1"}},{"base_weights":[8.343034E-4,-1.2347388E-1,1.6570164E-1,-1.4247765E-1,-7.211129E-2,8.349667E-2,1.983302E-1,-1.747783E-1,-1.17659934E-1,-1.0554993E-1,-4.0173896E-2,1.2107538E-2,1.10075325E-1,1.6767213E-1,2.4971402E-1,-9.8617505E-3,-7.2071454E-3,-6.8583176E-3,-4.2715697E-3,-5.994846E-3,-3.6563352E-3,-3.020584E-3,2.5840846E-4,1.1615407E-3,-5.9693246E-3,6.1033606E-3,-2.2784162E-3,6.9255293E-3,1.1115005E-2,1.1684104E-2,1.670535E-2],"categories":[],"categories_nodes":[],"categories_segments":[],"categories_sizes":[],"default_left":[0,0,0,1,1,0,1,0,0,0,0,0,0,0,0,0,0,0,0,0,0,0,0,0,0,0,0,0,0,0,0],"id":32,"left_children":[1,3,5,7,9,11,13,15,17,19,21,23,25,27,29,-1,-1,-1,-1,-1,-1,-1,-1,-1,-1,-1,-1,-1,-1,-1,-1],"loss_changes":[6.0485806E3,1.6422461E2,3.4026855E2,9.843408E1,4.852948E1,6.839789E1,1.4303052E2,3.6680786E1,4.3653076E1,1.0315918E1,2.1343697E1,1.4327895E1,4.905487E1,9.05918E1,4.5841064E1,0E0,0E0,0E0,0E0,0E0,0E0,0E0,0E0,0E0,0E0,0E0,0E0,0E0,0E0,0E0,0E0],"parents":[2147483647,0,0,1,1,2,2,3,3,4,4,5,5,6,6,7,7,8,8,9,9,10,10,11,11,12,12,13,13,14,14],"right_children":[2,4,6,8,10,12,14,16,18,20,22,24,26,28,30,-1,-1,-1,-1,-1,-1,-1,-1,-1,-1,-1,-1,-1,-1,-1,-1],"split_conditions":[2.1E0,1.3333334E0,3.8E0,8.633721E0,2.2583035E-1,2.115234E-1,2.5373134E-1,9.375E-1,2.3487361E-1,1.7E0,2E0,6.13875E0,1.294964E-1,2.3656681E-1,3.1538463E-1,-9.8617505E-3,-7.2071454E-3,-6.8583176E-3,-4.2715697E-3,-5.994846E-3,-3.6563352E-3,-3.020584E-3,2.5840846E-4,1.1615407E-3,-5.9693246E-3,6.1033606E-3,-2.2784162E-3,6.9255293E-3,1.1115005E-2,1.1684104E-2,1.670535E-2],"split_indices":[2,3,2,24,33,33,25,3,33,3,0,27,26,33,25,0,0,0,0,0,0,0,0,0,0,0,0,0,0,0,0],"split_type":[0,0,0,0,0,0,0,0,0,0,0,0,0,0,0,0,0,0,0,0,0,0,0,0,0,0,0,0,0,0,0],"sum_hessian":[2.951289E5,1.6826133E5,1.2686757E5,1.2281644E5,4.5444883E4,3.604976E4,9.0817805E4,5.3358918E4,6.945752E4,2.2198006E4,2.3246877E4,9.781714E3,2.6268047E4,5.6884168E4,3.3933637E4,3.0784326E4,2.2574594E4,4.3264934E4,2.6192588E4,1.5384652E4,6.8133535E3,1.6074242E4,7.1726357E3,9.020261E3,7.6145355E2,2.4389746E4,1.8783008E3,3.7090086E4,1.9794084E4,2.8520604E4,5.413034E3],"tree_param":{"num_deleted":"0","num_feature":"44","num_nodes":"31","size_leaf_vector":"1"}},{"base_weights":[-9.954526E-4,-1.1384091E-1,1.7591326E-1,-1.3273981E-1,1.0022912E-2,1.1002504E-1,2.0703158E-1,-1.4821628E-1,-7.517655E-2,-8.2577236E-2,4.853526E-2,8.085595E-2,1.700918E-1,2.1595171E-1,6.344483E-2,-8.886225E-3,-6.4085457E-3,-4.293158E-3,-1.6828573E-3,-7.569708E-3,-2.739987E-3,3.831102E-4,6.1657717E-3,-3.209427E-4,5.0393767E-3,9.357646E-3,1.928949E-3,9.427949E-3,1.3343185E-2,1.0816976E-3,5.9370114E-3],"categories":[],"categories_nodes":[],"categories_segments":[],"categories_sizes":[],"default_left":[0,0,1,1,0,0,0,0,0,1,0,0,0,0,0,0,0,0,0,0,0,0,0,0,0,0,0,0,0,0,0],"id":33,"left_children":[1,3,5,7,9,11,13,15,17,19,21,23,25,27,29,-1,-1,-1,-1,-1,-1,-1,-1,-1,-1,-1,-1,-1,-1,-1,-1],"loss_changes":[5.905878E3,4.2283228E2,2.3619775E2,1.3959546E2,8.5296616E1,6.4749756E1,1.00198975E2,7.303027E1,1.4728958E1,1.3420792E1,5.1622772E1,4.3299744E1,2.7085785E1,1.0269922E2,1.058527E1,0E0,0E0,0E0,0E0,0E0,0E0,0E0,0E0,0E0,0E0,0E0,0E0,0E0,0E0,0E0,0E0],"parents":[2147483647,0,0,1,1,2,2,3,3,4,4,5,5,6,6,7,7,8,8,9,9,10,10,11,11,12,12,13,13,14,14],"right_children":[2,4,6,8,10,12,14,16,18,20,22,24,26,28,30,-1,-1,-1,-1,-1,-1,-1,-1,-1,-1,-1,-1,-1,-1,-1,-1],"split_conditions":[4.8E1,1.85E0,2.0209974E-1,2.8793773E-1,4E0,2.378703E-1,1.3E1,2.2040962E-1,1.302907E1,2.046332E-1,3.75E0,7.1E1,1.3E1,2.3656681E-1,9.367347E0,-8.886225E-3,-6.4085457E-3,-4.293158E-3,-1.6828573E-3,-7.569708E-3,-2.739987E-3,3.831102E-4,6.1657717E-3,-3.209427E-4,5.0393767E-3,9.357646E-3,1.928949E-3,9.427949E-3,1.3343185E-2,1.0816976E-3,5.9370114E-3],"split_indices":[32,3,25,25,31,33,31,33,24,25,3,32,31,33,24,0,0,0,0,0,0,0,0,0,0,0,0,0,0,0,0],"split_type":[0,0,0,0,0,0,0,0,0,0,0,0,0,0,0,0,0,0,0,0,0,0,0,0,0,0,0,0,0,0,0],"sum_hessian":[2.9583153E5,1.8061978E5,1.15211734E5,1.5671002E5,2.3909777E4,3.6960777E4,7.825095E4,1.2350193E5,3.320808E4,7.0220435E3,1.6887734E4,2.4881871E4,1.2078906E4,7.367292E4,4.578033E3,4.99537E4,7.3548234E4,2.64076E4,6.80048E3,2.0170024E3,5.005041E3,1.0921011E4,5.966724E3,4.625177E3,2.0256695E4,1.0690806E4,1.3880997E3,4.7904816E4,2.5768104E4,2.6086995E3,1.9693336E3],"tree_param":{"num_deleted":"0","num_feature":"44","num_nodes":"31","size_leaf_vector":"1"}},{"base_weights":[2.686657E-4,-1.1860842E-1,1.5785423E-1,-1.3063155E-1,-3.7046943E-2,-5.292338E-2,1.6930544E-1,-1.5964836E-1,-1.0344232E-1,-7.842831E-2,2.7899925E-2,-8.775937E-2,-1.20887016E-4,2.0618701E-1,1.1778659E-1,-9.03691E-3,-6.267627E-3,-6.900821E-3,-4.103117E-3,-5.3558853E-3,-1.8068639E-3,-8.892482E-4,4.571272E-3,-1.2654099E-2,-3.648381E-3,1.5015564E-2,-1.0480953E-3,7.5518116E-3,1.1416206E-2,8.708927E-3,4.581203E-3],"categories":[],"categories_nodes":[],"categories_segments":[],"categories_sizes":[],"default_left":[0,0,0,1,0,0,0,0,0,1,1,1,0,0,1,0,0,0,0,0,0,0,0,0,0,0,0,0,0,0,0],"id":34,"left_children":[1,3,5,7,9,11,13,15,17,19,21,23,25,27,29,-1,-1,-1,-1,-1,-1,-1,-1,-1,-1,-1,-1,-1,-1,-1,-1],"loss_changes":[5.5330957E3,1.6508203E2,3.0657446E2,1.157417E2,5.815825E1,1.2036535E1,2.2885742E2,5.1310547E1,5.59859E1,1.6027573E1,2.4457153E1,9.6364155E0,1.6344566E1,8.566748E1,7.413861E1,0E0,0E0,0E0,0E0,0E0,0E0,0E0,0E0,0E0,0E0,0E0,0E0,0E0,0E0,0E0,0E0],"parents":[2147483647,0,0,1,1,2,2,3,3,4,4,5,5,6,6,7,7,8,8,9,9,10,10,11,11,12,12,13,13,14,14],"right_children":[2,4,6,8,10,12,14,16,18,20,22,24,26,28,30,-1,-1,-1,-1,-1,-1,-1,-1,-1,-1,-1,-1,-1,-1,-1,-1],"split_conditions":[2.2E0,1.6E0,5E0,9.07563E0,5E0,4E0,4.2652383E0,4E0,2.1936083E-1,2.323722E-1,2.323722E-1,6.2615957E0,7.0854473E-1,2.1265571E-1,7.3167974E-1,-9.03691E-3,-6.267627E-3,-6.900821E-3,-4.103117E-3,-5.3558853E-3,-1.8068639E-3,-8.892482E-4,4.571272E-3,-1.2654099E-2,-3.648381E-3,1.5015564E-2,-1.0480953E-3,7.5518116E-3,1.1416206E-2,8.708927E-3,4.581203E-3],"split_indices":[2,3,31,24,31,31,27,31,33,33,33,24,35,33,35,0,0,0,0,0,0,0,0,0,0,0,0,0,0,0,0],"split_type":[0,0,0,0,0,0,0,0,0,0,0,0,0,0,0,0,0,0,0,0,0,0,0,0,0,0,0,0,0,0,0],"sum_hessian":[2.953562E5,1.6835478E5,1.2700141E5,1.467241E5,2.1630701E4,6.543615E3,1.2045779E5,7.097251E4,7.575158E4,1.3213167E4,8.417533E3,3.9410115E3,2.6026038E3,7.019869E4,5.0259105E4,4.3943035E4,2.702947E4,2.8940709E4,4.681087E4,7.870249E3,5.342918E3,4.895815E3,3.521719E3,3.2177417E2,3.6192373E3,1.6764996E2,2.4349536E3,2.0110123E4,5.0088562E4,1.5924719E4,3.4334387E4],"tree_param":{"num_deleted":"0","num_feature":"44","num_nodes":"31","size_leaf_vector":"1"}},{"base_weights":[4.0719204E-4,-1.1662249E-1,1.5336446E-1,-1.2547116E-1,1.8216223E-2,6.326813E-2,1.7971703E-1,-1.6371287E-1,-1.0179736E-1,-2.0401599E-2,1.5554115E-1,-4.30063E-2,9.065507E-2,1.8833487E-1,2.5444916E-2,-9.765324E-3,-6.652423E-3,-6.644358E-3,-4.059938E-3,-3.113128E-3,2.1292418E-3,6.960039E-3,3.0980928E-2,-2.2524921E-3,3.5E-2,1.8248729E-3,6.231693E-3,7.859454E-3,1.1381562E-2,2.1466156E-3,-4.4084345E-3],"categories":[],"categories_nodes":[],"categories_segments":[],"categories_sizes":[],"default_left":[0,0,0,1,0,0,0,0,0,0,1,0,0,1,0,0,0,0,0,0,0,0,0,0,0,0,0,0,0,0,0],"id":35,"left_children":[1,3,5,7,9,11,13,15,17,19,21,23,25,27,29,-1,-1,-1,-1,-1,-1,-1,-1,-1,-1,-1,-1,-1,-1,-1,-1],"loss_changes":[5.290553E3,1.9979712E2,3.041516E2,1.422378E2,5.4732277E1,8.441076E1,1.317561E2,5.817517E1,6.214386E1,2.1242949E1,1.7126682E1,1.037176E1,4.2418137E1,1.14857666E2,1.0442516E1,0E0,0E0,0E0,0E0,0E0,0E0,0E0,0E0,0E0,0E0,0E0,0E0,0E0,0E0,0E0,0E0],"parents":[2147483647,0,0,1,1,2,2,3,3,4,4,5,5,6,6,7,7,8,8,9,9,10,10,11,11,12,12,13,13,14,14],"right_children":[2,4,6,8,10,12,14,16,18,20,22,24,26,28,30,-1,-1,-1,-1,-1,-1,-1,-1,-1,-1,-1,-1,-1,-1,-1,-1],"split_conditions":[2.2E0,3.6E1,7.1E1,8.633721E0,6.5E1,5E0,1.3E1,9.5E-1,2.2012159E-1,2.3290585E-1,9.818182E0,6.6E0,3.5E0,8.947675E0,1.1363637E-1,-9.765324E-3,-6.652423E-3,-6.644358E-3,-4.059938E-3,-3.113128E-3,2.1292418E-3,6.960039E-3,3.0980928E-2,-2.2524921E-3,3.5E-2,1.8248729E-3,6.231693E-3,7.859454E-3,1.1381562E-2,2.1466156E-3,-4.4084345E-3],"split_indices":[2,32,32,24,32,31,31,3,33,33,24,2,3,24,26,0,0,0,0,0,0,0,0,0,0,0,0,0,0,0,0],"split_type":[0,0,0,0,0,0,0,0,0,0,0,0,0,0,0,0,0,0,0,0,0,0,0,0,0,0,0,0,0,0,0],"sum_hessian":[2.9554753E5,1.67438E5,1.2810951E5,1.5712747E5,1.031054E4,2.899301E4,9.91165E4,6.0074855E4,9.705261E4,8.0475674E3,2.262973E3,5.9397437E3,2.3053268E4,9.3871836E4,5.2446665E3,2.9584871E4,3.0489984E4,3.8672816E4,5.8379793E4,4.835488E3,3.2120796E3,2.1874666E3,7.550626E1,5.926766E3,1.2977617E1,8.889546E3,1.4163722E4,5.2370887E4,4.150095E4,4.546389E3,6.982776E2],"tree_param":{"num_deleted":"0","num_feature":"44","num_nodes":"31","size_leaf_vector":"1"}},{"base_weights":[7.002185E-4,-1.1163309E-1,1.509753E-1,-1.2908778E-1,-4.1043323E-2,6.5792255E-2,1.7411032E-1,-1.5545139E-1,-1.00406416E-1,-5.925177E-2,1.01598E-1,-8.0197856E-2,8.6675406E-2,2.2409314E-1,1.413202E-1,-8.0949245E-3,-1.3937232E-3,-6.292288E-3,-3.6967916E-3,-3.3756017E-3,2.3655745E-3,4.4637844E-3,2.8139157E-2,1.8684538E-2,-4.2309924E-3,1.0031991E-3,5.8287415E-3,1.1508569E-2,1.7322788E-3,3.0576156E-3,7.7777067E-3],"categories":[],"categories_nodes":[],"categories_segments":[],"categories_sizes":[],"default_left":[0,0,0,1,0,0,0,0,0,1,0,0,1,0,0,0,0,0,0,0,0,0,0,0,0,0,0,0,0,0,0],"id":36,"left_children":[1,3,5,7,9,11,13,15,17,19,21,23,25,27,29,-1,-1,-1,-1,-1,-1,-1,-1,-1,-1,-1,-1,-1,-1,-1,-1],"loss_changes":[4.9979004E3,2.0873584E2,2.4956323E2,1.0269238E2,8.726795E1,8.25019E1,1.6319946E2,5.819287E1,4.3802063E1,2.6237549E1,2.160188E1,6.8729534E0,4.713147E1,4.5401855E1,6.8614746E1,0E0,0E0,0E0,0E0,0E0,0E0,0E0,0E0,0E0,0E0,0E0,0E0,0E0,0E0,0E0,0E0],"parents":[2147483647,0,0,1,1,2,2,3,3,4,4,5,5,6,6,7,7,8,8,9,9,10,10,11,11,12,12,13,13,14,14],"right_children":[2,4,6,8,10,12,14,16,18,20,22,24,26,28,30,-1,-1,-1,-1,-1,-1,-1,-1,-1,-1,-1,-1,-1,-1,-1,-1],"split_conditions":[2.3333333E0,1.5E0,7.1E1,9.211764E0,5.6E1,4E0,3.8082979E0,3.6E1,2.2755939E-1,1.469967E-1,1.5552212E-1,1.5E0,1.9512194E-1,1.7E1,2.0199633E-1,-8.0949245E-3,-1.3937232E-3,-6.292288E-3,-3.6967916E-3,-3.3756017E-3,2.3655745E-3,4.4637844E-3,2.8139157E-2,1.8684538E-2,-4.2309924E-3,1.0031991E-3,5.8287415E-3,1.1508569E-2,1.7322788E-3,3.0576156E-3,7.7777067E-3],"split_indices":[1,3,32,24,32,31,27,32,33,36,36,2,25,31,33,0,0,0,0,0,0,0,0,0,0,0,0,0,0,0,0],"split_type":[0,0,0,0,0,0,0,0,0,0,0,0,0,0,0,0,0,0,0,0,0,0,0,0,0,0,0,0,0,0,0],"sum_hessian":[2.960631E5,1.6941898E5,1.26644125E5,1.3583011E5,3.358887E4,2.7050926E4,9.95932E4,7.077061E4,6.50595E4,2.9787697E4,3.8011733E3,3.3843003E3,2.3666627E4,3.9449875E4,6.0143324E4,6.736525E4,3.4053572E3,3.3172145E4,3.1887355E4,2.7646018E4,2.1416797E3,3.7036272E3,9.754606E1,3.1629398E1,3.352671E3,7.3335625E3,1.6333063E4,3.8222793E4,1.2270848E3,9.070284E3,5.1073043E4],"tree_param":{"num_deleted":"0","num_feature":"44","num_nodes":"31","size_leaf_vector":"1"}},{"base_weights":[3.930369E-4,-1.03119366E-1,1.5534887E-1,-1.237154E-1,4.441229E-4,1.1747994E-1,2.0192118E-1,-1.5297003E-1,-9.522337E-2,-3.2837875E-2,9.042345E-2,1.317652E-2,1.2779704E-1,1.899287E-1,2.9605502E-1,-8.8109365E-3,-6.3597574E-3,-5.979968E-3,-3.4905316E-3,-7.1083508E-3,-1.1010611E-3,2.1576253E-3,9.6554505E-3,-6.5600144E-4,4.770874E-3,5.1821438E-3,8.546378E-3,6.845349E-3,1.05521595E-2,7.418815E-3,1.5535514E-2],"categories":[],"categories_nodes":[],"categories_segments":[],"categories_sizes":[],"default_left":[0,0,1,1,0,1,0,0,0,1,0,0,1,1,0,0,0,0,0,0,0,0,0,0,0,0,0,0,0,0,0],"id":37,"left_children":[1,3,5,7,9,11,13,15,17,19,21,23,25,27,29,-1,-1,-1,-1,-1,-1,-1,-1,-1,-1,-1,-1,-1,-1,-1,-1],"loss_changes":[4.7498633E3,3.7869067E2,2.0913452E2,1.23416504E2,8.822624E1,7.037958E1,5.9989502E1,4.3756958E1,4.646576E1,2.5429613E1,3.860073E1,1.2766157E1,6.199469E1,5.2783447E1,1.2941345E1,0E0,0E0,0E0,0E0,0E0,0E0,0E0,0E0,0E0,0E0,0E0,0E0,0E0,0E0,0E0,0E0],"parents":[2147483647,0,0,1,1,2,2,3,3,4,4,5,5,6,6,7,7,8,8,9,9,10,10,11,11,12,12,13,13,14,14],"right_children":[2,4,6,8,10,12,14,16,18,20,22,24,26,28,30,-1,-1,-1,-1,-1,-1,-1,-1,-1,-1,-1,-1,-1,-1,-1,-1],"split_conditions":[4.8E1,1.7E0,2.3344947E-1,9.211764E0,3.3E0,1.5118791E-1,3.1325302E-1,1E0,2.2755939E-1,1.2962963E-1,5E0,2.4325666E-1,2.3656681E-1,2.1304336E-1,1.9368055E-1,-8.8109365E-3,-6.3597574E-3,-5.979968E-3,-3.4905316E-3,-7.1083508E-3,-1.1010611E-3,2.1576253E-3,9.6554505E-3,-6.5600144E-4,4.770874E-3,5.1821438E-3,8.546378E-3,6.845349E-3,1.05521595E-2,7.418815E-3,1.5535514E-2],"split_indices":[32,3,25,24,2,25,25,3,33,25,8,33,33,33,33,0,0,0,0,0,0,0,0,0,0,0,0,0,0,0,0],"split_type":[0,0,0,0,0,0,0,0,0,0,0,0,0,0,0,0,0,0,0,0,0,0,0,0,0,0,0,0,0,0,0],"sum_hessian":[2.9612338E5,1.775305E5,1.1859287E5,1.4808173E5,2.9448758E4,6.541126E4,5.318161E4,7.305919E4,7.502255E4,2.14969E4,7.951857E3,5.8888027E3,5.9522457E4,4.71756E4,6.006008E3,3.8406867E4,3.4652324E4,3.828848E4,3.6734066E4,1.9334277E3,1.9563473E4,5.4468237E3,2.5050327E3,4.4617744E3,1.4270281E3,3.815848E4,2.1363977E4,1.3439411E4,3.373619E4,5.438333E2,5.4621743E3],"tree_param":{"num_deleted":"0","num_feature":"44","num_nodes":"31","size_leaf_vector":"1"}},{"base_weights":[-3.4360227E-4,-1.0153015E-1,1.4831407E-1,-1.17852844E-1,1.4253495E-2,1.2217601E-1,2.0799054E-1,-1.3253413E-1,-6.492724E-2,-7.682894E-2,4.901101E-2,1.3304742E-1,-1.9240826E-3,-1.3026254E-1,2.1168903E-1,-8.1040105E-3,-5.6198803E-3,-3.8747115E-3,-1.3065919E-3,1.3499785E-3,-4.8152497E-3,-6.758074E-3,3.1749394E-3,-5.204754E-3,6.8962313E-3,1.0671539E-3,-4.606845E-3,2.3142719E-3,-1.2798016E-2,9.226734E-3,1.2542895E-2],"categories":[],"categories_nodes":[],"categories_segments":[],"categories_sizes":[],"default_left":[0,0,1,1,0,0,0,0,0,0,1,0,0,0,1,0,0,0,0,0,0,0,0,0,0,0,0,0,0,0,0],"id":38,"left_children":[1,3,5,7,9,11,13,15,17,19,21,23,25,27,29,-1,-1,-1,-1,-1,-1,-1,-1,-1,-1,-1,-1,-1,-1,-1,-1],"loss_changes":[4.446902E3,3.3244885E2,1.867334E2,1.197771E2,6.882771E1,1.12350464E2,4.5681152E1,7.178516E1,1.6319E1,1.2156937E1,4.2008617E1,8.858606E1,1.4108914E1,8.826815E0,3.8320435E1,0E0,0E0,0E0,0E0,0E0,0E0,0E0,0E0,0E0,0E0,0E0,0E0,0E0,0E0,0E0,0E0],"parents":[2147483647,0,0,1,1,2,2,3,3,4,4,5,5,6,6,7,7,8,8,9,9,10,10,11,11,12,12,13,13,14,14],"right_children":[2,4,6,8,10,12,14,16,18,20,22,24,26,28,30,-1,-1,-1,-1,-1,-1,-1,-1,-1,-1,-1,-1,-1,-1,-1,-1],"split_conditions":[4.7E1,2E0,2.5329816E-1,2.8723404E-1,4E0,1.3E1,5E0,2.2040962E-1,1.2781915E1,6.0648803E-2,1.2686567E-1,5E0,1.0518292E-1,2.0888889E-1,2.3264177E-1,-8.1040105E-3,-5.6198803E-3,-3.8747115E-3,-1.3065919E-3,1.3499785E-3,-4.8152497E-3,-6.758074E-3,3.1749394E-3,-5.204754E-3,6.8962313E-3,1.0671539E-3,-4.606845E-3,2.3142719E-3,-1.2798016E-2,9.226734E-3,1.2542895E-2],"split_indices":[32,2,25,25,31,31,31,33,24,26,25,31,26,17,33,0,0,0,0,0,0,0,0,0,0,0,0,0,0,0,0],"split_type":[0,0,0,0,0,0,0,0,0,0,0,0,0,0,0,0,0,0,0,0,0,0,0,0,0,0,0,0,0,0,0],"sum_hessian":[2.9562428E5,1.7589747E5,1.1972682E5,1.5416481E5,2.173266E4,8.3262766E4,3.6464055E4,1.2068422E5,3.3480586E4,6.0015215E3,1.5731138E4,7.655696E4,6.705805E3,3.9372455E2,3.607033E4,4.890886E4,7.177537E4,2.5286096E4,8.194489E3,9.470728E2,5.0544487E3,1.1461202E3,1.4585018E4,1.5419596E3,7.5015E4,5.3306187E3,1.3751869E3,1.636738E2,2.3005075E2,2.1307135E4,1.4763194E4],"tree_param":{"num_deleted":"0","num_feature":"44","num_nodes":"31","size_leaf_vector":"1"}},{"base_weights":[6.375356E-4,-1.0988399E-1,1.3381808E-1,-1.2939505E-1,-6.6593915E-2,4.1735705E-2,1.56669E-1,-1.3995977E-1,-6.431435E-2,-7.438039E-2,8.286136E-2,2.6569832E-3,9.454406E-2,1.0750759E-1,1.8261375E-1,-7.701305E-3,-4.9624196E-3,-3.2426235E-3,3.5E-2,-4.871558E-3,-2.3395203E-3,2.8844872E-3,1.587843E-2,-1.7301576E-3,2.4488978E-3,3.3578668E-3,7.6359906E-3,1.1790938E-3,6.0085333E-3,6.6124178E-3,1.0125892E-2],"categories":[],"categories_nodes":[],"categories_segments":[],"categories_sizes":[],"default_left":[0,0,0,1,0,0,1,0,0,1,1,0,0,1,1,0,0,0,0,0,0,0,0,0,0,0,0,0,0,0,0],"id":39,"left_children":[1,3,5,7,9,11,13,15,17,19,21,23,25,27,29,-1,-1,-1,-1,-1,-1,-1,-1,-1,-1,-1,-1,-1,-1,-1,-1],"loss_changes":[4.3490034E3,1.3636804E2,2.8193286E2,7.650903E1,5.8404892E1,5.4983482E1,1.3690381E2,5.481555E1,8.734779E0,3.0320831E1,1.4678524E1,2.6450144E1,1.8043999E1,3.9405243E1,7.040967E1,0E0,0E0,0E0,0E0,0E0,0E0,0E0,0E0,0E0,0E0,0E0,0E0,0E0,0E0,0E0,0E0],"parents":[2147483647,0,0,1,1,2,2,3,3,4,4,5,5,6,6,7,7,8,8,9,9,10,10,11,11,12,12,13,13,14,14],"right_children":[2,4,6,8,10,12,14,16,18,20,22,24,26,28,30,-1,-1,-1,-1,-1,-1,-1,-1,-1,-1,-1,-1,-1,-1,-1,-1],"split_conditions":[2.1E0,1.3E0,6.6E1,2.8723404E-1,5.6E1,3.75E0,2.0861678E-1,2.4325666E-1,4E0,2.293017E-1,2.3214285E-1,2.3079538E-1,1.3403941E0,1.5471698E-1,2.1265571E-1,-7.701305E-3,-4.9624196E-3,-3.2426235E-3,3.5E-2,-4.871558E-3,-2.3395203E-3,2.8844872E-3,1.587843E-2,-1.7301576E-3,2.4488978E-3,3.3578668E-3,7.6359906E-3,1.1790938E-3,6.0085333E-3,6.6124178E-3,1.0125892E-2],"split_indices":[2,3,32,25,32,3,25,33,10,33,25,33,9,25,33,0,0,0,0,0,0,0,0,0,0,0,0,0,0,0,0],"split_type":[0,0,0,0,0,0,0,0,0,0,0,0,0,0,0,0,0,0,0,0,0,0,0,0,0,0,0,0,0,0,0],"sum_hessian":[2.9545684E5,1.6146366E5,1.339932E5,1.1129715E5,5.0166508E4,2.6641832E4,1.0735137E5,9.575097E4,1.5546185E4,4.7683418E4,2.4830881E3,1.5313E4,1.1328832E4,3.7086668E4,7.0264695E4,7.115924E4,2.4591723E4,1.5540085E4,6.1004004E0,2.5975422E4,2.1707998E4,2.2440886E3,2.3899957E2,8.485468E3,6.8275327E3,7.705347E3,3.6234849E3,4.8635835E3,3.2223084E4,1.9906326E4,5.0358375E4],"tree_param":{"num_deleted":"0","num_feature":"44","num_nodes":"31","size_leaf_vector":"1"}},{"base_weights":[2.680156E-4,-1.0504467E-1,1.295374E-1,-1.24692135E-1,-5.550771E-2,6.80379E-2,1.578242E-1,-1.5678151E-1,-1.0043249E-1,-6.540538E-2,8.5350275E-2,-4.436162E-2,8.72125E-2,1.2999327E-1,1.9988014E-1,-8.230408E-3,-8.168179E-5,-5.9842356E-3,-3.4361833E-3,-4.7247317E-3,-1.8973084E-3,3.072337E-3,1.47090405E-2,-5.4753344E-3,-7.6019E-4,1.9149482E-3,5.6248084E-3,5.832627E-3,9.94783E-3,8.780887E-3,1.1810366E-2],"categories":[],"categories_nodes":[],"categories_segments":[],"categories_sizes":[],"default_left":[0,0,0,1,0,0,1,0,0,0,1,1,0,0,1,0,0,0,0,0,0,0,0,0,0,0,0,0,0,0,0],"id":40,"left_children":[1,3,5,7,9,11,13,15,17,19,21,23,25,27,29,-1,-1,-1,-1,-1,-1,-1,-1,-1,-1,-1,-1,-1,-1,-1,-1],"loss_changes":[4.028811E3,1.5870972E2,2.311062E2,9.088306E1,6.459375E1,9.023546E1,1.0648511E2,6.1021973E1,4.058551E1,3.4563766E1,1.5178135E1,1.1588945E1,4.4217743E1,5.0367126E1,3.1896729E1,0E0,0E0,0E0,0E0,0E0,0E0,0E0,0E0,0E0,0E0,0E0,0E0,0E0,0E0,0E0,0E0],"parents":[2147483647,0,0,1,1,2,2,3,3,4,4,5,5,6,6,7,7,8,8,9,9,10,10,11,11,12,12,13,13,14,14],"right_children":[2,4,6,8,10,12,14,16,18,20,22,24,26,28,30,-1,-1,-1,-1,-1,-1,-1,-1,-1,-1,-1,-1,-1,-1,-1,-1],"split_conditions":[2.2E0,1.3333334E0,7.9E1,8.633721E0,5.6E1,5E0,2.4472573E-1,3.6E1,2.3510551E-1,2.2583035E-1,2.2868218E-1,2.0502092E-1,2.1743737E-1,2.508755E-1,2.3373175E-1,-8.230408E-3,-8.168179E-5,-5.9842356E-3,-3.4361833E-3,-4.7247317E-3,-1.8973084E-3,3.072337E-3,1.47090405E-2,-5.4753344E-3,-7.6019E-4,1.9149482E-3,5.6248084E-3,5.832627E-3,9.94783E-3,8.780887E-3,1.1810366E-2],"split_indices":[2,3,32,24,32,31,25,32,33,33,25,25,33,33,33,0,0,0,0,0,0,0,0,0,0,0,0,0,0,0,0],"split_type":[0,0,0,0,0,0,0,0,0,0,0,0,0,0,0,0,0,0,0,0,0,0,0,0,0,0,0,0,0,0,0],"sum_hessian":[2.9593222E5,1.6307683E5,1.3285538E5,1.16762625E5,4.63142E4,4.1857707E4,9.099767E4,5.0265055E4,6.649757E4,4.327466E4,3.0395369E3,6.099071E3,3.5758633E4,5.4763715E4,3.6233957E4,4.7850473E4,2.4145825E3,4.1372234E4,2.5125338E4,2.101067E4,2.2263992E4,2.7289446E3,3.1059222E2,1.8838795E3,4.2151914E3,1.2187425E4,2.357121E4,4.589049E4,8.873227E3,2.172963E4,1.4504327E4],"tree_param":{"num_deleted":"0","num_feature":"44","num_nodes":"31","size_leaf_vector":"1"}},{"base_weights":[1.2682478E-3,-1.0052457E-1,1.286045E-1,-1.095905E-1,1.5805667E-2,7.1089305E-2,1.5381482E-1,-1.4553747E-1,-8.743497E-2,-7.716754E-2,5.9074238E-2,-4.402295E-2,8.9854784E-2,1.9366479E-1,1.2564161E-1,-8.859577E-3,-5.505813E-3,-4.8768786E-3,-1.8271286E-3,-5.951302E-3,-2.7313174E-4,8.4407814E-4,6.701135E-3,-6.2786974E-3,-7.558518E-4,1.5293912E-3,5.962024E-3,8.122395E-3,1.1272016E-2,6.873049E-3,1.6151043E-3],"categories":[],"categories_nodes":[],"categories_segments":[],"categories_sizes":[],"default_left":[0,0,0,1,0,0,0,0,0,0,0,0,1,0,0,0,0,0,0,0,0,0,0,0,0,0,0,0,0,0,0],"id":41,"left_children":[1,3,5,7,9,11,13,15,17,19,21,23,25,27,29,-1,-1,-1,-1,-1,-1,-1,-1,-1,-1,-1,-1,-1,-1,-1,-1],"loss_changes":[3.847795E3,1.7400146E2,1.9120703E2,1.2187756E2,4.800784E1,8.6842865E1,1.0291406E2,6.540967E1,4.8677185E1,1.1364765E1,2.5743807E1,1.32837E1,6.0183197E1,3.7628296E1,5.924939E1,0E0,0E0,0E0,0E0,0E0,0E0,0E0,0E0,0E0,0E0,0E0,0E0,0E0,0E0,0E0,0E0],"parents":[2147483647,0,0,1,1,2,2,3,3,4,4,5,5,6,6,7,7,8,8,9,9,10,10,11,11,12,12,13,13,14,14],"right_children":[2,4,6,8,10,12,14,16,18,20,22,24,26,28,30,-1,-1,-1,-1,-1,-1,-1,-1,-1,-1,-1,-1,-1,-1,-1,-1],"split_conditions":[2.25E0,3.6E1,7.9E1,8.633721E0,5E0,5E0,3.8082979E0,1E0,1.2E1,2.3115578E-1,6.6E1,3E0,1.9787517E-1,1E0,8E0,-8.859577E-3,-5.505813E-3,-4.8768786E-3,-1.8271286E-3,-5.951302E-3,-2.7313174E-4,8.4407814E-4,6.701135E-3,-6.2786974E-3,-7.558518E-4,1.5293912E-3,5.962024E-3,8.122395E-3,1.1272016E-2,6.873049E-3,1.6151043E-3],"split_indices":[1,32,32,24,31,31,27,3,24,25,32,31,25,40,31,0,0,0,0,0,0,0,0,0,0,0,0,0,0,0,0],"split_type":[0,0,0,0,0,0,0,0,0,0,0,0,0,0,0,0,0,0,0,0,0,0,0,0,0,0,0,0,0,0,0],"sum_hessian":[2.9684812E5,1.6497016E5,1.3187798E5,1.5304394E5,1.1926214E4,4.019174E4,9.168624E4,5.8354566E4,9.468937E4,3.7866235E3,8.13959E3,5.6326914E3,3.4559047E4,3.796987E4,5.3716375E4,3.0812361E4,2.7542205E4,7.900357E4,1.5685796E4,2.3896091E3,1.3970144E3,5.209456E3,2.930134E3,1.4722611E3,4.16043E3,1.1457089E4,2.3101957E4,1.9157969E4,1.88119E4,4.767753E4,6.0388423E3],"tree_param":{"num_deleted":"0","num_feature":"44","num_nodes":"31","size_leaf_vector":"1"}},{"base_weights":[2.20093E-5,-9.9875286E-2,1.2438033E-1,-1.17503926E-1,-3.945601E-2,7.616064E-2,1.5025818E-1,-1.5227878E-1,-9.857283E-2,-5.4836564E-2,8.94664E-2,2.6706245E-2,1.0437882E-1,1.2307439E-1,1.8453425E-1,-8.774563E-3,-5.788134E-3,-3.8928872E-3,-6.0231374E-3,-1.5519271E-3,-4.2211832E-3,7.032107E-3,-1.2462343E-3,-3.47317E-4,3.3711183E-3,6.2681786E-3,2.780201E-3,2.8252837E-3,6.7658797E-3,8.216066E-3,1.1221991E-2],"categories":[],"categories_nodes":[],"categories_segments":[],"categories_sizes":[],"default_left":[0,0,0,1,0,0,1,0,1,0,0,0,1,1,1,0,0,0,0,0,0,0,0,0,0,0,0,0,0,0,0],"id":42,"left_children":[1,3,5,7,9,11,13,15,17,19,21,23,25,27,29,-1,-1,-1,-1,-1,-1,-1,-1,-1,-1,-1,-1,-1,-1,-1,-1],"loss_changes":[3.6797278E3,1.7493787E2,1.6463025E2,8.369324E1,7.359269E1,6.4305786E1,7.998035E1,3.796631E1,3.732599E1,2.3338768E1,2.317868E1,2.2959782E1,3.002069E1,3.9017883E1,3.0594849E1,0E0,0E0,0E0,0E0,0E0,0E0,0E0,0E0,0E0,0E0,0E0,0E0,0E0,0E0,0E0,0E0],"parents":[2147483647,0,0,1,1,2,2,3,3,4,4,5,5,6,6,7,7,8,8,9,9,10,10,11,11,12,12,13,13,14,14],"right_children":[2,4,6,8,10,12,14,16,18,20,22,24,26,28,30,-1,-1,-1,-1,-1,-1,-1,-1,-1,-1,-1,-1,-1,-1,-1,-1],"split_conditions":[2.3333333E0,1.45E0,8.2E1,8.307693E0,5.6E1,3.5E0,9.07563E0,1E0,7.43814E-1,7.4677616E-1,7.551178E-1,5.7E1,7.545917E-1,6.657534E0,1.3250212E-1,-8.774563E-3,-5.788134E-3,-3.8928872E-3,-6.0231374E-3,-1.5519271E-3,-4.2211832E-3,7.032107E-3,-1.2462343E-3,-3.47317E-4,3.3711183E-3,6.2681786E-3,2.780201E-3,2.8252837E-3,6.7658797E-3,8.216066E-3,1.1221991E-2],"split_indices":[1,3,32,24,32,3,24,3,35,35,35,32,35,24,36,0,0,0,0,0,0,0,0,0,0,0,0,0,0,0,0],"split_type":[0,0,0,0,0,0,0,0,0,0,0,0,0,0,0,0,0,0,0,0,0,0,0,0,0,0,0,0,0,0,0],"sum_hessian":[2.961956E5,1.6425145E5,1.3194414E5,1.27150055E5,3.7101406E4,4.6082953E4,8.586119E4,4.481545E4,8.23346E4,3.3148152E4,3.9532527E3,1.674377E4,2.9339182E4,4.788883E4,3.797236E4,2.7394701E4,1.742075E4,4.2307168E4,4.0027434E4,1.8374375E4,1.4773777E4,2.7317708E3,1.2214819E3,9.166155E3,7.5776143E3,2.0510969E4,8.828212E3,7.441531E3,4.0447297E4,2.5210424E4,1.2761935E4],"tree_param":{"num_deleted":"0","num_feature":"44","num_nodes":"31","size_leaf_vector":"1"}},{"base_weights":[3.4957952E-4,-9.756196E-2,1.20440945E-1,-1.0706828E-1,5.0973576E-3,-4.5883395E-2,1.2802467E-1,-1.4656757E-1,-8.812008E-2,-2.3015939E-2,1.0378312E-1,-4.793036E-2,3.5E-2,7.5737506E-2,1.501592E-1,-8.883154E-3,-5.487906E-3,-2.8808562E-3,-5.2654454E-3,-4.3210546E-3,1.1089236E-4,1.1860769E-3,8.158934E-3,-1.9255261E-3,-1.0582403E-2,-1.0428806E-3,4.418894E-3,7.916047E-3,2.100637E-3],"categories":[],"categories_nodes":[],"categories_segments":[],"categories_sizes":[],"default_left":[0,0,0,1,0,0,1,0,1,0,0,0,0,1,0,0,0,0,0,0,0,0,0,0,0,0,0,0,0],"id":43,"left_children":[1,3,5,7,9,11,13,15,17,19,21,23,-1,25,27,-1,-1,-1,-1,-1,-1,-1,-1,-1,-1,-1,-1,-1,-1],"loss_changes":[3.486715E3,1.5942676E2,1.6801233E2,1.118844E2,3.8443916E1,9.649264E0,1.4740063E2,5.545337E1,5.2969177E1,1.726083E1,1.4594944E1,8.943064E0,0E0,4.627484E1,7.89707E1,0E0,0E0,0E0,0E0,0E0,0E0,0E0,0E0,0E0,0E0,0E0,0E0,0E0,0E0],"parents":[2147483647,0,0,1,1,2,2,3,3,4,4,5,5,6,6,7,7,8,8,9,9,10,10,11,11,13,13,14,14],"right_children":[2,4,6,8,10,12,14,16,18,20,22,24,-1,26,28,-1,-1,-1,-1,-1,-1,-1,-1,-1,-1,-1,-1,-1,-1],"split_conditions":[2.25E0,3.4E1,5E0,8.307693E0,6.6E1,7.3E0,2.0209974E-1,1E0,7.348254E-1,4E0,1.2313358E-1,6.9166666E-1,3.5E-2,1.4655173E-1,1.2E1,-8.883154E-3,-5.487906E-3,-2.8808562E-3,-5.2654454E-3,-4.3210546E-3,1.1089236E-4,1.1860769E-3,8.158934E-3,-1.9255261E-3,-1.0582403E-2,-1.0428806E-3,4.418894E-3,7.916047E-3,2.100637E-3],"split_indices":[1,32,31,24,32,3,25,3,35,31,36,6,0,25,31,0,0,0,0,0,0,0,0,0,0,0,0,0,0],"split_type":[0,0,0,0,0,0,0,0,0,0,0,0,0,0,0,0,0,0,0,0,0,0,0,0,0,0,0,0,0],"sum_hessian":[2.9652556E5,1.6334683E5,1.3317873E5,1.4950362E5,1.3843203E4,5.8068223E3,1.2737192E5,4.846396E4,1.01039664E5,1.0773761E4,3.0694421E3,5.7932E3,1.3622071E1,3.7885652E4,8.9486266E4,2.626746E4,2.21965E4,3.6419855E4,6.4619805E4,3.0675188E3,7.7062417E3,1.3086052E3,1.7608369E3,5.479757E3,3.134432E2,4.383013E3,3.350264E4,8.320541E4,6.2808584E3],"tree_param":{"num_deleted":"0","num_feature":"44","num_nodes":"29","size_leaf_vector":"1"}},{"base_weights":[4.504587E-4,-9.8259725E-2,1.1339764E-1,-1.0616178E-1,1.4297497E-2,3.821713E-2,1.3199541E-1,-1.2137756E-1,-5.473822E-2,-2.3314804E-2,1.1757391E-1,1.4852882E-2,1.173877E-1,9.1448694E-2,1.5461032E-1,-8.400695E-3,-5.4494175E-3,-3.5971166E-3,-1.1546864E-3,-3.8722267E-3,1.3797659E-3,-3.8221225E-3,7.170249E-3,2.0385121E-3,-2.077624E-3,2.3959426E-3,7.225312E-3,-3.6476852E-4,5.023632E-3,6.753817E-3,9.69221E-3],"categories":[],"categories_nodes":[],"categories_segments":[],"categories_sizes":[],"default_left":[0,0,0,1,0,0,1,1,0,0,1,0,0,0,1,0,0,0,0,0,0,0,0,0,0,0,0,0,0,0,0],"id":44,"left_children":[1,3,5,7,9,11,13,15,17,19,21,23,25,27,29,-1,-1,-1,-1,-1,-1,-1,-1,-1,-1,-1,-1,-1,-1,-1,-1],"loss_changes":[3.298124E3,1.4041882E2,1.9288403E2,1.1540332E2,4.026267E1,5.0617455E1,1.01398926E2,6.574963E1,1.8334267E1,2.0942375E1,1.3897327E1,3.0903753E1,1.1732689E1,3.5302704E1,5.4386963E1,0E0,0E0,0E0,0E0,0E0,0E0,0E0,0E0,0E0,0E0,0E0,0E0,0E0,0E0,0E0,0E0],"parents":[2147483647,0,0,1,1,2,2,3,3,4,4,5,5,6,6,7,7,8,8,9,9,10,10,11,11,12,12,13,13,14,14],"right_children":[2,4,6,8,10,12,14,16,18,20,22,24,26,28,30,-1,-1,-1,-1,-1,-1,-1,-1,-1,-1,-1,-1,-1,-1,-1,-1],"split_conditions":[2.1176472E0,3.6E1,6.6E1,2.8723404E-1,6.6E1,4.3333335E0,2.1212122E-1,7.0875E0,1.2306123E1,2.2634397E-1,1.3194445E-1,9.727626E-2,2.1513104E-1,1.9368055E-1,