{"learner":{"attributes":{"scikit_learn":"{\"_estimator_type\": \"regressor\"}"},"feature_names":["k_rolling_3","k_rolling_5","k_rolling_10","k_rolling_20","whiff_pct_3","whiff_pct_5","whiff_pct_10","whiff_pct_20","csw_pct_3","csw_pct_5","csw_pct_10","csw_pct_20","zone_pct_3","zone_pct_5","zone_pct_10","zone_pct_20","o_swing_pct_3","o_swing_pct_5","o_swing_pct_10","o_swing_pct_20","avg_velo_3","avg_velo_5","avg_velo_10","avg_velo_20","k9_season","k_pct_season","bb_pct_season","fip_season","xfip_season","swstr_season","stuff_plus","days_rest","pitches_last","opp_lineup_k_pct","opp_lineup_o_swing","opp_lineup_contact","opp_lineup_swstr","opp_lineup_wrc_plus","opp_lineup_size","park_k_factor","is_home","is_night_game","lineup_confirmed","umpire_k_pct"],"feature_types":["float","float","float","float","float","float","float","float","float","float","float","float","float","float","float","float","float","float","float","float","float","float","float","float","float","float","float","float","float","float","float","int","int","float","float","float","float","float","int","float","int","int","int","float"],"gradient_booster":{"model":{"cats":{"enc":[],"feature_segments":[],"sorted_idx":[]},"gbtree_model_param":{"num_parallel_tree":"1","num_trees":"500"},"iteration_indptr":[0,1,2,3,4,5,6,7,8,9,10,11,12,13,14,15,16,17,18,19,20,21,22,23,24,25,26,27,28,29,30,31,32,33,34,35,36,37,38,39,40,41,42,43,44,45,46,47,48,49,50,51,52,53,54,55,56,57,58,59,60,61,62,63,64,65,66,67,68,69,70,71,72,73,74,75,76,77,78,79,80,81,82,83,84,85,86,87,88,89,90,91,92,93,94,95,96,97,98,99,100,101,102,103,104,105,106,107,108,109,110,111,112,113,114,115,116,117,118,119,120,121,122,123,124,125,126,127,128,129,130,131,132,133,134,135,136,137,138,139,140,141,142,143,144,145,146,147,148,149,150,151,152,153,154,155,156,157,158,159,160,161,162,163,164,165,166,167,168,169,170,171,172,173,174,175,176,177,178,179,180,181,182,183,184,185,186,187,188,189,190,191,192,193,194,195,196,197,198,199,200,201,202,203,204,205,206,207,208,209,210,211,212,213,214,215,216,217,218,219,220,221,222,223,224,225,226,227,228,229,230,231,232,233,234,235,236,237,238,239,240,241,242,243,244,245,246,247,248,249,250,251,252,253,254,255,256,257,258,259,260,261,262,263,264,265,266,267,268,269,270,271,272,273,274,275,276,277,278,279,280,281,282,283,284,285,286,287,288,289,290,291,292,293,294,295,296,297,298,299,300,301,302,303,304,305,306,307,308,309,310,311,312,313,314,315,316,317,318,319,320,321,322,323,324,325,326,327,328,329,330,331,332,333,334,335,336,337,338,339,340,341,342,343,344,345,346,347,348,349,350,351,352,353,354,355,356,357,358,359,360,361,362,363,364,365,366,367,368,369,370,371,372,373,374,375,376,377,378,379,380,381,382,383,384,385,386,387,388,389,390,391,392,393,394,395,396,397,398,399,400,401,402,403,404,405,406,407,408,409,410,411,412,413,414,415,416,417,418,419,420,421,422,423,424,425,426,427,428,429,430,431,432,433,434,435,436,437,438,439,440,441,442,443,444,445,446,447,448,449,450,451,452,453,454,455,456,457,458,459,460,461,462,463,464,465,466,467,468,469,470,471,472,473,474,475,476,477,478,479,480,481,482,483,484,485,486,487,488,489,490,491,492,493,494,495,496,497,498,499,500],"tree_info":[0,0,0,0,0,0,0,0,0,0,0,0,0,0,0,0,0,0,0,0,0,0,0,0,0,0,0,0,0,0,0,0,0,0,0,0,0,0,0,0,0,0,0,0,0,0,0,0,0,0,0,0,0,0,0,0,0,0,0,0,0,0,0,0,0,0,0,0,0,0,0,0,0,0,0,0,0,0,0,0,0,0,0,0,0,0,0,0,0,0,0,0,0,0,0,0,0,0,0,0,0,0,0,0,0,0,0,0,0,0,0,0,0,0,0,0,0,0,0,0,0,0,0,0,0,0,0,0,0,0,0,0,0,0,0,0,0,0,0,0,0,0,0,0,0,0,0,0,0,0,0,0,0,0,0,0,0,0,0,0,0,0,0,0,0,0,0,0,0,0,0,0,0,0,0,0,0,0,0,0,0,0,0,0,0,0,0,0,0,0,0,0,0,0,0,0,0,0,0,0,0,0,0,0,0,0,0,0,0,0,0,0,0,0,0,0,0,0,0,0,0,0,0,0,0,0,0,0,0,0,0,0,0,0,0,0,0,0,0,0,0,0,0,0,0,0,0,0,0,0,0,0,0,0,0,0,0,0,0,0,0,0,0,0,0,0,0,0,0,0,0,0,0,0,0,0,0,0,0,0,0,0,0,0,0,0,0,0,0,0,0,0,0,0,0,0,0,0,0,0,0,0,0,0,0,0,0,0,0,0,0,0,0,0,0,0,0,0,0,0,0,0,0,0,0,0,0,0,0,0,0,0,0,0,0,0,0,0,0,0,0,0,0,0,0,0,0,0,0,0,0,0,0,0,0,0,0,0,0,0,0,0,0,0,0,0,0,0,0,0,0,0,0,0,0,0,0,0,0,0,0,0,0,0,0,0,0,0,0,0,0,0,0,0,0,0,0,0,0,0,0,0,0,0,0,0,0,0,0,0,0,0,0,0,0,0,0,0,0,0,0,0,0,0,0,0,0,0,0,0,0,0,0,0,0,0,0,0,0,0,0,0,0,0,0,0,0,0,0,0,0,0,0,0,0,0,0,0,0,0,0,0,0,0,0,0,0,0,0,0,0,0,0,0,0,0,0,0,0,0,0,0,0,0,0,0,0,0,0,0,0,0,0,0,0,0,0,0,0,0],"trees":[{"base_weights":[-8.5605704E-4,-1.8999544E-1,7E-1,-2.1161571E-1,2.466074E-1,3.999693E-1,7E-1,-2.2709922E-1,-1.15791306E-1,1.3576254E-1,6.448388E-1,2.008334E-1,4.3464464E-1,5.8476883E-1,7E-1,-1.2965803E-2,-1.0520605E-2,-6.6773253E-3,-2.061394E-3,1.4442894E-2,4.5189685E-3,2.4510967E-2,3.5E-2,7.239915E-3,1.7374985E-2,1.900928E-2,2.5169829E-2,2.7893228E-2,3.5E-2,2.9787404E-2,3.5E-2],"categories":[],"categories_nodes":[],"categories_segments":[],"categories_sizes":[],"default_left":[0,0,0,0,0,0,0,0,0,0,0,0,0,0,0,0,0,0,0,0,0,0,0,0,0,0,0,0,0,0,0],"id":0,"left_children":[1,3,5,7,9,11,13,15,17,19,21,23,25,27,29,-1,-1,-1,-1,-1,-1,-1,-1,-1,-1,-1,-1,-1,-1,-1,-1],"loss_changes":[3.9502234E4,2.199998E3,1.5963301E3,3.294297E2,4.853404E2,1.22389404E2,9.950391E1,1.027207E2,4.0886658E1,5.9761307E1,5.4558533E1,2.1599068E1,5.637451E1,2.646167E1,2.0945312E1,0E0,0E0,0E0,0E0,0E0,0E0,0E0,0E0,0E0,0E0,0E0,0E0,0E0,0E0,0E0,0E0],"parents":[2147483647,0,0,1,1,2,2,3,3,4,4,5,5,6,6,7,7,8,8,9,9,10,10,11,11,12,12,13,13,14,14],"right_children":[2,4,6,8,10,12,14,16,18,20,22,24,26,28,30,-1,-1,-1,-1,-1,-1,-1,-1,-1,-1,-1,-1,-1,-1,-1,-1],"split_conditions":[5.5E1,2.6E0,3.8E0,1.5454545E0,4.65E0,2.1E0,4.181818E0,9.5E-1,2.2E0,1E0,3E0,2.5E0,3.3E0,2.2965369E-1,8.55509E1,-1.2965803E-2,-1.0520605E-2,-6.6773253E-3,-2.061394E-3,1.4442894E-2,4.5189685E-3,2.4510967E-2,3.5E-2,7.239915E-3,1.7374985E-2,1.900928E-2,2.5169829E-2,2.7893228E-2,3.5E-2,2.9787404E-2,3.5E-2],"split_indices":[32,2,2,3,3,2,3,3,3,32,8,0,3,18,21,0,0,0,0,0,0,0,0,0,0,0,0,0,0,0,0],"split_type":[0,0,0,0,0,0,0,0,0,0,0,0,0,0,0,0,0,0,0,0,0,0,0,0,0,0,0,0,0,0,0],"sum_hessian":[2.9539128E5,2.330517E5,6.2339594E4,2.2205636E5,1.0995336E4,1.7738463E4,4.460113E4,1.9116508E5,3.0891285E4,8.602487E3,2.3928486E3,2.6321335E3,1.5106328E4,7.5315894E3,3.7069543E4,6.5222777E4,1.259423E5,2.494839E4,5.9428945E3,1.965274E3,6.637213E3,1.4160957E3,9.76753E2,1.9064336E3,7.257E2,8.433811E3,6.6725176E3,6.28417E3,1.2474194E3,1.9731195E3,3.509642E4],"tree_param":{"num_deleted":"0","num_feature":"44","num_nodes":"31","size_leaf_vector":"1"}},{"base_weights":[5.748356E-4,-1.9232443E-1,6.5826714E-1,-2.0529553E-1,2.7219483E-1,3.8412637E-1,7E-1,-2.1821919E-1,-7.215299E-2,-1.4848875E-1,3.0159315E-1,-6.1006192E-2,4.3359905E-1,1.2475906E-1,7E-1,-1.2461699E-2,-9.91455E-3,-6.291643E-3,1.043711E-3,-1.5781773E-2,-4.360711E-3,1.7909434E-2,7.278918E-3,-2.1206576E-3,-1.4873929E-2,1.3643036E-2,2.439478E-2,1.1862809E-3,1.5971994E-2,3.5E-2,2.361544E-2],"categories":[],"categories_nodes":[],"categories_segments":[],"categories_sizes":[],"default_left":[0,0,0,0,0,0,0,0,0,0,0,0,0,0,0,0,0,0,0,0,0,0,0,0,0,0,0,0,0,0,0],"id":1,"left_children":[1,3,5,7,9,11,13,15,17,19,21,23,25,27,29,-1,-1,-1,-1,-1,-1,-1,-1,-1,-1,-1,-1,-1,-1,-1,-1],"loss_changes":[3.757251E4,1.3798418E3,2.1297598E3,3.8329004E2,7.703021E1,4.9608887E2,2.222168E2,1.2545703E2,9.8465836E1,4.14917E0,5.1282654E1,9.917419E0,1.767688E2,1.3246542E1,1.1634375E2,0E0,0E0,0E0,0E0,0E0,0E0,0E0,0E0,0E0,0E0,0E0,0E0,0E0,0E0,0E0,0E0],"parents":[2147483647,0,0,1,1,2,2,3,3,4,4,5,5,6,6,7,7,8,8,9,9,10,10,11,11,12,12,13,13,14,14],"right_children":[2,4,6,8,10,12,14,16,18,20,22,24,26,28,30,-1,-1,-1,-1,-1,-1,-1,-1,-1,-1,-1,-1,-1,-1,-1,-1],"split_conditions":[2.75E0,5.6E1,4.1E0,1.8E0,5E0,5E0,5E0,1E0,5E0,3.2619047E-1,8E0,7.1428573E-1,6.6E1,4.9597573E-1,1.7E1,-1.2461699E-2,-9.91455E-3,-6.291643E-3,1.043711E-3,-1.5781773E-2,-4.360711E-3,1.7909434E-2,7.278918E-3,-2.1206576E-3,-1.4873929E-2,1.3643036E-2,2.439478E-2,1.1862809E-3,1.5971994E-2,3.5E-2,2.361544E-2],"split_indices":[1,32,2,2,31,31,31,2,31,6,31,6,32,15,31,0,0,0,0,0,0,0,0,0,0,0,0,0,0,0,0],"split_type":[0,0,0,0,0,0,0,0,0,0,0,0,0,0,0,0,0,0,0,0,0,0,0,0,0,0,0,0,0,0,0],"sum_hessian":[2.9614984E5,2.2898867E5,6.7161164E4,2.227689E5,6.21976E3,2.2522145E4,4.4639023E4,2.0305747E5,1.9711441E4,4.0577386E2,5.813986E3,2.2525437E3,2.02696E4,6.7237305E2,4.396665E4,7.942689E4,1.2363058E5,1.2499516E4,7.211925E3,1.0729842E2,2.9847543E2,4.264919E3,1.5490668E3,2.0898296E3,1.6271414E2,5.1200825E3,1.5149518E4,4.437275E2,2.2864558E2,4.1713125E4,2.2535254E3],"tree_param":{"num_deleted":"0","num_feature":"44","num_nodes":"31","size_leaf_vector":"1"}},{"base_weights":[4.8131766E-4,-1.8951921E-1,6.215244E-1,-2.1036863E-1,5.38282E-2,3.8476405E-1,7E-1,-2.2809605E-1,-1.5016294E-1,-1.0490324E-1,1.7416987E-1,-3.58365E-2,4.2503497E-1,1.3654849E-1,7E-1,-1.2803586E-2,-1.0492531E-2,-8.992954E-3,-5.114391E-3,-8.573929E-3,-3.3615758E-3,3.841508E-3,1.3371666E-2,-2.9558362E-3,7.066703E-3,1.577493E-2,2.3995237E-2,3.8319787E-3,3.2635752E-2,3.0484805E-2,3.5E-2],"categories":[],"categories_nodes":[],"categories_segments":[],"categories_sizes":[],"default_left":[0,0,0,0,0,0,0,0,0,0,0,0,0,0,0,0,0,0,0,0,0,0,0,0,0,0,0,0,0,0,0],"id":2,"left_children":[1,3,5,7,9,11,13,15,17,19,21,23,25,27,29,-1,-1,-1,-1,-1,-1,-1,-1,-1,-1,-1,-1,-1,-1,-1,-1],"loss_changes":[3.4885074E4,1.1486147E3,2.2665117E3,2.2250977E2,3.4133667E2,4.5918066E2,1.6607422E2,8.216699E1,6.741846E1,1.931356E1,9.22345E1,9.804902E0,1.4852002E2,1.6230232E1,1.1584766E2,0E0,0E0,0E0,0E0,0E0,0E0,0E0,0E0,0E0,0E0,0E0,0E0,0E0,0E0,0E0,0E0],"parents":[2147483647,0,0,1,1,2,2,3,3,4,4,5,5,6,6,7,7,8,8,9,9,10,10,11,11,12,12,13,13,14,14],"right_children":[2,4,6,8,10,12,14,16,18,20,22,24,26,28,30,-1,-1,-1,-1,-1,-1,-1,-1,-1,-1,-1,-1,-1,-1,-1,-1],"split_conditions":[2.75E0,2E0,4.3E0,1.3333334E0,5E0,5E0,5E0,9.375E-1,4E0,3E0,2.2E0,3.95E0,3.2E0,6.15E0,5E0,-1.2803586E-2,-1.0492531E-2,-8.992954E-3,-5.114391E-3,-8.573929E-3,-3.3615758E-3,3.841508E-3,1.3371666E-2,-2.9558362E-3,7.066703E-3,1.577493E-2,2.3995237E-2,3.8319787E-3,3.2635752E-2,3.0484805E-2,3.5E-2],"split_indices":[1,3,2,3,31,31,31,3,31,31,1,3,3,3,3,0,0,0,0,0,0,0,0,0,0,0,0,0,0,0,0],"split_type":[0,0,0,0,0,0,0,0,0,0,0,0,0,0,0,0,0,0,0,0,0,0,0,0,0,0,0,0,0,0,0],"sum_hessian":[2.9563622E5,2.263789E5,6.925732E4,2.0851444E5,1.786447E4,2.7104479E4,4.215284E4,1.6108028E5,4.7434145E4,7.703199E3,1.0161271E4,2.3681794E3,2.4736299E4,5.2400214E2,4.1628836E4,6.357793E4,9.750235E4,2.9272219E4,1.8161926E4,2.7814602E3,4.921739E3,4.973398E3,5.187874E3,2.0942285E3,2.7395105E2,8.258486E3,1.6477812E4,4.7071118E2,5.329093E1,1.426788E4,2.7360957E4],"tree_param":{"num_deleted":"0","num_feature":"44","num_nodes":"31","size_leaf_vector":"1"}},{"base_weights":[9.7201654E-4,-1.8280292E-1,6.040159E-1,-2.0376204E-1,1.9224688E-1,3.935031E-1,7E-1,-2.2764817E-1,-1.5689015E-1,9.0270415E-2,4.9680474E-1,-9.3691394E-2,4.0979606E-1,5.940033E-1,7E-1,-1.2342323E-2,-1.063957E-2,-1.0087558E-2,-6.4152824E-3,-2.2873871E-3,8.892838E-3,4.3325457E-3,2.7612383E-2,-5.6057395E-3,1.9784618E-2,2.1882365E-2,9.003703E-3,3.039453E-2,1.766002E-2,3.5E-2,2.4515832E-2],"categories":[],"categories_nodes":[],"categories_segments":[],"categories_sizes":[],"default_left":[0,0,0,0,0,0,0,0,0,0,0,0,0,0,0,0,0,0,0,0,0,0,0,0,0,0,0,0,0,0,0],"id":3,"left_children":[1,3,5,7,9,11,13,15,17,19,21,23,25,27,29,-1,-1,-1,-1,-1,-1,-1,-1,-1,-1,-1,-1,-1,-1,-1,-1],"loss_changes":[3.2714648E4,1.7785278E3,1.9966934E3,2.3985547E2,3.7187527E2,2.225293E2,1.6147266E2,4.0431152E1,9.273596E1,1.06937004E2,6.8210815E1,8.280285E0,1.7339062E2,4.797705E1,5.833789E1,0E0,0E0,0E0,0E0,0E0,0E0,0E0,0E0,0E0,0E0,0E0,0E0,0E0,0E0,0E0,0E0],"parents":[2147483647,0,0,1,1,2,2,3,3,4,4,5,5,6,6,7,7,8,8,9,9,10,10,11,11,12,12,13,13,14,14],"right_children":[2,4,6,8,10,12,14,16,18,20,22,24,26,28,30,-1,-1,-1,-1,-1,-1,-1,-1,-1,-1,-1,-1,-1,-1,-1,-1],"split_conditions":[5.3E1,2.5E0,4.3E0,1.25E0,4.3E0,5E0,5.1E0,3E0,3E0,5E0,5E0,9.6E1,1.3E1,1.7E1,1.2E1,-1.2342323E-2,-1.063957E-2,-1.0087558E-2,-6.4152824E-3,-2.2873871E-3,8.892838E-3,4.3325457E-3,2.7612383E-2,-5.6057395E-3,1.9784618E-2,2.1882365E-2,9.003703E-3,3.039453E-2,1.766002E-2,3.5E-2,2.4515832E-2],"split_indices":[32,2,2,2,2,31,2,31,31,31,31,32,31,31,31,0,0,0,0,0,0,0,0,0,0,0,0,0,0,0,0],"split_type":[0,0,0,0,0,0,0,0,0,0,0,0,0,0,0,0,0,0,0,0,0,0,0,0,0,0,0,0,0,0,0],"sum_hessian":[2.951899E5,2.2624369E5,6.894623E4,2.1427022E5,1.1973465E4,2.802138E4,4.0924844E4,1.4193402E5,7.23362E4,8.971217E3,3.0022478E3,9.0642645E2,2.7114955E4,1.4416349E4,2.6508494E4,6.1910055E4,8.002396E4,2.8149053E4,4.418715E4,3.513784E3,5.4574326E3,3.5802533E2,2.6442227E3,8.744809E2,3.1945559E1,2.418184E4,2.9331152E3,1.3628448E4,7.8790076E2,2.517056E4,1.337934E3],"tree_param":{"num_deleted":"0","num_feature":"44","num_nodes":"31","size_leaf_vector":"1"}},{"base_weights":[6.354548E-4,-1.808933E-1,5.6895703E-1,-2.0233813E-1,5.918387E-2,3.962845E-1,7E-1,-2.2108407E-1,-1.4008212E-1,-1.0328258E-1,1.7605357E-1,-3.7478123E-2,4.2869872E-1,5.958244E-1,7E-1,-1.2366434E-2,-1.0192395E-2,-8.295498E-3,-3.2201298E-3,-8.104181E-3,-3.5359797E-3,3.5636374E-3,1.1689234E-2,-9.259127E-4,-1.3860859E-2,1.7281659E-2,2.4568638E-2,3.1063694E-3,3.0238649E-2,3.5E-2,2.4214586E-2],"categories":[],"categories_nodes":[],"categories_segments":[],"categories_sizes":[],"default_left":[0,0,0,0,0,0,0,0,0,0,0,0,0,0,0,0,0,0,0,0,0,0,0,0,0,0,0,0,0,0,0],"id":4,"left_children":[1,3,5,7,9,11,13,15,17,19,21,23,25,27,29,-1,-1,-1,-1,-1,-1,-1,-1,-1,-1,-1,-1,-1,-1,-1,-1],"loss_changes":[3.049034E4,1.1532656E3,2.0455332E3,2.3994238E2,3.4883112E2,4.9921045E2,1.3102734E2,7.143945E1,9.300885E1,1.470623E1,6.46066E1,1.12401905E1,1.717959E2,5.779492E1,4.6448242E1,0E0,0E0,0E0,0E0,0E0,0E0,0E0,0E0,0E0,0E0,0E0,0E0,0E0,0E0,0E0,0E0],"parents":[2147483647,0,0,1,1,2,2,3,3,4,4,5,5,6,6,7,7,8,8,9,9,10,10,11,11,12,12,13,13,14,14],"right_children":[2,4,6,8,10,12,14,16,18,20,22,24,26,28,30,-1,-1,-1,-1,-1,-1,-1,-1,-1,-1,-1,-1,-1,-1,-1,-1],"split_conditions":[2.9E0,2E0,4.7E0,1.3333334E0,5E0,5E0,5.3E0,9.5E-1,5E0,3E0,2.2E0,7.1428573E-1,3.8E0,5E0,1.7E1,-1.2366434E-2,-1.0192395E-2,-8.295498E-3,-3.2201298E-3,-8.104181E-3,-3.5359797E-3,3.5636374E-3,1.1689234E-2,-9.259127E-4,-1.3860859E-2,1.7281659E-2,2.4568638E-2,3.1063694E-3,3.0238649E-2,3.5E-2,2.4214586E-2],"split_indices":[2,2,3,3,31,31,3,3,31,31,1,6,2,31,31,0,0,0,0,0,0,0,0,0,0,0,0,0,0,0,0],"split_type":[0,0,0,0,0,0,0,0,0,0,0,0,0,0,0,0,0,0,0,0,0,0,0,0,0,0,0,0,0,0,0],"sum_hessian":[2.9554056E5,2.2399452E5,7.154604E4,2.0562747E5,1.836705E4,3.5499582E4,3.6046457E4,1.5803675E5,4.759071E4,7.6841655E3,1.0682885E4,2.4681328E3,3.303145E4,1.2119357E4,2.3927098E4,6.263964E4,9.539711E4,3.547971E4,1.2110999E4,2.7361958E3,4.9479697E3,3.7964216E3,6.8864634E3,2.28863E3,1.7950291E2,1.4208373E4,1.8823074E4,2.0017062E2,1.1919187E4,2.2918393E4,1.0087051E3],"tree_param":{"num_deleted":"0","num_feature":"44","num_nodes":"31","size_leaf_vector":"1"}},{"base_weights":[1.1289173E-3,-1.8557346E-1,5.2053463E-1,-1.9590336E-1,2.43813E-1,3.6514753E-1,6.980521E-1,-2.1350129E-1,-1.2581024E-1,-1.7205895E-1,2.7328974E-1,-4.0719926E-2,4.031583E-1,5.9200907E-1,7E-1,-1.1846786E-2,-9.728356E-3,-8.272508E-3,-3.6551387E-3,-1.4876603E-2,-5.587202E-3,1.5591792E-2,8.31399E-3,-5.1757786E-3,2.265022E-3,1.4587611E-2,2.2962464E-2,3.046517E-2,1.7766278E-2,-3.0994878E-4,3.5E-2],"categories":[],"categories_nodes":[],"categories_segments":[],"categories_sizes":[],"default_left":[0,0,0,0,0,0,0,0,0,0,0,0,0,0,0,0,0,0,0,0,0,0,0,0,0,0,0,0,0,0,0],"id":5,"left_children":[1,3,5,7,9,11,13,15,17,19,21,23,25,27,29,-1,-1,-1,-1,-1,-1,-1,-1,-1,-1,-1,-1,-1,-1,-1,-1],"loss_changes":[2.8598855E4,9.6230225E2,2.1506719E3,2.6126807E2,6.257245E1,6.4158105E2,1.991836E2,7.508447E1,8.881464E1,2.5290442E0,1.957431E1,1.927068E1,2.3745801E2,6.9901855E1,3.0767578E1,0E0,0E0,0E0,0E0,0E0,0E0,0E0,0E0,0E0,0E0,0E0,0E0,0E0,0E0,0E0,0E0],"parents":[2147483647,0,0,1,1,2,2,3,3,4,4,5,5,6,6,7,7,8,8,9,9,10,10,11,11,12,12,13,13,14,14],"right_children":[2,4,6,8,10,12,14,16,18,20,22,24,26,28,30,-1,-1,-1,-1,-1,-1,-1,-1,-1,-1,-1,-1,-1,-1,-1,-1],"split_conditions":[2.6E0,5.7E1,4.8E0,1.5E0,5E0,5E0,5.7E0,1E0,4E0,3.0555555E-1,8E0,4E0,3.5E0,1.2E1,4E0,-1.1846786E-2,-9.728356E-3,-8.272508E-3,-3.6551387E-3,-1.4876603E-2,-5.587202E-3,1.5591792E-2,8.31399E-3,-5.1757786E-3,2.265022E-3,1.4587611E-2,2.2962464E-2,3.046517E-2,1.7766278E-2,-3.0994878E-4,3.5E-2],"split_indices":[2,32,2,2,31,31,2,2,31,4,31,31,2,31,31,0,0,0,0,0,0,0,0,0,0,0,0,0,0,0,0],"split_type":[0,0,0,0,0,0,0,0,0,0,0,0,0,0,0,0,0,0,0,0,0,0,0,0,0,0,0,0,0,0,0],"sum_hessian":[2.9490797E5,2.1693156E5,7.797643E4,2.1183611E5,5.0954414E3,4.1581953E4,3.6394473E4,1.6932186E5,4.2514254E4,3.3671243E2,4.758729E3,3.5605703E3,3.8021383E4,1.7134305E4,1.926017E4,7.566096E4,9.36609E4,2.4262799E4,1.8251457E4,1.0749651E2,2.2921591E2,3.4964304E3,1.2622987E3,2.0586768E3,1.5018936E3,1.2735165E4,2.5286219E4,1.5965703E4,1.1686019E3,6.139282E1,1.9198777E4],"tree_param":{"num_deleted":"0","num_feature":"44","num_nodes":"31","size_leaf_vector":"1"}},{"base_weights":[5.555098E-4,-1.7776099E-1,5.0894904E-1,-1.9781758E-1,2.005324E-3,3.8908508E-1,6.8832725E-1,-2.2957803E-1,-1.7790014E-1,-1.2274943E-1,1.3819136E-1,-2.1662928E-2,4.1494244E-1,5.669503E-1,7E-1,-2.0366793E-2,-1.1378029E-2,-9.720019E-3,-6.088132E-3,-8.902776E-3,-4.2079147E-3,1.0714292E-2,2.5345203E-3,-3.8568813E-3,2.431863E-3,1.5987648E-2,2.3526093E-2,2.9018937E-2,1.6722826E-2,3.5E-2,2.6590182E-2],"categories":[],"categories_nodes":[],"categories_segments":[],"categories_sizes":[],"default_left":[0,0,0,0,0,0,0,0,0,0,0,0,0,0,0,0,0,0,0,0,0,0,0,0,0,0,0,0,0,0,0],"id":6,"left_children":[1,3,5,7,9,11,13,15,17,19,21,23,25,27,29,-1,-1,-1,-1,-1,-1,-1,-1,-1,-1,-1,-1,-1,-1,-1,-1],"loss_changes":[2.6715361E4,7.866343E2,1.6450332E3,1.24117676E2,3.721229E2,4.8726904E2,1.6504395E2,2.7051758E1,1.11711914E2,2.4380035E1,6.97038E1,1.0625311E1,2.2816797E2,2.971875E1,3.929297E1,0E0,0E0,0E0,0E0,0E0,0E0,0E0,0E0,0E0,0E0,0E0,0E0,0E0,0E0,0E0,0E0],"parents":[2147483647,0,0,1,1,2,2,3,3,4,4,5,5,6,6,7,7,8,8,9,9,10,10,11,11,12,12,13,13,14,14],"right_children":[2,4,6,8,10,12,14,16,18,20,22,24,26,28,30,-1,-1,-1,-1,-1,-1,-1,-1,-1,-1,-1,-1,-1,-1,-1,-1],"split_conditions":[2.6666667E0,2E0,5.2E0,1E0,5E0,5E0,5.75E0,7.785407E1,5E0,3E0,2.972583E-1,4E0,3.6666667E0,1.3E1,1E1,-2.0366793E-2,-1.1378029E-2,-9.720019E-3,-6.088132E-3,-8.902776E-3,-4.2079147E-3,1.0714292E-2,2.5345203E-3,-3.8568813E-3,2.431863E-3,1.5987648E-2,2.3526093E-2,2.9018937E-2,1.6722826E-2,3.5E-2,2.6590182E-2],"split_indices":[1,1,1,1,31,31,1,23,31,31,8,31,1,31,31,0,0,0,0,0,0,0,0,0,0,0,0,0,0,0,0],"split_type":[0,0,0,0,0,0,0,0,0,0,0,0,0,0,0,0,0,0,0,0,0,0,0,0,0,0,0,0,0,0,0],"sum_hessian":[2.9468894E5,2.1816803E5,7.65209E4,1.9627052E5,2.189752E4,4.5872043E4,3.0648855E4,7.5639625E4,1.206309E5,1.142807E4,1.0469449E4,2.7164895E3,4.3155555E4,9.587204E3,2.106165E4,8.460261E2,7.479359E4,9.322534E4,2.7405549E4,4.6943115E3,6.7337593E3,5.5983223E3,4.8711265E3,1.519086E3,1.1974034E3,1.5912007E4,2.7243547E4,9.061881E3,5.253232E2,1.9655209E4,1.4064409E3],"tree_param":{"num_deleted":"0","num_feature":"44","num_nodes":"31","size_leaf_vector":"1"}},{"base_weights":[8.0336083E-4,-1.6968264E-1,5.062747E-1,-1.9126146E-1,1.7397892E-1,3.8891104E-1,6.7184037E-1,-2.1376054E-1,-1.2906486E-1,9.988413E-2,4.8341843E-1,2.8938627E-1,4.4365087E-1,5.905385E-1,7E-1,-1.2016526E-2,-9.823626E-3,-9.128848E-3,-4.963055E-3,-2.0953042E-3,8.753102E-3,1.9611478E-2,3.162144E-2,-5.3211343E-3,1.5083349E-2,2.2849126E-2,1.2108382E-2,3.0579383E-2,2.0493735E-2,3.5E-2,2.6370257E-2],"categories":[],"categories_nodes":[],"categories_segments":[],"categories_sizes":[],"default_left":[0,0,0,0,0,0,0,0,0,0,0,0,0,0,0,0,0,0,0,0,0,0,0,0,0,0,0,0,0,0,0],"id":7,"left_children":[1,3,5,7,9,11,13,15,17,19,21,23,25,27,29,-1,-1,-1,-1,-1,-1,-1,-1,-1,-1,-1,-1,-1,-1,-1,-1],"loss_changes":[2.5415307E4,1.6355474E3,1.445125E3,2.903496E2,2.9872324E2,2.3702051E2,1.878584E2,6.994971E1,8.790546E1,1.1212004E2,3.39552E1,7.51759E1,7.530127E1,6.728174E1,1.929834E1,0E0,0E0,0E0,0E0,0E0,0E0,0E0,0E0,0E0,0E0,0E0,0E0,0E0,0E0,0E0,0E0],"parents":[2147483647,0,0,1,1,2,2,3,3,4,4,5,5,6,6,7,7,8,8,9,9,10,10,11,11,12,12,13,13,14,14],"right_children":[2,4,6,8,10,12,14,16,18,20,22,24,26,28,30,-1,-1,-1,-1,-1,-1,-1,-1,-1,-1,-1,-1,-1,-1,-1,-1],"split_conditions":[5.7E1,2.6666667E0,5E0,1.3333334E0,4.85E0,3.5E0,6E0,9.375E-1,3E0,5E0,5.3333335E0,5E0,1.3E1,8E0,1.1E1,-1.2016526E-2,-9.823626E-3,-9.128848E-3,-4.963055E-3,-2.0953042E-3,8.753102E-3,1.9611478E-2,3.162144E-2,-5.3211343E-3,1.5083349E-2,2.2849126E-2,1.2108382E-2,3.0579383E-2,2.0493735E-2,3.5E-2,2.6370257E-2],"split_indices":[32,3,3,3,3,3,3,3,31,31,0,31,31,31,31,0,0,0,0,0,0,0,0,0,0,0,0,0,0,0,0],"split_type":[0,0,0,0,0,0,0,0,0,0,0,0,0,0,0,0,0,0,0,0,0,0,0,0,0,0,0,0,0,0,0],"sum_hessian":[2.9492006E5,2.205374E5,7.438266E4,2.0750848E5,1.3028918E4,4.3529836E4,3.085282E4,1.5238169E5,5.512681E4,1.0513196E4,2.5157217E3,1.5449173E4,2.8080664E4,1.776183E4,1.3090989E4,6.0058742E4,9.232294E4,1.9716936E4,3.540987E4,3.6424402E3,6.870756E3,1.5633264E3,9.5239514E2,4.6443817E2,1.4984734E4,2.6336295E4,1.7443691E3,1.590572E4,1.8561107E3,1.2426557E4,6.6443256E2],"tree_param":{"num_deleted":"0","num_feature":"44","num_nodes":"31","size_leaf_vector":"1"}},{"base_weights":[1.6411257E-3,-1.764768E-1,4.526322E-1,-1.8779148E-1,1.5439497E-1,3.061318E-1,5.891936E-1,-2.034683E-1,-9.36613E-2,-1.0877338E-1,1.9298086E-1,1.0621166E-1,3.6646098E-1,5.2738E-1,7E-1,-1.159453E-2,-9.240971E-3,-7.089442E-3,-1.7712476E-3,-9.179856E-3,-2.477334E-3,3.8109825E-3,1.228943E-2,-2.1035199E-3,9.156707E-3,1.9192075E-2,8.700317E-3,2.713542E-2,1.5617385E-2,3.5E-2,2.0815827E-2],"categories":[],"categories_nodes":[],"categories_segments":[],"categories_sizes":[],"default_left":[0,0,0,0,0,0,0,0,0,0,0,0,0,0,0,0,0,0,0,0,0,0,0,0,0,0,0,0,0,0,0],"id":8,"left_children":[1,3,5,7,9,11,13,15,17,19,21,23,25,27,29,-1,-1,-1,-1,-1,-1,-1,-1,-1,-1,-1,-1,-1,-1,-1,-1],"loss_changes":[2.374496E4,7.9336426E2,1.6741543E3,3.023296E2,7.1211655E1,4.8695093E2,3.911494E2,9.305664E1,8.198947E1,3.9644823E0,3.7658783E1,1.06830864E2,1.0366846E2,1.0195703E2,3.8364746E1,0E0,0E0,0E0,0E0,0E0,0E0,0E0,0E0,0E0,0E0,0E0,0E0,0E0,0E0,0E0,0E0],"parents":[2147483647,0,0,1,1,2,2,3,3,4,4,5,5,6,6,7,7,8,8,9,9,10,10,11,11,12,12,13,13,14,14],"right_children":[2,4,6,8,10,12,14,16,18,20,22,24,26,28,30,-1,-1,-1,-1,-1,-1,-1,-1,-1,-1,-1,-1,-1,-1,-1,-1],"split_conditions":[2.6E0,4.8E1,4.6E0,1.5454545E0,5E0,5.8E1,6.15E0,1E0,4E0,4E0,1.8E0,5E0,1.3E1,1.2E1,2.2E1,-1.159453E-2,-9.240971E-3,-7.089442E-3,-1.7712476E-3,-9.179856E-3,-2.477334E-3,3.8109825E-3,1.228943E-2,-2.1035199E-3,9.156707E-3,1.9192075E-2,8.700317E-3,2.713542E-2,1.5617385E-2,3.5E-2,2.0815827E-2],"split_indices":[1,32,3,3,31,32,3,3,31,31,2,31,31,31,31,0,0,0,0,0,0,0,0,0,0,0,0,0,0,0,0],"split_type":[0,0,0,0,0,0,0,0,0,0,0,0,0,0,0,0,0,0,0,0,0,0,0,0,0,0,0,0,0,0,0],"sum_hessian":[2.9559028E5,2.1190089E5,8.368941E4,2.0489492E5,7.005966E3,4.0377355E4,4.331205E4,1.7564078E5,2.9254135E4,8.9530194E2,6.110664E3,9.361019E3,3.1016336E4,3.0989695E4,1.23223545E4,6.957952E4,1.0606126E5,1.6015497E4,1.3238639E4,3.9389212E2,5.014098E2,1.9043546E3,4.206309E3,3.1971274E3,6.1638916E3,2.844588E4,2.5704556E3,2.8925758E4,2.063938E3,1.1839846E4,4.8250934E2],"tree_param":{"num_deleted":"0","num_feature":"44","num_nodes":"31","size_leaf_vector":"1"}},{"base_weights":[7.164702E-4,-1.770662E-1,4.2249244E-1,-2.0011415E-1,-7.478405E-2,2.851294E-1,5.568348E-1,-2.2956456E-1,-1.7985415E-1,-1.1234121E-1,-1.476524E-3,1.5727432E-1,3.4105992E-1,4.938252E-1,6.921658E-1,-1.950185E-2,-1.13667995E-2,-9.059915E-3,-2.9381973E-4,-6.161852E-3,7.231593E-4,-2.1535815E-3,4.216198E-3,6.9407173E-3,1.6170604E-2,1.6296832E-2,2.5418317E-2,2.3379054E-2,2.8419597E-2,3.0844966E-2,3.5E-2],"categories":[],"categories_nodes":[],"categories_segments":[],"categories_sizes":[],"default_left":[0,0,0,0,0,0,0,0,0,0,0,0,0,0,0,0,0,0,0,0,0,0,0,0,0,0,0,0,0,0,0],"id":9,"left_children":[1,3,5,7,9,11,13,15,17,19,21,23,25,27,29,-1,-1,-1,-1,-1,-1,-1,-1,-1,-1,-1,-1,-1,-1,-1,-1],"loss_changes":[2.2138633E4,4.8959912E2,1.6153818E3,1.0109326E2,1.0516144E2,3.0949707E2,3.7706055E2,2.4630615E1,2.3465576E1,3.4912872E1,4.6212402E1,4.0379974E1,7.604297E1,5.884131E1,3.5376465E1,0E0,0E0,0E0,0E0,0E0,0E0,0E0,0E0,0E0,0E0,0E0,0E0,0E0,0E0,0E0,0E0],"parents":[2147483647,0,0,1,1,2,2,3,3,4,4,5,5,6,6,7,7,8,8,9,9,10,10,11,11,12,12,13,13,14,14],"right_children":[2,4,6,8,10,12,14,16,18,20,22,24,26,28,30,-1,-1,-1,-1,-1,-1,-1,-1,-1,-1,-1,-1,-1,-1,-1,-1],"split_conditions":[2.5E0,1.5E0,4.6E0,1E0,1.9473684E0,3.2E0,6.2E0,7.785407E1,2.25E0,2.5E0,2.2E0,4.05E0,6E0,5.65E0,6.4E0,-1.950185E-2,-1.13667995E-2,-9.059915E-3,-2.9381973E-4,-6.161852E-3,7.231593E-4,-2.1535815E-3,4.216198E-3,6.9407173E-3,1.6170604E-2,1.6296832E-2,2.5418317E-2,2.3379054E-2,2.8419597E-2,3.0844966E-2,3.5E-2],"split_indices":[2,3,3,3,3,1,2,23,1,0,1,3,0,3,3,0,0,0,0,0,0,0,0,0,0,0,0,0,0,0,0],"split_type":[0,0,0,0,0,0,0,0,0,0,0,0,0,0,0,0,0,0,0,0,0,0,0,0,0,0,0,0,0,0,0],"sum_hessian":[2.9523903E5,2.0769425E5,8.75448E4,1.6949811E5,3.819613E4,4.328768E4,4.425712E4,6.907452E4,1.0042359E5,2.5255332E4,1.2940795E4,1.3175218E4,3.011246E4,3.0201018E4,1.4056103E4,9.431407E2,6.813138E4,9.965306E4,7.7052985E2,2.3257703E4,1.9976295E3,8.716701E3,4.2240947E3,1.1859876E4,1.3153414E3,2.7619414E4,2.4930469E3,2.234514E4,7.8558784E3,5.3195913E3,8.736511E3],"tree_param":{"num_deleted":"0","num_feature":"44","num_nodes":"31","size_leaf_vector":"1"}},{"base_weights":[1.7244745E-3,-1.6314873E-1,4.3602303E-1,-1.8363225E-1,1.4824446E-1,3.53557E-1,5.980982E-1,-2.0279573E-1,-1.1795795E-1,8.140147E-2,3.67264E-1,2.6429504E-1,4.1226348E-1,5.3499436E-1,6.9696754E-1,-1.1505208E-2,-9.3189655E-3,-7.60137E-3,-3.5362206E-3,-2.1878795E-3,7.505418E-3,-2.4555055E-3,1.9734642E-2,-5.114041E-3,1.3832556E-2,2.1167183E-2,1.1170245E-2,2.75343E-2,1.9657591E-2,3.5E-2,2.1489685E-2],"categories":[],"categories_nodes":[],"categories_segments":[],"categories_sizes":[],"default_left":[0,0,0,0,0,0,0,0,0,0,0,0,0,0,0,0,0,0,0,0,0,0,0,0,0,0,0,0,0,0,0],"id":10,"left_children":[1,3,5,7,9,11,13,15,17,19,21,23,25,27,29,-1,-1,-1,-1,-1,-1,-1,-1,-1,-1,-1,-1,-1,-1,-1,-1],"loss_changes":[2.1116414E4,1.3634829E3,1.0843984E3,2.5238916E2,1.9313339E2,2.8173877E2,1.7035254E2,6.956006E1,7.289746E1,8.697779E1,3.529419E1,9.674011E1,6.777832E1,3.6958496E1,3.3674805E1,0E0,0E0,0E0,0E0,0E0,0E0,0E0,0E0,0E0,0E0,0E0,0E0,0E0,0E0,0E0,0E0],"parents":[2147483647,0,0,1,1,2,2,3,3,4,4,5,5,6,6,7,7,8,8,9,9,10,10,11,11,12,12,13,13,14,14],"right_children":[2,4,6,8,10,12,14,16,18,20,22,24,26,28,30,-1,-1,-1,-1,-1,-1,-1,-1,-1,-1,-1,-1,-1,-1,-1,-1],"split_conditions":[5.4E1,2.5E0,5.3E0,1.4E0,4.65E0,3.8E0,6.2777777E0,9.5E-1,4E0,5E0,4E0,5E0,1.3E1,8E0,1.2E1,-1.1505208E-2,-9.3189655E-3,-7.60137E-3,-3.5362206E-3,-2.1878795E-3,7.505418E-3,-2.4555055E-3,1.9734642E-2,-5.114041E-3,1.3832556E-2,2.1167183E-2,1.1170245E-2,2.75343E-2,1.9657591E-2,3.5E-2,2.1489685E-2],"split_indices":[32,2,3,3,3,2,3,3,31,31,31,31,31,31,31,0,0,0,0,0,0,0,0,0,0,0,0,0,0,0,0],"split_type":[0,0,0,0,0,0,0,0,0,0,0,0,0,0,0,0,0,0,0,0,0,0,0,0,0,0,0,0,0,0,0],"sum_hessian":[2.949007E5,2.137536E5,8.11471E4,2.0056134E5,1.3192244E4,5.3784582E4,2.7362523E4,1.5525502E5,4.5306336E4,1.0108914E4,3.0833303E3,2.1341904E4,3.2442676E4,1.670677E4,1.0655752E4,5.828304E4,9.697198E4,2.6318514E4,1.8987822E4,3.5822537E3,6.52666E3,1.9028789E2,2.8930425E3,6.954075E2,2.0646496E4,3.0643102E4,1.7995753E3,1.5039416E4,1.6673541E3,1.0186754E4,4.6899832E2],"tree_param":{"num_deleted":"0","num_feature":"44","num_nodes":"31","size_leaf_vector":"1"}},{"base_weights":[1.8918506E-3,-1.6101652E-1,4.1147906E-1,-1.8317197E-1,9.737043E-2,3.2014078E-1,5.383002E-1,-2.0151292E-1,-1.2767774E-1,1.9013416E-2,2.8874642E-1,2.2893803E-1,3.6422068E-1,4.880831E-1,6.4662576E-1,-1.1379714E-2,-9.227719E-3,-8.446241E-3,-5.14902E-3,-5.002922E-3,3.691629E-3,1.5647E-3,1.6717827E-2,-6.130584E-3,1.2306019E-2,1.872131E-2,1.06245335E-2,2.503479E-2,1.6150512E-2,2.9283646E-2,3.5E-2],"categories":[],"categories_nodes":[],"categories_segments":[],"categories_sizes":[],"default_left":[0,0,0,0,0,0,0,0,0,0,0,0,0,0,0,0,0,0,0,0,0,0,0,0,0,0,0,0,0,0,0],"id":11,"left_children":[1,3,5,7,9,11,13,15,17,19,21,23,25,27,29,-1,-1,-1,-1,-1,-1,-1,-1,-1,-1,-1,-1,-1,-1,-1,-1],"loss_changes":[1.9632951E4,1.2051362E3,9.696924E2,1.973086E2,2.4930559E2,1.9559668E2,1.9036914E2,6.440967E1,4.905011E1,7.703817E1,5.6672913E1,9.58938E1,5.071631E1,4.969629E1,4.0564453E1,0E0,0E0,0E0,0E0,0E0,0E0,0E0,0E0,0E0,0E0,0E0,0E0,0E0,0E0,0E0,0E0],"parents":[2147483647,0,0,1,1,2,2,3,3,4,4,5,5,6,6,7,7,8,8,9,9,10,10,11,11,12,12,13,13,14,14],"right_children":[2,4,6,8,10,12,14,16,18,20,22,24,26,28,30,-1,-1,-1,-1,-1,-1,-1,-1,-1,-1,-1,-1,-1,-1,-1,-1],"split_conditions":[5.2E1,2.25E0,5E0,1.3333334E0,4E0,3.35E0,6.2777777E0,9.5E-1,3E0,4E0,5E0,5E0,1.3E1,1E1,1E0,-1.1379714E-2,-9.227719E-3,-8.446241E-3,-5.14902E-3,-5.002922E-3,3.691629E-3,1.5647E-3,1.6717827E-2,-6.130584E-3,1.2306019E-2,1.872131E-2,1.06245335E-2,2.503479E-2,1.6150512E-2,2.9283646E-2,3.5E-2],"split_indices":[32,3,3,3,3,3,3,3,31,31,31,31,31,31,40,0,0,0,0,0,0,0,0,0,0,0,0,0,0,0,0],"split_type":[0,0,0,0,0,0,0,0,0,0,0,0,0,0,0,0,0,0,0,0,0,0,0,0,0,0,0,0,0,0,0],"sum_hessian":[2.9423194E5,2.1050605E5,8.372588E4,1.9388225E5,1.6623803E4,4.8674312E4,3.505157E4,1.457178E5,4.816444E4,1.1795765E4,4.8280376E3,1.5862579E4,3.2811734E4,2.395366E4,1.109791E4,5.740834E4,8.830947E4,1.803473E4,3.0129713E4,3.717781E3,8.0779834E3,7.271903E2,4.1008477E3,7.3861523E2,1.5123964E4,3.0741873E4,2.0698594E3,2.2250896E4,1.7027631E3,5.5599614E3,5.537948E3],"tree_param":{"num_deleted":"0","num_feature":"44","num_nodes":"31","size_leaf_vector":"1"}},{"base_weights":[1.7650045E-5,-1.6836114E-1,3.6576194E-1,-1.7824857E-1,1.3534553E-1,2.513498E-1,4.7359997E-1,-1.9874714E-1,-1.2130643E-1,2.2407584E-2,2.178062E-1,7.616492E-2,3.0697125E-1,4.2600405E-1,5.9179133E-1,-1.1170222E-2,-9.139231E-3,-6.9494E-3,-3.0192991E-3,6.683949E-4,2.8530238E-2,1.0517623E-2,3.5E-2,1.5616214E-3,7.3312274E-3,1.4756627E-2,2.2576569E-2,1.6383572E-2,2.2132235E-2,2.2944145E-2,3.1044094E-2],"categories":[],"categories_nodes":[],"categories_segments":[],"categories_sizes":[],"default_left":[0,0,0,0,0,0,0,0,0,0,0,0,0,0,0,0,0,0,0,0,0,0,0,0,0,0,0,0,0,0,0],"id":12,"left_children":[1,3,5,7,9,11,13,15,17,19,21,23,25,27,29,-1,-1,-1,-1,-1,-1,-1,-1,-1,-1,-1,-1,-1,-1,-1,-1],"loss_changes":[1.8187377E4,6.073169E2,1.148543E3,2.2857812E2,5.9374405E1,4.4015698E2,2.6935352E2,5.663965E1,5.5833923E1,1.3389132E1,1.7201736E1,3.4470203E1,5.8560547E1,5.5760742E1,5.288916E1,0E0,0E0,0E0,0E0,0E0,0E0,0E0,0E0,0E0,0E0,0E0,0E0,0E0,0E0,0E0,0E0],"parents":[2147483647,0,0,1,1,2,2,3,3,4,4,5,5,6,6,7,7,8,8,9,9,10,10,11,11,12,12,13,13,14,14],"right_children":[2,4,6,8,10,12,14,16,18,20,22,24,26,28,30,-1,-1,-1,-1,-1,-1,-1,-1,-1,-1,-1,-1,-1,-1,-1,-1],"split_conditions":[2.5E0,4.8E1,4.6E0,1.3333334E0,6.3E1,5.7E1,6.15E0,9.375E-1,1.85E0,5.8520645E-1,3.6E0,3.5E0,6E0,7.2E1,8.3E1,-1.1170222E-2,-9.139231E-3,-6.9494E-3,-3.0192991E-3,6.683949E-4,2.8530238E-2,1.0517623E-2,3.5E-2,1.5616214E-3,7.3312274E-3,1.4756627E-2,2.2576569E-2,1.6383572E-2,2.2132235E-2,2.2944145E-2,3.1044094E-2],"split_indices":[2,32,3,3,32,32,3,3,3,15,3,3,0,32,32,0,0,0,0,0,0,0,0,0,0,0,0,0,0,0,0],"split_type":[0,0,0,0,0,0,0,0,0,0,0,0,0,0,0,0,0,0,0,0,0,0,0,0,0,0,0,0,0,0,0],"sum_hessian":[2.9532425E5,2.022254E5,9.309884E4,1.958501E5,6.375325E3,4.517457E4,4.7924277E4,1.4400539E5,5.18447E4,2.6915159E3,3.6838093E3,1.088751E4,3.4287062E4,3.4169562E4,1.3754714E4,5.6582746E4,8.742264E4,4.017994E4,1.166476E4,2.6490403E3,4.2475464E1,3.6462751E3,3.753424E1,6.6497744E3,4.237736E3,3.1695135E4,2.5919263E3,4.949395E3,2.9220166E4,2.4735947E3,1.1281119E4],"tree_param":{"num_deleted":"0","num_feature":"44","num_nodes":"31","size_leaf_vector":"1"}},{"base_weights":[1.0525135E-3,-1.6548212E-1,3.5274786E-1,-1.7541726E-1,1.3501458E-1,2.4701521E-1,4.6202993E-1,-1.9624682E-1,-1.1711199E-1,-1.0119116E-1,1.7242551E-1,7.775714E-2,2.9821467E-1,4.299598E-1,5.9962314E-1,-1.1613165E-2,-9.184386E-3,-8.278134E-3,-4.4577857E-3,-5.544526E-3,1.2832589E-2,3.714608E-3,1.1389665E-2,-2.1390468E-3,6.914422E-3,1.560603E-2,7.1065747E-3,2.2189703E-2,1.38932215E-2,2.8290806E-2,3.5E-2],"categories":[],"categories_nodes":[],"categories_segments":[],"categories_sizes":[],"default_left":[0,0,0,0,0,0,0,0,0,0,0,0,0,0,0,0,0,0,0,0,0,0,0,0,0,0,0,0,0,0,0],"id":13,"left_children":[1,3,5,7,9,11,13,15,17,19,21,23,25,27,29,-1,-1,-1,-1,-1,-1,-1,-1,-1,-1,-1,-1,-1,-1,-1,-1],"loss_changes":[1.7232883E4,5.961875E2,1.0923955E3,2.3471582E2,5.6525284E1,4.1643652E2,2.0491211E2,6.4375E1,6.89043E1,3.1008673E0,2.995877E1,8.148516E1,8.002539E1,7.920801E1,3.7628418E1,0E0,0E0,0E0,0E0,0E0,0E0,0E0,0E0,0E0,0E0,0E0,0E0,0E0,0E0,0E0,0E0],"parents":[2147483647,0,0,1,1,2,2,3,3,4,4,5,5,6,6,7,7,8,8,9,9,10,10,11,11,12,12,13,13,14,14],"right_children":[2,4,6,8,10,12,14,16,18,20,22,24,26,28,30,-1,-1,-1,-1,-1,-1,-1,-1,-1,-1,-1,-1,-1,-1,-1,-1],"split_conditions":[2.5E0,4.8E1,4.7E0,1.3333334E0,5E0,5.7E1,6.75E0,8.333333E-1,3E0,1.03E0,6.3E1,5E0,1.3E1,1E1,7.75E0,-1.1613165E-2,-9.184386E-3,-8.278134E-3,-4.4577857E-3,-5.544526E-3,1.2832589E-2,3.714608E-3,1.1389665E-2,-2.1390468E-3,6.914422E-3,1.560603E-2,7.1065747E-3,2.2189703E-2,1.38932215E-2,2.8290806E-2,3.5E-2],"split_indices":[2,32,3,3,31,32,2,3,31,39,32,31,31,31,3,0,0,0,0,0,0,0,0,0,0,0,0,0,0,0,0],"split_type":[0,0,0,0,0,0,0,0,0,0,0,0,0,0,0,0,0,0,0,0,0,0,0,0,0,0,0,0,0,0,0],"sum_hessian":[2.942258E5,1.996757E5,9.455012E4,1.9328595E5,6.3897495E3,4.8057594E4,4.649252E4,1.4240697E5,5.0878984E4,8.730559E2,5.5166934E3,1.11620205E4,3.6895574E4,3.7708332E4,8.7841875E3,3.6812414E4,1.0559456E5,1.8612822E4,3.2266162E4,8.5096014E2,2.2095762E1,1.9913655E3,3.525328E3,3.730997E3,7.4310234E3,3.3875836E4,3.0197388E3,3.456207E4,3.1462625E3,7.032496E3,1.7516908E3],"tree_param":{"num_deleted":"0","num_feature":"44","num_nodes":"31","size_leaf_vector":"1"}},{"base_weights":[7.7868585E-4,-1.6060004E-1,3.4410194E-1,-1.705622E-1,1.7092393E-1,2.4921058E-1,4.368308E-1,-1.8798906E-1,-9.1006294E-2,-1.1881416E-1,1.9566768E-1,-4.0671606E-2,2.7360517E-1,3.8241932E-1,5.125285E-1,-1.0926549E-2,-8.593141E-3,-5.968259E-3,-1.5018376E-3,-4.120331E-3,-1.895133E-2,1.2451911E-2,5.793971E-3,-4.434509E-3,1.26876E-3,7.874393E-3,1.4872687E-2,1.9758388E-2,1.26813175E-2,2.4771383E-2,3.3930432E-2],"categories":[],"categories_nodes":[],"categories_segments":[],"categories_sizes":[],"default_left":[0,0,0,0,0,0,0,0,0,0,0,0,0,0,0,0,0,0,0,0,0,0,0,0,0,0,0,0,0,0,0],"id":14,"left_children":[1,3,5,7,9,11,13,15,17,19,21,23,25,27,29,-1,-1,-1,-1,-1,-1,-1,-1,-1,-1,-1,-1,-1,-1,-1,-1],"loss_changes":[1.6388562E4,6.646094E2,8.3211914E2,2.708037E2,4.214415E1,3.306277E2,1.9682324E2,7.888623E1,6.0689606E1,4.3696547E0,2.3001892E1,1.1533136E1,1.1935254E2,4.5590088E1,5.647998E1,0E0,0E0,0E0,0E0,0E0,0E0,0E0,0E0,0E0,0E0,0E0,0E0,0E0,0E0,0E0,0E0],"parents":[2147483647,0,0,1,1,2,2,3,3,4,4,5,5,6,6,7,7,8,8,9,9,10,10,11,11,12,12,13,13,14,14],"right_children":[2,4,6,8,10,12,14,16,18,20,22,24,26,28,30,-1,-1,-1,-1,-1,-1,-1,-1,-1,-1,-1,-1,-1,-1,-1,-1],"split_conditions":[2.6E0,5.4E1,4.7E0,1.5E0,5E0,5E0,5.85E0,9.375E-1,5E0,5.4723346E-1,7E0,4E0,6.1E1,1E1,7.75E0,-1.0926549E-2,-8.593141E-3,-5.968259E-3,-1.5018376E-3,-4.120331E-3,-1.895133E-2,1.2451911E-2,5.793971E-3,-4.434509E-3,1.26876E-3,7.874393E-3,1.4872687E-2,1.9758388E-2,1.26813175E-2,2.4771383E-2,3.3930432E-2],"split_indices":[1,32,3,3,31,31,3,3,31,12,31,31,32,31,3,0,0,0,0,0,0,0,0,0,0,0,0,0,0,0,0],"split_type":[0,0,0,0,0,0,0,0,0,0,0,0,0,0,0,0,0,0,0,0,0,0,0,0,0,0,0,0,0,0,0],"sum_hessian":[2.9579122E5,2.0121198E5,9.4579234E4,1.9534281E5,5.869176E3,4.6746906E4,4.7832324E4,1.6023944E5,3.510337E4,4.6117554E2,5.408E3,3.628188E3,4.311872E4,2.7833207E4,1.999912E4,5.5364426E4,1.0487501E5,2.3957416E4,1.1145957E4,4.0606244E2,5.511311E1,3.238432E3,2.1695684E3,2.101493E3,1.5266952E3,7.348937E3,3.576978E4,2.532372E4,2.509487E3,1.813626E4,1.8628597E3],"tree_param":{"num_deleted":"0","num_feature":"44","num_nodes":"31","size_leaf_vector":"1"}},{"base_weights":[7.58154E-4,-1.5981756E-1,3.23504E-1,-1.7901744E-1,-4.1067626E-2,1.97788E-1,3.964016E-1,-2.10186E-1,-1.5971896E-1,-1.08136676E-1,5.521406E-2,-3.738116E-2,2.2519106E-1,3.5624903E-1,5.0450927E-1,-2.0070462E-2,-1.0384295E-2,-9.506014E-3,-6.874899E-3,-7.3767356E-3,-3.8546883E-3,-5.7097647E-4,5.425629E-3,-8.351284E-3,-9.364034E-4,8.882762E-3,1.3425358E-2,-7.920088E-4,1.8149285E-2,2.3147857E-2,2.8157461E-2],"categories":[],"categories_nodes":[],"categories_segments":[],"categories_sizes":[],"default_left":[0,0,0,0,0,0,0,0,0,0,0,1,0,0,0,0,0,0,0,0,0,0,0,0,0,0,0,0,0,0,0],"id":15,"left_children":[1,3,5,7,9,11,13,15,17,19,21,23,25,27,29,-1,-1,-1,-1,-1,-1,-1,-1,-1,-1,-1,-1,-1,-1,-1,-1],"loss_changes":[1.5308908E4,4.4971826E2,8.993115E2,1.0210156E2,1.7733203E2,2.3218494E2,2.694668E2,3.0974854E1,7.0822266E1,1.9782806E1,4.0059383E1,9.100613E0,6.638574E1,1.1359326E2,4.072412E1,0E0,0E0,0E0,0E0,0E0,0E0,0E0,0E0,0E0,0E0,0E0,0E0,0E0,0E0,0E0,0E0],"parents":[2147483647,0,0,1,1,2,2,3,3,4,4,5,5,6,6,7,7,8,8,9,9,10,10,11,11,12,12,13,13,14,14],"right_children":[2,4,6,8,10,12,14,16,18,20,22,24,26,28,30,-1,-1,-1,-1,-1,-1,-1,-1,-1,-1,-1,-1,-1,-1,-1,-1],"split_conditions":[2.5E0,1.6E0,4.181818E0,1E0,5E0,5E0,6.2E0,7.785407E1,3E0,3E0,2E0,8.543724E1,3.6E0,5E0,4.6155483E-1,-2.0070462E-2,-1.0384295E-2,-9.506014E-3,-6.874899E-3,-7.3767356E-3,-3.8546883E-3,-5.7097647E-4,5.425629E-3,-8.351284E-3,-9.364034E-4,8.882762E-3,1.3425358E-2,-7.920088E-4,1.8149285E-2,2.3147857E-2,2.8157461E-2],"split_indices":[2,3,3,3,31,31,2,23,31,31,1,22,1,31,7,0,0,0,0,0,0,0,0,0,0,0,0,0,0,0,0],"split_type":[0,0,0,0,0,0,0,0,0,0,0,0,0,0,0,0,0,0,0,0,0,0,0,0,0,0,0,0,0,0,0],"sum_hessian":[2.9539125E5,1.9725244E5,9.81388E4,1.6979766E5,2.7454787E4,3.602198E4,6.2116812E4,6.4924426E4,1.0487323E5,1.6182855E4,1.1271932E4,3.758976E3,3.2263006E4,4.529783E4,1.6818986E4,8.353086E2,6.4089117E4,4.4280062E4,6.0593164E4,7.1286157E3,9.05424E3,5.008827E3,6.263105E3,4.7113483E2,3.287841E3,1.5385788E4,1.6877217E4,8.052413E2,4.4492586E4,9.849941E3,6.9690444E3],"tree_param":{"num_deleted":"0","num_feature":"44","num_nodes":"31","size_leaf_vector":"1"}},{"base_weights":[1.3306581E-3,-1.547356E-1,3.1988293E-1,-1.7417079E-1,-1.3732761E-2,2.513073E-1,4.3057993E-1,-1.9905873E-1,-1.4727888E-1,-9.7899005E-2,7.572676E-2,-4.4245157E-2,2.7073753E-1,3.9277476E-1,5.1310647E-1,-1.1077148E-2,-9.103207E-3,-8.7547125E-3,-6.3484623E-3,-7.381528E-3,-3.1569495E-3,3.1429992E-4,5.9814677E-3,-6.983999E-3,-6.829602E-4,1.42997205E-2,6.0158405E-3,2.0149097E-2,1.3372396E-2,2.6325537E-2,1.3206596E-2],"categories":[],"categories_nodes":[],"categories_segments":[],"categories_sizes":[],"default_left":[0,0,0,0,0,0,0,0,0,0,0,0,0,0,0,0,0,0,0,0,0,0,0,0,0,0,0,0,0,0,0],"id":16,"left_children":[1,3,5,7,9,11,13,15,17,19,21,23,25,27,29,-1,-1,-1,-1,-1,-1,-1,-1,-1,-1,-1,-1,-1,-1,-1,-1],"loss_changes":[1.4656695E4,5.422295E2,7.357881E2,1.163584E2,1.8053275E2,3.438142E2,1.1548926E2,3.4469482E1,4.7200317E1,2.1344795E1,3.542247E1,1.0784988E1,1.2885889E2,3.2418457E1,3.8702393E1,0E0,0E0,0E0,0E0,0E0,0E0,0E0,0E0,0E0,0E0,0E0,0E0,0E0,0E0,0E0,0E0],"parents":[2147483647,0,0,1,1,2,2,3,3,4,4,5,5,6,6,7,7,8,8,9,9,10,10,11,11,12,12,13,13,14,14],"right_children":[2,4,6,8,10,12,14,16,18,20,22,24,26,28,30,-1,-1,-1,-1,-1,-1,-1,-1,-1,-1,-1,-1,-1,-1,-1,-1],"split_conditions":[2.6E0,1.7E0,5.15E0,1.0714285E0,5E0,5E0,6.4E0,3E0,3E0,3E0,2E0,3E0,1.3E1,1E1,1.2E1,-1.1077148E-2,-9.103207E-3,-8.7547125E-3,-6.3484623E-3,-7.381528E-3,-3.1569495E-3,3.1429992E-4,5.9814677E-3,-6.983999E-3,-6.829602E-4,1.42997205E-2,6.0158405E-3,2.0149097E-2,1.3372396E-2,2.6325537E-2,1.3206596E-2],"split_indices":[1,3,3,3,31,31,3,31,31,31,1,31,31,31,31,0,0,0,0,0,0,0,0,0,0,0,0,0,0,0,0],"split_type":[0,0,0,0,0,0,0,0,0,0,0,0,0,0,0,0,0,0,0,0,0,0,0,0,0,0,0,0,0,0,0],"sum_hessian":[2.948086E5,1.9786839E5,9.694018E4,1.7389811E5,2.3970285E4,5.9861062E4,3.7079117E4,9.030891E4,8.358921E4,1.2351059E4,1.1619228E4,3.6922307E3,5.6168832E4,2.5434588E4,1.164453E4,3.886791E4,5.1440992E4,3.5270887E4,4.831832E4,5.078732E3,7.2723267E3,4.5019346E3,7.117293E3,8.94466E2,2.797765E3,5.099495E4,5.1738833E3,2.3516305E4,1.9182837E3,1.1048204E4,5.9632654E2],"tree_param":{"num_deleted":"0","num_feature":"44","num_nodes":"31","size_leaf_vector":"1"}},{"base_weights":[3.653561E-4,-1.5339291E-1,3.041153E-1,-1.6408122E-1,1.23856075E-1,2.4434806E-1,4.1462788E-1,-1.8042807E-1,-8.901753E-2,-9.7778074E-2,1.5527762E-1,1.02476746E-1,2.7843088E-1,3.9285934E-1,5.1772094E-1,-1.03172455E-2,-8.131488E-3,-7.253993E-3,-3.1204768E-3,-6.081627E-3,8.403866E-3,4.396434E-3,9.885709E-3,-1.6327078E-3,7.691732E-3,1.4525145E-2,5.5373805E-3,1.5950449E-2,2.0748183E-2,1.7684443E-2,2.7349833E-2],"categories":[],"categories_nodes":[],"categories_segments":[],"categories_sizes":[],"default_left":[0,0,0,0,0,0,0,0,0,0,0,0,0,0,0,0,0,0,0,0,0,0,0,0,0,0,0,0,0,0,0],"id":17,"left_children":[1,3,5,7,9,11,13,15,17,19,21,23,25,27,29,-1,-1,-1,-1,-1,-1,-1,-1,-1,-1,-1,-1,-1,-1,-1,-1],"loss_changes":[1.3757922E4,5.7960156E2,6.5380273E2,2.310503E2,5.0605965E1,3.10656E2,7.7782715E1,7.129785E1,5.023346E1,5.772496E0,1.815538E1,8.64267E1,1.0482446E2,4.670215E1,2.886438E1,0E0,0E0,0E0,0E0,0E0,0E0,0E0,0E0,0E0,0E0,0E0,0E0,0E0,0E0,0E0,0E0],"parents":[2147483647,0,0,1,1,2,2,3,3,4,4,5,5,6,6,7,7,8,8,9,9,10,10,11,11,12,12,13,13,14,14],"right_children":[2,4,6,8,10,12,14,16,18,20,22,24,26,28,30,-1,-1,-1,-1,-1,-1,-1,-1,-1,-1,-1,-1,-1,-1,-1,-1],"split_conditions":[2.6E0,4.8E1,5.3E0,1.5E0,5E0,6.1E1,7.2E0,1E0,3E0,1.02E0,6.5E1,5E0,1.3E1,8.3E1,3.0565345E-1,-1.03172455E-2,-8.131488E-3,-7.253993E-3,-3.1204768E-3,-6.081627E-3,8.403866E-3,4.396434E-3,9.885709E-3,-1.6327078E-3,7.691732E-3,1.4525145E-2,5.5373805E-3,1.5950449E-2,2.0748183E-2,1.7684443E-2,2.7349833E-2],"split_indices":[1,32,3,3,31,32,2,3,31,39,32,31,31,32,11,0,0,0,0,0,0,0,0,0,0,0,0,0,0,0,0],"split_type":[0,0,0,0,0,0,0,0,0,0,0,0,0,0,0,0,0,0,0,0,0,0,0,0,0,0,0,0,0,0,0],"sum_hessian":[2.9457228E5,1.9557325E5,9.899905E4,1.8831427E5,7.2589873E3,6.4253625E4,3.474542E4,1.5463597E5,3.3678297E4,9.006802E2,6.358307E3,1.2447454E4,5.180617E4,2.869263E4,6.0527896E3,6.2952316E4,9.168365E4,1.0836944E4,2.2841354E4,8.273619E2,7.331828E1,2.459842E3,3.898465E3,3.4275186E3,9.019936E3,4.8325727E4,3.4804458E3,6.6142944E3,2.2078336E4,9.1916974E2,5.1336196E3],"tree_param":{"num_deleted":"0","num_feature":"44","num_nodes":"31","size_leaf_vector":"1"}},{"base_weights":[2.0642401E-4,-1.5271902E-1,2.8540474E-1,-1.6183648E-1,1.05359964E-1,1.8042964E-1,3.4342256E-1,-1.837051E-1,-1.2045313E-1,-1.0899531E-1,1.3827503E-1,4.9676117E-2,2.324505E-1,3.1103858E-1,4.3025553E-1,-1.0287908E-2,-8.338074E-3,-7.931076E-3,-4.8302095E-3,-2.412794E-3,-9.071251E-3,9.339713E-3,1.325325E-3,-4.401175E-3,4.307638E-3,1.2187597E-2,3.579997E-3,1.3597003E-3,1.5751086E-2,2.0235546E-2,2.5610194E-2],"categories":[],"categories_nodes":[],"categories_segments":[],"categories_sizes":[],"default_left":[0,0,0,0,0,0,0,0,0,0,0,0,0,0,0,0,0,0,0,0,0,0,0,0,0,0,0,0,0,0,0],"id":18,"left_children":[1,3,5,7,9,11,13,15,17,19,21,23,25,27,29,-1,-1,-1,-1,-1,-1,-1,-1,-1,-1,-1,-1,-1,-1,-1,-1],"loss_changes":[1.2921505E4,4.5384033E2,6.2975E2,1.6855469E2,4.6478683E1,2.503739E2,1.8715039E2,4.5503906E1,5.861438E1,3.847004E0,3.0930916E1,5.2667526E1,4.7838623E1,5.4811523E1,3.7662598E1,0E0,0E0,0E0,0E0,0E0,0E0,0E0,0E0,0E0,0E0,0E0,0E0,0E0,0E0,0E0,0E0],"parents":[2147483647,0,0,1,1,2,2,3,3,4,4,5,5,6,6,7,7,8,8,9,9,10,10,11,11,12,12,13,13,14,14],"right_children":[2,4,6,8,10,12,14,16,18,20,22,24,26,28,30,-1,-1,-1,-1,-1,-1,-1,-1,-1,-1,-1,-1,-1,-1,-1,-1],"split_conditions":[2.5E0,4.8E1,4.2E0,1.25E0,5E0,5.7E1,6.2E0,3E0,3E0,1.85E-1,8E0,4E0,2.2E1,5E0,7.5E0,-1.0287908E-2,-8.338074E-3,-7.931076E-3,-4.8302095E-3,-2.412794E-3,-9.071251E-3,9.339713E-3,1.325325E-3,-4.401175E-3,4.307638E-3,1.2187597E-2,3.579997E-3,1.3597003E-3,1.5751086E-2,2.0235546E-2,2.5610194E-2],"split_indices":[2,32,2,2,31,32,2,31,31,17,31,31,31,31,2,0,0,0,0,0,0,0,0,0,0,0,0,0,0,0,0],"split_type":[0,0,0,0,0,0,0,0,0,0,0,0,0,0,0,0,0,0,0,0,0,0,0,0,0,0,0,0,0,0,0],"sum_hessian":[2.9626478E5,1.9285477E5,1.0341003E5,1.8627477E5,6.579991E3,3.681118E4,6.659884E4,1.2186863E5,6.4406137E4,8.751748E2,5.7048164E3,1.0478226E4,2.6332955E4,4.851217E4,1.8086676E4,5.2943152E4,6.8925484E4,2.4763773E4,3.9642363E4,4.7765826E2,3.9751654E2,3.9768723E3,1.7279442E3,2.1935188E3,8.284707E3,2.4603188E4,1.7297676E3,6.717959E2,4.7840375E4,1.3794017E4,4.2926587E3],"tree_param":{"num_deleted":"0","num_feature":"44","num_nodes":"31","size_leaf_vector":"1"}},{"base_weights":[1.9500011E-3,-1.4914443E-1,2.7865818E-1,-1.7059378E-1,-5.983791E-2,1.7383973E-1,3.3742967E-1,-1.9847737E-1,-1.5178749E-1,-9.2006624E-2,2.2076243E-3,1.1139009E-1,2.164727E-1,2.958041E-1,3.9943624E-1,-1.9265136E-2,-9.79924E-3,-7.669153E-3,-2.0290182E-3,-5.086371E-3,9.4823726E-4,-1.4882111E-3,3.4972678E-3,6.169896E-3,-2.550679E-4,8.877379E-3,1.211781E-2,1.3545148E-2,1.654953E-2,1.9368492E-2,2.6867235E-2],"categories":[],"categories_nodes":[],"categories_segments":[],"categories_sizes":[],"default_left":[0,0,0,0,0,0,0,0,0,0,0,0,0,0,0,0,0,0,0,0,0,0,0,0,0,0,0,0,0,0,0],"id":19,"left_children":[1,3,5,7,9,11,13,15,17,19,21,23,25,27,29,-1,-1,-1,-1,-1,-1,-1,-1,-1,-1,-1,-1,-1,-1,-1,-1],"loss_changes":[1.2331085E4,3.654121E2,6.416455E2,8.063281E1,7.3759964E1,9.9617676E1,1.7215137E2,2.8792969E1,1.6284668E1,2.6264618E1,2.7346447E1,2.1259796E1,2.2362793E1,3.490576E1,4.440869E1,0E0,0E0,0E0,0E0,0E0,0E0,0E0,0E0,0E0,0E0,0E0,0E0,0E0,0E0,0E0,0E0],"parents":[2147483647,0,0,1,1,2,2,3,3,4,4,5,5,6,6,7,7,8,8,9,9,10,10,11,11,12,12,13,13,14,14],"right_children":[2,4,6,8,10,12,14,16,18,20,22,24,26,28,30,-1,-1,-1,-1,-1,-1,-1,-1,-1,-1,-1,-1,-1,-1,-1,-1],"split_conditions":[2.5E0,1.5E0,4.181818E0,1E0,1.9473684E0,3.3333333E0,5.65E0,7.772349E1,2.5E0,2.5E0,2.3333333E0,2.5190476E-1,3.6E0,5.3333335E0,7.75E0,-1.9265136E-2,-9.79924E-3,-7.669153E-3,-2.0290182E-3,-5.086371E-3,9.4823726E-4,-1.4882111E-3,3.4972678E-3,6.169896E-3,-2.550679E-4,8.877379E-3,1.211781E-2,1.3545148E-2,1.654953E-2,1.9368492E-2,2.6867235E-2],"split_indices":[2,3,3,3,3,0,3,21,0,0,0,17,2,0,3,0,0,0,0,0,0,0,0,0,0,0,0,0,0,0,0],"split_type":[0,0,0,0,0,0,0,0,0,0,0,0,0,0,0,0,0,0,0,0,0,0,0,0,0,0,0,0,0,0,0],"sum_hessian":[2.9493378E5,1.9076698E5,1.0416678E5,1.5382078E5,3.6946207E4,3.74251E4,6.674168E4,6.1951715E4,9.186906E4,2.4331959E4,1.2614248E4,1.5186122E4,2.223898E4,3.9938195E4,2.6803486E4,8.131125E2,6.1138605E4,9.056833E4,1.3007328E3,2.2373117E4,1.9588419E3,8.568871E3,4.045377E3,1.3767754E4,1.418368E3,8.886561E3,1.3352421E4,2.3394012E4,1.6544186E4,2.4651152E4,2.152334E3],"tree_param":{"num_deleted":"0","num_feature":"44","num_nodes":"31","size_leaf_vector":"1"}},{"base_weights":[1.4033774E-3,-1.475377E-1,2.6828828E-1,-1.6616774E-1,-3.9636306E-2,1.7004538E-1,3.225487E-1,-2.016409E-1,-1.4931396E-1,-1.04829475E-1,5.209984E-2,-3.7955057E-2,1.9216383E-1,2.785497E-1,3.7988845E-1,-1.9785535E-2,-9.945822E-3,-8.908956E-3,-6.405223E-3,-7.1901414E-3,-3.7456302E-3,7.4477406E-4,6.305415E-3,-4.3677376E-3,1.5201719E-3,1.0259928E-2,3.5734426E-3,-9.97442E-4,1.4210521E-2,1.8112909E-2,2.4326144E-2],"categories":[],"categories_nodes":[],"categories_segments":[],"categories_sizes":[],"default_left":[0,0,0,0,0,0,0,0,0,0,0,0,0,0,1,0,0,0,0,0,0,0,0,0,0,0,0,0,0,0,0],"id":20,"left_children":[1,3,5,7,9,11,13,15,17,19,21,23,25,27,29,-1,-1,-1,-1,-1,-1,-1,-1,-1,-1,-1,-1,-1,-1,-1,-1],"loss_changes":[1.1747712E4,3.8128223E2,5.64228E2,9.667578E1,1.6707166E2,1.7332312E2,1.719331E2,2.7483887E1,6.711304E1,1.9027954E1,3.1949951E1,1.2251263E1,5.3537598E1,6.524097E1,5.5486816E1,0E0,0E0,0E0,0E0,0E0,0E0,0E0,0E0,0E0,0E0,0E0,0E0,0E0,0E0,0E0,0E0],"parents":[2147483647,0,0,1,1,2,2,3,3,4,4,5,5,6,6,7,7,8,8,9,9,10,10,11,11,12,12,13,13,14,14],"right_children":[2,4,6,8,10,12,14,16,18,20,22,24,26,28,30,-1,-1,-1,-1,-1,-1,-1,-1,-1,-1,-1,-1,-1,-1,-1,-1],"split_conditions":[2.5E0,1.5555556E0,4.181818E0,9.375E-1,5E0,5E0,5.75E0,7.753226E1,3E0,3E0,2.2E0,4E0,2.2E1,5E0,9.201818E1,-1.9785535E-2,-9.945822E-3,-8.908956E-3,-6.405223E-3,-7.1901414E-3,-3.7456302E-3,7.4477406E-4,6.305415E-3,-4.3677376E-3,1.5201719E-3,1.0259928E-2,3.5734426E-3,-9.97442E-4,1.4210521E-2,1.8112909E-2,2.4326144E-2],"split_indices":[2,3,3,3,31,31,1,20,31,31,3,31,31,31,20,0,0,0,0,0,0,0,0,0,0,0,0,0,0,0,0],"split_type":[0,0,0,0,0,0,0,0,0,0,0,0,0,0,0,0,0,0,0,0,0,0,0,0,0,0,0,0,0,0,0],"sum_hessian":[2.9553462E5,1.896797E5,1.0585492E5,1.6175067E5,2.7929023E4,3.766513E4,6.818979E4,5.2092195E4,1.09658484E5,1.6327019E4,1.1602005E4,3.6197742E3,3.4045355E4,3.858763E4,2.9602164E4,7.1867126E2,5.1373523E4,4.644155E4,6.321693E4,7.0872104E3,9.239808E3,7.7224507E3,3.8795547E3,2.1019626E3,1.5178115E3,3.0725549E4,3.3198042E3,7.177796E2,3.7869848E4,2.5406885E4,4.1952793E3],"tree_param":{"num_deleted":"0","num_feature":"44","num_nodes":"31","size_leaf_vector":"1"}},{"base_weights":[-4.1824285E-4,-1.4925368E-1,2.499158E-1,-1.722108E-1,-8.950869E-2,1.6240405E-1,3.1468987E-1,-2.0248334E-1,-1.58008E-1,-1.10623986E-1,-2.065123E-2,1.0588513E-1,2.1896279E-1,2.740159E-1,3.6139995E-1,-1.988778E-2,-9.953164E-3,-7.937322E-3,4.994562E-3,-5.755824E-3,5.9077913E-5,-1.6729275E-3,6.5646605E-3,3.4335745E-3,7.2351047E-3,1.0712861E-2,2.1738255E-2,1.2311997E-2,1.50618395E-2,1.7000131E-2,2.1806832E-2],"categories":[],"categories_nodes":[],"categories_segments":[],"categories_sizes":[],"default_left":[0,0,0,0,0,0,0,0,0,0,0,0,0,0,0,0,0,0,0,0,0,0,0,0,0,0,0,0,0,0,0],"id":21,"left_children":[1,3,5,7,9,11,13,15,17,19,21,23,25,27,29,-1,-1,-1,-1,-1,-1,-1,-1,-1,-1,-1,-1,-1,-1,-1,-1],"loss_changes":[1.1014313E4,2.5426074E2,6.2475146E2,5.7551758E1,7.4821655E1,1.4985449E2,1.2023877E2,2.849878E1,1.7404541E1,1.9795868E1,2.3532406E1,3.387018E1,2.372351E1,2.5528564E1,4.699756E1,0E0,0E0,0E0,0E0,0E0,0E0,0E0,0E0,0E0,0E0,0E0,0E0,0E0,0E0,0E0,0E0],"parents":[2147483647,0,0,1,1,2,2,3,3,4,4,5,5,6,6,7,7,8,8,9,9,10,10,11,11,12,12,13,13,14,14],"right_children":[2,4,6,8,10,12,14,16,18,20,22,24,26,28,30,-1,-1,-1,-1,-1,-1,-1,-1,-1,-1,-1,-1,-1,-1,-1,-1],"split_conditions":[2.3E0,1.3333334E0,4.4E0,9E-1,1.85E0,3.6E0,5.8E0,7.785407E1,3E0,2.25E0,3E0,3.05E0,7E0,1E0,7.2E0,-1.988778E-2,-9.953164E-3,-7.937322E-3,4.994562E-3,-5.755824E-3,5.9077913E-5,-1.6729275E-3,6.5646605E-3,3.4335745E-3,7.2351047E-3,1.0712861E-2,2.1738255E-2,1.2311997E-2,1.50618395E-2,1.7000131E-2,2.1806832E-2],"split_indices":[2,3,3,3,3,1,1,23,0,1,0,3,0,40,2,0,0,0,0,0,0,0,0,0,0,0,0,0,0,0,0],"split_type":[0,0,0,0,0,0,0,0,0,0,0,0,0,0,0,0,0,0,0,0,0,0,0,0,0,0,0,0,0,0,0],"sum_hessian":[2.9561434E5,1.8539127E5,1.1022308E5,1.3392628E5,5.1464977E4,4.688503E4,6.3338047E4,4.2761707E4,9.116458E4,3.938532E4,1.2079657E4,2.3453092E4,2.3431941E4,3.3861387E4,2.9476658E4,7.3356244E2,4.2028145E4,9.0905055E4,2.5952423E2,3.786473E4,1.520589E3,1.1141946E4,9.377112E2,1.1976559E4,1.1476532E4,2.2934314E4,4.9762714E2,1.67666E4,1.7094787E4,2.2921152E4,6.5555054E3],"tree_param":{"num_deleted":"0","num_feature":"44","num_nodes":"31","size_leaf_vector":"1"}},{"base_weights":[1.034562E-4,-1.4461784E-1,2.4132438E-1,-1.5224782E-1,9.5206566E-2,1.2771586E-1,2.8286088E-1,-1.7481744E-1,-1.1085349E-1,2.8976273E-2,1.8179077E-1,1.642536E-2,1.8474583E-1,2.4780038E-1,3.4791088E-1,-9.799754E-3,-7.919101E-3,-7.2678565E-3,-4.4841534E-3,1.0511348E-3,2.8749296E-2,7.706569E-3,1.8159043E-2,-4.4559864E-3,3.0093659E-3,9.871199E-3,3.3321742E-3,8.331775E-3,1.30235255E-2,1.5422681E-2,1.9368168E-2],"categories":[],"categories_nodes":[],"categories_segments":[],"categories_sizes":[],"default_left":[0,0,0,0,0,0,0,0,0,0,0,0,0,0,0,0,0,0,0,0,0,0,0,0,0,0,0,0,0,0,0],"id":22,"left_children":[1,3,5,7,9,11,13,15,17,19,21,23,25,27,29,-1,-1,-1,-1,-1,-1,-1,-1,-1,-1,-1,-1,-1,-1,-1,-1],"loss_changes":[1.0307175E4,3.377141E2,5.2240137E2,1.6706738E2,3.2627033E1,1.8813489E2,1.8481348E2,4.0253174E1,4.6087524E1,1.4050827E1,1.2328125E1,4.642733E1,2.9322266E1,5.4126953E1,4.4073975E1,0E0,0E0,0E0,0E0,0E0,0E0,0E0,0E0,0E0,0E0,0E0,0E0,0E0,0E0,0E0,0E0],"parents":[2147483647,0,0,1,1,2,2,3,3,4,4,5,5,6,6,7,7,8,8,9,9,10,10,11,11,12,12,13,13,14,14],"right_children":[2,4,6,8,10,12,14,16,18,20,22,24,26,28,30,-1,-1,-1,-1,-1,-1,-1,-1,-1,-1,-1,-1,-1,-1,-1,-1],"split_conditions":[2.3333333E0,4.8E1,3.75E0,1.2352941E0,6.9E1,5.7E1,5.65E0,3E0,3E0,5.8520645E-1,9.065027E1,4E0,1.3E1,6.6E1,1E0,-9.799754E-3,-7.919101E-3,-7.2678565E-3,-4.4841534E-3,1.0511348E-3,2.8749296E-2,7.706569E-3,1.8159043E-2,-4.4559864E-3,3.0093659E-3,9.871199E-3,3.3321742E-3,8.331775E-3,1.30235255E-2,1.5422681E-2,1.9368168E-2],"split_indices":[1,32,3,3,32,32,3,31,31,15,23,31,31,32,40,0,0,0,0,0,0,0,0,0,0,0,0,0,0,0,0],"split_type":[0,0,0,0,0,0,0,0,0,0,0,0,0,0,0,0,0,0,0,0,0,0,0,0,0,0,0,0,0,0,0],"sum_hessian":[2.9524706E5,1.845348E5,1.1071227E5,1.7884562E5,5.6891704E3,2.964238E4,8.106989E4,1.1573646E5,6.310916E4,3.2248762E3,2.4642942E3,1.0044398E4,1.9597982E4,5.26819E4,2.8387992E4,5.0564836E4,6.5171625E4,2.3993648E4,3.911551E4,3.1797788E3,4.5097343E1,2.140326E3,3.239681E2,2.943044E3,7.1013545E3,1.769674E4,1.9012405E3,7.1163833E3,4.5565516E4,1.4198806E4,1.4189187E4],"tree_param":{"num_deleted":"0","num_feature":"44","num_nodes":"31","size_leaf_vector":"1"}},{"base_weights":[9.37122E-5,-1.393169E-1,2.3576644E-1,-1.5720211E-1,-3.4434874E-2,1.5489163E-1,2.8457308E-1,-1.9508068E-1,-1.436832E-1,-9.531693E-2,4.960743E-2,-4.284275E-2,1.7594942E-1,2.5806907E-1,3.5116872E-1,-1.8904004E-2,-9.600131E-3,-7.7418066E-3,-5.097468E-3,-6.829412E-3,-3.1902082E-3,6.358412E-4,5.5562123E-3,-4.192066E-3,7.568404E-4,7.488583E-3,1.1306837E-2,1.1860264E-2,1.47209335E-2,1.5559747E-2,1.9170767E-2],"categories":[],"categories_nodes":[],"categories_segments":[],"categories_sizes":[],"default_left":[0,0,0,0,0,0,0,0,0,0,0,0,0,1,0,0,0,0,0,0,0,0,0,0,0,0,0,0,0,0,0],"id":23,"left_children":[1,3,5,7,9,11,13,15,17,19,21,23,25,27,29,-1,-1,-1,-1,-1,-1,-1,-1,-1,-1,-1,-1,-1,-1,-1,-1],"loss_changes":[9.709563E3,3.4829663E2,4.335166E2,8.120557E1,1.3845306E2,1.7217578E2,1.20816895E2,2.3445312E1,5.4398193E1,2.0397293E1,2.5792347E1,9.478575E0,4.905664E1,3.7095215E1,2.501123E1,0E0,0E0,0E0,0E0,0E0,0E0,0E0,0E0,0E0,0E0,0E0,0E0,0E0,0E0,0E0,0E0],"parents":[2147483647,0,0,1,1,2,2,3,3,4,4,5,5,6,6,7,7,8,8,9,9,10,10,11,11,12,12,13,13,14,14],"right_children":[2,4,6,8,10,12,14,16,18,20,22,24,26,28,30,-1,-1,-1,-1,-1,-1,-1,-1,-1,-1,-1,-1,-1,-1,-1,-1],"split_conditions":[2.5E0,1.6E0,4.3333335E0,8.888889E-1,5E0,5E0,6.2E0,7.7767685E1,5E0,3E0,2.1176472E0,4E0,4.181818E0,8.934125E1,4.4684523E-1,-1.8904004E-2,-9.600131E-3,-7.7418066E-3,-5.097468E-3,-6.829412E-3,-3.1902082E-3,6.358412E-4,5.5562123E-3,-4.192066E-3,7.568404E-4,7.488583E-3,1.1306837E-2,1.1860264E-2,1.47209335E-2,1.5559747E-2,1.9170767E-2],"split_indices":[2,3,0,3,31,31,2,22,31,31,3,31,3,20,7,0,0,0,0,0,0,0,0,0,0,0,0,0,0,0,0],"split_type":[0,0,0,0,0,0,0,0,0,0,0,0,0,0,0,0,0,0,0,0,0,0,0,0,0,0,0,0,0,0,0],"sum_hessian":[2.9552062E5,1.856818E5,1.09838836E5,1.5862972E5,2.7052088E4,4.134106E4,6.849778E4,4.1718414E4,1.169113E5,1.5688242E4,1.1363847E4,3.9783416E3,3.7362715E4,4.900209E4,1.949569E4,6.875482E2,4.1030867E4,9.225262E4,2.4658682E4,6.7896016E3,8.898641E3,7.1055806E3,4.258266E3,2.331188E3,1.6471534E3,2.4558799E4,1.2803918E4,3.1139215E4,1.7862875E4,8.711019E3,1.078467E4],"tree_param":{"num_deleted":"0","num_feature":"44","num_nodes":"31","size_leaf_vector":"1"}},{"base_weights":[1.205805E-3,-1.3886824E-1,2.2560528E-1,-1.4617746E-1,8.666062E-2,7.759729E-2,2.526312E-1,-1.6463163E-1,-9.600753E-2,9.227706E-3,1.4942278E-1,-4.4435605E-2,1.2787871E-1,2.1445343E-1,3.146569E-1,-9.485538E-3,-7.424099E-3,-6.746442E-3,-3.6993548E-3,-2.519423E-3,3.9440063E-3,9.4948895E-3,1.3524446E-3,-3.978672E-3,1.0112101E-3,2.057256E-3,8.671137E-3,1.1120344E-2,3.8637395E-3,1.4533082E-2,1.8635646E-2],"categories":[],"categories_nodes":[],"categories_segments":[],"categories_sizes":[],"default_left":[0,0,0,0,0,0,0,0,0,0,0,0,0,0,0,0,0,0,0,0,0,0,0,0,0,0,0,0,0,0,0],"id":24,"left_children":[1,3,5,7,9,11,13,15,17,19,21,23,25,27,29,-1,-1,-1,-1,-1,-1,-1,-1,-1,-1,-1,-1,-1,-1,-1,-1],"loss_changes":[9.311359E3,3.006848E2,4.553623E2,1.6353906E2,2.7822441E1,1.0790649E2,2.2789746E2,5.228076E1,4.071103E1,1.0681651E1,1.5646179E1,1.1674348E1,4.9173874E1,6.498901E1,5.0986084E1,0E0,0E0,0E0,0E0,0E0,0E0,0E0,0E0,0E0,0E0,0E0,0E0,0E0,0E0,0E0,0E0],"parents":[2147483647,0,0,1,1,2,2,3,3,4,4,5,5,6,6,7,7,8,8,9,9,10,10,11,11,12,12,13,13,14,14],"right_children":[2,4,6,8,10,12,14,16,18,20,22,24,26,28,30,-1,-1,-1,-1,-1,-1,-1,-1,-1,-1,-1,-1,-1,-1,-1,-1],"split_conditions":[2.3333333E0,4.8E1,5.8E1,1.3333334E0,6.3E1,5E0,5.3E0,9.5E-1,3E0,1.9473684E0,8E0,4E0,3.142857E0,1.9E1,6.75E0,-9.485538E-3,-7.424099E-3,-6.746442E-3,-3.6993548E-3,-2.519423E-3,3.9440063E-3,9.4948895E-3,1.3524446E-3,-3.978672E-3,1.0112101E-3,2.057256E-3,8.671137E-3,1.1120344E-2,3.8637395E-3,1.4533082E-2,1.8635646E-2],"split_indices":[1,32,32,3,32,31,3,3,31,3,31,31,3,31,2,0,0,0,0,0,0,0,0,0,0,0,0,0,0,0,0],"split_type":[0,0,0,0,0,0,0,0,0,0,0,0,0,0,0,0,0,0,0,0,0,0,0,0,0,0,0,0,0,0,0],"sum_hessian":[2.9622847E5,1.8238223E5,1.1384623E5,1.766577E5,5.7245376E3,1.7579465E4,9.6266766E4,1.29148336E5,4.7509367E4,2.5639727E3,3.160565E3,5.129152E3,1.24503125E4,5.9592652E4,3.667411E4,5.058187E4,7.856647E4,1.7163346E4,3.0346021E4,1.3808937E3,1.1830791E3,2.3739988E3,7.8656616E2,3.324077E3,1.8050747E3,4.288132E3,8.1621807E3,5.6325617E4,3.2670378E3,2.5954512E4,1.0719598E4],"tree_param":{"num_deleted":"0","num_feature":"44","num_nodes":"31","size_leaf_vector":"1"}},{"base_weights":[2.874318E-4,-1.3753879E-1,2.1470402E-1,-1.5313041E-1,-4.985354E-2,1.1211753E-1,2.5320527E-1,-1.8180762E-1,-1.352934E-1,-9.212601E-2,2.1694362E-2,-4.8839327E-2,1.3934872E-1,2.2332594E-1,3.0770522E-1,-1.8924788E-2,-8.96998E-3,-8.236296E-3,-5.6869215E-3,-6.34254E-3,-3.1905267E-3,-1.6138249E-4,5.746761E-3,-5.9430255E-3,-1.0074663E-3,5.6138635E-3,9.021241E-3,1.1502272E-2,5.3645065E-3,1.43679E-2,1.8446082E-2],"categories":[],"categories_nodes":[],"categories_segments":[],"categories_sizes":[],"default_left":[0,0,0,0,0,0,0,0,0,0,0,0,0,0,1,0,0,0,0,0,0,0,0,0,0,0,0,0,0,0,0],"id":25,"left_children":[1,3,5,7,9,11,13,15,17,19,21,23,25,27,29,-1,-1,-1,-1,-1,-1,-1,-1,-1,-1,-1,-1,-1,-1,-1,-1],"loss_changes":[8.745846E3,2.4627222E2,4.5733105E2,7.8211426E1,8.2284966E1,1.3854532E2,1.370415E2,2.7727905E1,5.980896E1,1.680452E1,2.350417E1,9.188714E0,3.003833E1,4.2369385E1,3.7029785E1,0E0,0E0,0E0,0E0,0E0,0E0,0E0,0E0,0E0,0E0,0E0,0E0,0E0,0E0,0E0,0E0],"parents":[2147483647,0,0,1,1,2,2,3,3,4,4,5,5,6,6,7,7,8,8,9,9,10,10,11,11,12,12,13,13,14,14],"right_children":[2,4,6,8,10,12,14,16,18,20,22,24,26,28,30,-1,-1,-1,-1,-1,-1,-1,-1,-1,-1,-1,-1,-1,-1,-1,-1],"split_conditions":[2.25E0,1.5454545E0,3.8E0,1E0,5E0,5E0,5.65E0,7.785407E1,3E0,3E0,2.2E0,3E0,3.35E0,1.7E1,9.125521E1,-1.8924788E-2,-8.96998E-3,-8.236296E-3,-5.6869215E-3,-6.34254E-3,-3.1905267E-3,-1.6138249E-4,5.746761E-3,-5.9430255E-3,-1.0074663E-3,5.6138635E-3,9.021241E-3,1.1502272E-2,5.3645065E-3,1.43679E-2,1.8446082E-2],"split_indices":[2,3,2,3,31,31,3,23,31,31,3,31,3,31,23,0,0,0,0,0,0,0,0,0,0,0,0,0,0,0,0],"split_type":[0,0,0,0,0,0,0,0,0,0,0,0,0,0,0,0,0,0,0,0,0,0,0,0,0,0,0,0,0,0,0],"sum_hessian":[2.9594075E5,1.8014445E5,1.1579632E5,1.5294658E5,2.7197863E4,3.1601277E4,8.419504E4,5.8645457E4,9.4301125E4,1.7097375E4,1.0100489E4,4.572121E3,2.7029156E4,5.438542E4,2.9809617E4,7.069083E2,5.7938547E4,3.986105E4,5.444008E4,7.6763916E3,9.420983E3,7.9700864E3,2.1304028E3,1.3269419E3,3.2451792E3,1.6295611E4,1.0733546E4,5.1406676E4,2.9787478E3,2.2378676E4,7.4309414E3],"tree_param":{"num_deleted":"0","num_feature":"44","num_nodes":"31","size_leaf_vector":"1"}},{"base_weights":[-5.720128E-4,-1.3567612E-1,2.082909E-1,-1.4318399E-1,8.915685E-2,1.3081127E-1,2.531809E-1,-1.6114722E-1,-9.4321065E-2,-8.5530594E-2,1.1650725E-1,2.8438149E-2,1.7247175E-1,1.9402881E-1,2.7276984E-1,-9.62465E-3,-7.522048E-3,-5.9275883E-3,-2.9834097E-3,4.4116727E-3,-6.959658E-3,5.4024155E-3,2.4106963E-2,-3.762231E-3,3.192052E-3,9.070582E-3,3.7959453E-3,-2.1048076E-3,1.0130565E-2,1.2427126E-2,1.5989086E-2],"categories":[],"categories_nodes":[],"categories_segments":[],"categories_sizes":[],"default_left":[0,0,0,0,0,0,0,0,0,0,0,0,0,0,0,0,0,0,0,0,0,0,0,0,0,0,0,0,0,0,0],"id":26,"left_children":[1,3,5,7,9,11,13,15,17,19,21,23,25,27,29,-1,-1,-1,-1,-1,-1,-1,-1,-1,-1,-1,-1,-1,-1,-1,-1],"loss_changes":[8.336171E3,3.0283765E2,4.0353516E2,1.5234448E2,2.7731144E1,1.815404E2,8.507129E1,4.2567383E1,3.917462E1,7.3637443E0,1.5487938E1,4.5228218E1,2.6092834E1,3.708264E1,6.2776855E1,0E0,0E0,0E0,0E0,0E0,0E0,0E0,0E0,0E0,0E0,0E0,0E0,0E0,0E0,0E0,0E0],"parents":[2147483647,0,0,1,1,2,2,3,3,4,4,5,5,6,6,7,7,8,8,9,9,10,10,11,11,12,12,13,13,14,14],"right_children":[2,4,6,8,10,12,14,16,18,20,22,24,26,28,30,-1,-1,-1,-1,-1,-1,-1,-1,-1,-1,-1,-1,-1,-1,-1,-1],"split_conditions":[2.25E0,4.8E1,4.181818E0,1.3333334E0,5E0,5.8E1,8.2E1,8.333333E-1,4E0,5E1,5.773557E-1,4E0,1.3E1,5E0,5.95E0,-9.62465E-3,-7.522048E-3,-5.9275883E-3,-2.9834097E-3,4.4116727E-3,-6.959658E-3,5.4024155E-3,2.4106963E-2,-3.762231E-3,3.192052E-3,9.070582E-3,3.7959453E-3,-2.1048076E-3,1.0130565E-2,1.2427126E-2,1.5989086E-2],"split_indices":[1,32,3,3,31,32,32,3,31,32,14,31,31,31,3,0,0,0,0,0,0,0,0,0,0,0,0,0,0,0,0],"split_type":[0,0,0,0,0,0,0,0,0,0,0,0,0,0,0,0,0,0,0,0,0,0,0,0,0,0,0,0,0,0,0],"sum_hessian":[2.9541366E5,1.7938095E5,1.160327E5,1.735852E5,5.7957427E3,4.2567605E4,7.34651E4,1.2692137E5,4.666384E4,7.8380206E2,5.0119404E3,1.2313491E4,3.0254113E4,1.8280406E4,5.518469E4,3.2306941E4,9.461443E4,2.7458459E4,1.920538E4,1.8435074E2,5.9945135E2,4.900144E3,1.1179638E2,3.1332727E3,9.180218E3,2.76885E4,2.5656128E3,6.40592E2,1.7639814E4,3.6422812E4,1.8761879E4],"tree_param":{"num_deleted":"0","num_feature":"44","num_nodes":"31","size_leaf_vector":"1"}},{"base_weights":[1.0431695E-3,-1.321465E-1,2.0359392E-1,-1.3970259E-1,9.703704E-2,8.6250186E-2,2.3020902E-1,-1.6414124E-1,-1.0504458E-1,-6.979355E-2,1.2057141E-1,-9.17335E-2,1.1912428E-1,1.9686987E-1,2.8142378E-1,-9.320716E-3,-7.346505E-3,-6.817886E-3,-4.2710286E-3,3.53742E-3,-6.481158E-3,8.158025E-3,1.5028825E-3,2.0272905E-2,-4.8119384E-3,4.333604E-3,1.0160038E-2,1.0239193E-2,3.0013788E-3,1.4418298E-2,6.2160664E-3],"categories":[],"categories_nodes":[],"categories_segments":[],"categories_sizes":[],"default_left":[0,0,0,0,0,0,0,0,0,0,0,0,0,0,0,0,0,0,0,0,0,0,0,0,0,0,0,0,0,0,0],"id":27,"left_children":[1,3,5,7,9,11,13,15,17,19,21,23,25,27,29,-1,-1,-1,-1,-1,-1,-1,-1,-1,-1,-1,-1,-1,-1,-1,-1],"loss_changes":[7.980414E3,3.090874E2,3.6646973E2,1.4631494E2,2.239692E1,1.26995056E2,1.6327148E2,3.88125E1,4.3894897E1,5.9634705E0,1.9237404E1,7.667862E0,4.9962433E1,6.2724854E1,4.1078857E1,0E0,0E0,0E0,0E0,0E0,0E0,0E0,0E0,0E0,0E0,0E0,0E0,0E0,0E0,0E0,0E0],"parents":[2147483647,0,0,1,1,2,2,3,3,4,4,5,5,6,6,7,7,8,8,9,9,10,10,11,11,12,12,13,13,14,14],"right_children":[2,4,6,8,10,12,14,16,18,20,22,24,26,28,30,-1,-1,-1,-1,-1,-1,-1,-1,-1,-1,-1,-1,-1,-1,-1,-1],"split_conditions":[2.25E0,4.8E1,6.6E1,1.1578947E0,5E0,4E0,5.3E0,3E0,3E0,5.1E1,8E0,1.5E0,4.3333335E0,1.7E1,1.2E1,-9.320716E-3,-7.346505E-3,-6.817886E-3,-4.2710286E-3,3.53742E-3,-6.481158E-3,8.158025E-3,1.5028825E-3,2.0272905E-2,-4.8119384E-3,4.333604E-3,1.0160038E-2,1.0239193E-2,3.0013788E-3,1.4418298E-2,6.2160664E-3],"split_indices":[1,32,32,3,31,31,3,31,31,32,31,2,0,31,31,0,0,0,0,0,0,0,0,0,0,0,0,0,0,0,0],"split_type":[0,0,0,0,0,0,0,0,0,0,0,0,0,0,0,0,0,0,0,0,0,0,0,0,0,0,0,0,0,0,0],"sum_hessian":[2.9581084E5,1.7846131E5,1.1734952E5,1.7276611E5,5.6952085E3,2.1697055E4,9.565247E4,1.01317086E5,7.144903E4,7.033168E2,4.9918916E3,3.3819578E3,1.8315098E4,5.7941312E4,3.7711152E4,4.415721E4,5.715987E4,2.7522146E4,4.3926883E4,2.0945213E2,4.9386462E2,3.3933323E3,1.5985592E3,2.9371693E1,3.3525862E3,1.3216829E4,5.0982676E3,5.4772434E4,3.1688809E3,3.6113848E4,1.5973025E3],"tree_param":{"num_deleted":"0","num_feature":"44","num_nodes":"31","size_leaf_vector":"1"}},{"base_weights":[7.835979E-4,-1.2204031E-1,2.0893937E-1,-1.3910444E-1,4.282174E-2,1.772712E-1,2.809769E-1,-1.6594347E-1,-1.1383855E-1,-7.376844E-2,8.0072895E-2,-6.7058325E-2,1.8250231E-1,2.6368773E-1,3.5914335E-1,-1.8228544E-2,-8.201529E-3,-7.1079317E-3,-4.723877E-3,-5.610637E-3,-1.982689E-3,5.702224E-4,6.839973E-3,-3.7666056E-3,1.1475907E-2,9.632638E-3,3.462355E-3,1.235144E-2,1.5173866E-2,1.5126993E-2,2.071223E-2],"categories":[],"categories_nodes":[],"categories_segments":[],"categories_sizes":[],"default_left":[0,0,0,0,0,0,0,0,0,0,0,0,0,0,0,0,0,0,0,0,0,0,0,0,0,0,0,0,0,0,0],"id":28,"left_children":[1,3,5,7,9,11,13,15,17,19,21,23,25,27,29,-1,-1,-1,-1,-1,-1,-1,-1,-1,-1,-1,-1,-1,-1,-1,-1],"loss_changes":[7.5506797E3,5.2254614E2,2.4997363E2,1.1411841E2,7.569333E1,9.734448E1,4.5135986E1,3.096875E1,4.7527466E1,5.528429E0,5.143248E1,3.9661198E0,8.566406E1,1.8094727E1,1.8766663E1,0E0,0E0,0E0,0E0,0E0,0E0,0E0,0E0,0E0,0E0,0E0,0E0,0E0,0E0,0E0,0E0],"parents":[2147483647,0,0,1,1,2,2,3,3,4,4,5,5,6,6,7,7,8,8,9,9,10,10,11,11,12,12,13,13,14,14],"right_children":[2,4,6,8,10,12,14,16,18,20,22,24,26,28,30,-1,-1,-1,-1,-1,-1,-1,-1,-1,-1,-1,-1,-1,-1,-1,-1],"split_conditions":[4.8E1,2.1E0,5.75E0,1.1E0,4E0,5E0,9.155884E1,7.772349E1,3E0,3E0,3.3E0,9.7E1,1.3E1,1.0823238E0,1E0,-1.8228544E-2,-8.201529E-3,-7.1079317E-3,-4.723877E-3,-5.610637E-3,-1.982689E-3,5.702224E-4,6.839973E-3,-3.7666056E-3,1.1475907E-2,9.632638E-3,3.462355E-3,1.235144E-2,1.5173866E-2,1.5126993E-2,2.071223E-2],"split_indices":[32,2,1,3,31,31,23,21,31,31,3,32,31,11,40,0,0,0,0,0,0,0,0,0,0,0,0,0,0,0,0],"split_type":[0,0,0,0,0,0,0,0,0,0,0,0,0,0,0,0,0,0,0,0,0,0,0,0,0,0,0,0,0,0,0],"sum_hessian":[2.9532988E5,1.8573528E5,1.0959459E5,1.6831456E5,1.7420717E4,7.613152E4,3.346307E4,8.161177E4,8.67028E4,4.2173667E3,1.320335E4,1.5951665E3,7.453636E4,2.7406781E4,6.05629E3,7.761618E2,8.083561E4,3.520119E4,5.15016E4,1.980402E3,2.2369646E3,5.9743105E3,7.229039E3,1.5529266E3,4.2239822E1,6.840409E4,6.132259E3,1.9325418E4,8.0813633E3,2.9915183E3,3.0647717E3],"tree_param":{"num_deleted":"0","num_feature":"44","num_nodes":"31","size_leaf_vector":"1"}},{"base_weights":[5.72387E-4,-1.263251E-1,1.892579E-1,-1.3377437E-1,8.241098E-2,1.2119095E-1,2.3084699E-1,-1.5276262E-1,-9.802206E-2,-9.546962E-2,1.0707604E-1,2.3985265E-2,1.5425138E-1,1.9909082E-1,2.670712E-1,-8.708886E-3,-6.8199285E-3,-6.608721E-3,-3.8583372E-3,-5.6636254E-3,1.1035E-2,7.213201E-3,1.391403E-3,-3.905148E-3,3.0262E-3,8.166868E-3,3.0551394E-3,-1.7472365E-3,1.0118827E-2,1.2508717E-2,1.6237427E-2],"categories":[],"categories_nodes":[],"categories_segments":[],"categories_sizes":[],"default_left":[0,0,0,0,0,0,0,0,0,0,0,0,0,0,1,0,0,0,0,0,0,0,0,0,0,0,0,0,0,0,0],"id":29,"left_children":[1,3,5,7,9,11,13,15,17,19,21,23,25,27,29,-1,-1,-1,-1,-1,-1,-1,-1,-1,-1,-1,-1,-1,-1,-1,-1],"loss_changes":[7.0802925E3,2.749441E2,3.3656738E2,1.1587256E2,2.676482E1,1.449245E2,8.484863E1,3.9046875E1,4.2170532E1,4.238038E0,1.5762539E1,4.2728252E1,2.8463379E1,3.027771E1,3.3519043E1,0E0,0E0,0E0,0E0,0E0,0E0,0E0,0E0,0E0,0E0,0E0,0E0,0E0,0E0,0E0,0E0],"parents":[2147483647,0,0,1,1,2,2,3,3,4,4,5,5,6,6,7,7,8,8,9,9,10,10,11,11,12,12,13,13,14,14],"right_children":[2,4,6,8,10,12,14,16,18,20,22,24,26,28,30,-1,-1,-1,-1,-1,-1,-1,-1,-1,-1,-1,-1,-1,-1,-1,-1],"split_conditions":[2.3333333E0,4.8E1,4.3E0,1.25E0,5E0,5.3E1,5.75E0,3E0,3E0,2.858364E-1,8E0,4E0,1.3E1,5E0,9.113271E1,-8.708886E-3,-6.8199285E-3,-6.608721E-3,-3.8583372E-3,-5.6636254E-3,1.1035E-2,7.213201E-3,1.391403E-3,-3.905148E-3,3.0262E-3,8.166868E-3,3.0551394E-3,-1.7472365E-3,1.0118827E-2,1.2508717E-2,1.6237427E-2],"split_indices":[1,32,2,2,31,32,1,31,31,17,31,31,31,31,23,0,0,0,0,0,0,0,0,0,0,0,0,0,0,0,0],"split_type":[0,0,0,0,0,0,0,0,0,0,0,0,0,0,0,0,0,0,0,0,0,0,0,0,0,0,0,0,0,0,0],"sum_hessian":[2.9570075E5,1.7679789E5,1.1890284E5,1.7070664E5,6.091261E3,4.5098492E4,7.380435E4,1.1148844E5,5.92182E4,7.4092206E2,5.3503394E3,1.1446816E4,3.3651676E4,3.9332527E4,3.4471824E4,4.8284453E4,6.3203984E4,2.2447826E4,3.677037E4,7.0233307E2,3.8588966E1,3.6401E3,1.7102389E3,3.0160845E3,8.430732E3,3.0659254E4,2.9924233E3,5.440054E2,3.8788523E4,2.6666746E4,7.805079E3],"tree_param":{"num_deleted":"0","num_feature":"44","num_nodes":"31","size_leaf_vector":"1"}},{"base_weights":[7.806379E-5,-1.24885365E-1,1.8251753E-1,-1.434823E-1,-4.8283037E-2,8.18563E-2,2.0829721E-1,-1.7768072E-1,-1.3018182E-1,-8.181937E-2,-3.669369E-3,6.12222E-2,1.3923272E-1,1.8279961E-1,2.5276914E-1,-1.897458E-2,-8.715948E-3,-6.951365E-3,-5.8411523E-3,-4.9890573E-3,-3.2275475E-3,-1.1963444E-3,3.531196E-3,4.035483E-3,-8.1877684E-4,6.5943906E-3,2.2065844E-2,6.52644E-3,9.5621E-3,1.102212E-2,1.4267477E-2],"categories":[],"categories_nodes":[],"categories_segments":[],"categories_sizes":[],"default_left":[0,0,0,0,0,0,0,0,0,0,0,0,0,1,0,0,0,0,0,0,0,0,0,0,0,0,0,0,0,0,0],"id":30,"left_children":[1,3,5,7,9,11,13,15,17,19,21,23,25,27,29,-1,-1,-1,-1,-1,-1,-1,-1,-1,-1,-1,-1,-1,-1,-1,-1],"loss_changes":[6.7325864E3,2.4965894E2,3.114995E2,6.4123535E1,5.122686E1,2.897557E1,1.08325195E2,2.6741089E1,1.1981934E1,6.055908E0,2.2131739E1,2.7244698E1,1.4332573E1,2.6778198E1,3.661255E1,0E0,0E0,0E0,0E0,0E0,0E0,0E0,0E0,0E0,0E0,0E0,0E0,0E0,0E0,0E0,0E0],"parents":[2147483647,0,0,1,1,2,2,3,3,4,4,5,5,6,6,7,7,8,8,9,9,10,10,11,11,12,12,13,13,14,14],"right_children":[2,4,6,8,10,12,14,16,18,20,22,24,26,28,30,-1,-1,-1,-1,-1,-1,-1,-1,-1,-1,-1,-1,-1,-1,-1,-1],"split_conditions":[2.3333333E0,1.5E0,3.5E0,8.888889E-1,1.85E0,4E0,5.75E0,7.785407E1,1.1818181E0,1E0,2.3333333E0,2.3676768E-1,7E0,8.6244125E1,1E0,-1.897458E-2,-8.715948E-3,-6.951365E-3,-5.8411523E-3,-4.9890573E-3,-3.2275475E-3,-1.1963444E-3,3.531196E-3,4.035483E-3,-8.1877684E-4,6.5943906E-3,2.2065844E-2,6.52644E-3,9.5621E-3,1.102212E-2,1.4267477E-2],"split_indices":[1,3,3,3,3,0,1,23,3,40,0,17,0,23,40,0,0,0,0,0,0,0,0,0,0,0,0,0,0,0,0],"split_type":[0,0,0,0,0,0,0,0,0,0,0,0,0,0,0,0,0,0,0,0,0,0,0,0,0,0,0,0,0,0,0],"sum_hessian":[2.9530644E5,1.7526025E5,1.200462E5,1.4102186E5,3.423839E4,2.4477523E4,9.556868E4,3.9482895E4,1.0153896E5,1.954399E4,1.4694399E4,1.8005922E4,6.471601E3,6.074718E4,3.48215E4,6.446076E2,3.883829E4,6.107887E4,4.0460094E4,9.574496E3,9.969495E3,1.1547713E4,3.146686E3,1.4392676E4,3.6132466E3,6.3197104E3,1.5189076E2,8.451045E3,5.2296133E4,1.7484232E4,1.733727E4],"tree_param":{"num_deleted":"0","num_feature":"44","num_nodes":"31","size_leaf_vector":"1"}},{"base_weights":[-3.4260214E-4,-1.16126426E-1,1.8718623E-1,-1.321962E-1,4.2165317E-2,1.15588054E-1,2.10751E-1,-1.5036322E-1,-9.8181635E-2,-7.051439E-2,7.568301E-2,-9.8207556E-2,1.2645416E-1,1.9375123E-1,2.5888303E-1,-8.653298E-3,-6.644338E-3,-6.226826E-3,-4.0794597E-3,-7.196799E-3,-1.9110937E-3,8.9933834E-4,6.5164114E-3,-5.328748E-3,1.4597072E-2,6.816832E-3,1.1776917E-3,8.4460275E-3,1.0587313E-2,1.1362321E-2,1.447768E-2],"categories":[],"categories_nodes":[],"categories_segments":[],"categories_sizes":[],"default_left":[0,0,0,0,0,0,0,0,0,0,0,0,0,0,0,0,0,0,0,0,0,0,0,0,0,0,0,0,0,0,0],"id":31,"left_children":[1,3,5,7,9,11,13,15,17,19,21,23,25,27,29,-1,-1,-1,-1,-1,-1,-1,-1,-1,-1,-1,-1,-1,-1,-1,-1],"loss_changes":[6.41953E3,4.6500122E2,1.903872E2,1.0253003E2,6.365426E1,6.4968994E1,6.942993E1,4.2895508E1,2.5257324E1,9.155907E0,4.0939476E1,4.486208E0,2.7036621E1,2.8003906E1,2.1433838E1,0E0,0E0,0E0,0E0,0E0,0E0,0E0,0E0,0E0,0E0,0E0,0E0,0E0,0E0,0E0,0E0],"parents":[2147483647,0,0,1,1,2,2,3,3,4,4,5,5,6,6,7,7,8,8,9,9,10,10,11,11,12,12,13,13,14,14],"right_children":[2,4,6,8,10,12,14,16,18,20,22,24,26,28,30,-1,-1,-1,-1,-1,-1,-1,-1,-1,-1,-1,-1,-1,-1,-1,-1],"split_conditions":[4.8E1,2.25E0,3.8E0,1.2352941E0,4E0,5E0,6E0,3E0,3E0,3.9620098E-1,3.3E0,9.6E1,2.5E1,8.809786E1,1E0,-8.653298E-3,-6.644338E-3,-6.226826E-3,-4.0794597E-3,-7.196799E-3,-1.9110937E-3,8.9933834E-4,6.5164114E-3,-5.328748E-3,1.4597072E-2,6.816832E-3,1.1776917E-3,8.4460275E-3,1.0587313E-2,1.1362321E-2,1.447768E-2],"split_indices":[32,3,2,3,31,31,3,31,31,7,2,32,31,21,40,0,0,0,0,0,0,0,0,0,0,0,0,0,0,0,0],"split_type":[0,0,0,0,0,0,0,0,0,0,0,0,0,0,0,0,0,0,0,0,0,0,0,0,0,0,0,0,0,0,0],"sum_hessian":[2.956519E5,1.8279298E5,1.12858914E5,1.6594688E5,1.6846121E4,2.7949248E4,8.4909664E4,1.0816829E5,5.777858E4,3.8612598E3,1.298486E4,1.3509746E3,2.6598273E4,6.2753023E4,2.215664E4,4.7042855E4,6.1125438E4,2.2317568E4,3.546101E4,1.1774982E3,2.6837617E3,6.3176416E3,6.6672188E3,1.3235715E3,2.7403076E1,2.4266441E4,2.3318308E3,2.6375021E4,3.6378004E4,1.0912305E4,1.1244336E4],"tree_param":{"num_deleted":"0","num_feature":"44","num_nodes":"31","size_leaf_vector":"1"}},{"base_weights":[4.885548E-4,-1.2319482E-1,1.6397804E-1,-1.4168857E-1,-7.348287E-2,1.0052609E-1,2.0276752E-1,-1.75909E-1,-1.3019033E-1,-9.099209E-2,-3.2205183E-2,4.5071043E-2,1.281355E-1,1.7965823E-1,2.3580652E-1,-1.8968342E-2,-8.580479E-3,-3.7178409E-3,-6.638062E-3,-5.1256837E-3,-3.5271395E-3,-2.0511716E-3,7.297959E-3,-1.9576948E-3,3.0165818E-3,4.6858448E-3,7.3196166E-3,8.018573E-3,1.0358023E-2,1.0385864E-2,1.318973E-2],"categories":[],"categories_nodes":[],"categories_segments":[],"categories_sizes":[],"default_left":[0,0,0,0,0,0,0,0,0,0,0,0,0,1,0,0,0,0,0,0,0,0,0,0,0,0,0,0,0,0,0],"id":32,"left_children":[1,3,5,7,9,11,13,15,17,19,21,23,25,27,29,-1,-1,-1,-1,-1,-1,-1,-1,-1,-1,-1,-1,-1,-1,-1,-1],"loss_changes":[5.972034E3,1.545647E2,3.1304907E2,4.8197266E1,3.294673E1,7.388342E1,6.0229248E1,2.6910156E1,1.31521E1,7.534027E0,2.1366394E1,2.0637226E1,2.0229797E1,2.4609375E1,2.5483276E1,0E0,0E0,0E0,0E0,0E0,0E0,0E0,0E0,0E0,0E0,0E0,0E0,0E0,0E0,0E0,0E0],"parents":[2147483647,0,0,1,1,2,2,3,3,4,4,5,5,6,6,7,7,8,8,9,9,10,10,11,11,12,12,13,13,14,14],"right_children":[2,4,6,8,10,12,14,16,18,20,22,24,26,28,30,-1,-1,-1,-1,-1,-1,-1,-1,-1,-1,-1,-1,-1,-1,-1,-1],"split_conditions":[2.1E0,1.3333334E0,4.181818E0,8.333333E-1,2E0,3E0,5.65E0,7.785407E1,9.595675E-2,1.6E0,2.3333333E0,2.2E0,3.2E0,8.8999504E1,1E0,-1.8968342E-2,-8.580479E-3,-3.7178409E-3,-6.638062E-3,-5.1256837E-3,-3.5271395E-3,-2.0511716E-3,7.297959E-3,-1.9576948E-3,3.0165818E-3,4.6858448E-3,7.3196166E-3,8.018573E-3,1.0358023E-2,1.0385864E-2,1.318973E-2],"split_indices":[2,3,3,3,0,0,3,23,19,3,3,3,3,22,40,0,0,0,0,0,0,0,0,0,0,0,0,0,0,0,0],"split_type":[0,0,0,0,0,0,0,0,0,0,0,0,0,0,0,0,0,0,0,0,0,0,0,0,0,0,0,0,0,0,0],"sum_hessian":[2.953342E5,1.6813556E5,1.271986E5,1.2254337E5,4.5592207E4,4.826034E4,7.8938266E4,3.081386E4,9.17295E4,3.2010375E4,1.358183E4,1.6043114E4,3.2217227E4,4.6454742E4,3.248352E4,6.353894E2,3.017847E4,4.0408792E3,8.7688625E4,2.0468873E4,1.1541502E4,1.2942569E4,6.3926166E2,2.4596892E3,1.3583426E4,1.1170222E4,2.1047004E4,2.7311902E4,1.914284E4,1.6218444E4,1.6265075E4],"tree_param":{"num_deleted":"0","num_feature":"44","num_nodes":"31","size_leaf_vector":"1"}},{"base_weights":[-1.1923648E-3,-1.216199E-1,1.630724E-1,-1.278062E-1,8.660442E-2,7.433579E-2,1.8797591E-1,-1.4733401E-1,-9.250853E-2,-9.816288E-2,1.1071308E-1,-4.4950403E-2,1.026429E-1,1.5765503E-1,2.1908206E-1,-8.498643E-3,-6.509463E-3,-6.130342E-3,-3.7111626E-3,2.9498173E-4,-9.32247E-3,1.9438437E-3,7.810933E-3,-2.359304E-3,3.5E-2,2.7172505E-3,7.0065046E-3,6.8446E-3,9.517551E-3,1.1285345E-2,5.6932606E-3],"categories":[],"categories_nodes":[],"categories_segments":[],"categories_sizes":[],"default_left":[0,0,0,0,0,0,0,0,0,0,0,0,0,0,0,0,0,0,0,0,0,0,0,0,0,0,0,0,0,0,0],"id":33,"left_children":[1,3,5,7,9,11,13,15,17,19,21,23,25,27,29,-1,-1,-1,-1,-1,-1,-1,-1,-1,-1,-1,-1,-1,-1,-1,-1],"loss_changes":[5.8545586E3,2.1999805E2,2.7663037E2,1.1429297E2,2.1984024E1,9.2670334E1,9.2163086E1,4.141797E1,3.2502563E1,5.263135E0,1.4241631E1,9.318617E0,4.014183E1,3.358374E1,3.3595947E1,0E0,0E0,0E0,0E0,0E0,0E0,0E0,0E0,0E0,0E0,0E0,0E0,0E0,0E0,0E0,0E0],"parents":[2147483647,0,0,1,1,2,2,3,3,4,4,5,5,6,6,7,7,8,8,9,9,10,10,11,11,12,12,13,13,14,14],"right_children":[2,4,6,8,10,12,14,16,18,20,22,24,26,28,30,-1,-1,-1,-1,-1,-1,-1,-1,-1,-1,-1,-1,-1,-1,-1,-1],"split_conditions":[2.25E0,5E1,7.1E1,1.2352941E0,5E0,5E0,5E0,3E0,3E0,1.7413856E-1,6.5E1,6.3E0,3.75E0,8.876436E1,1E1,-8.498643E-3,-6.509463E-3,-6.130342E-3,-3.7111626E-3,2.9498173E-4,-9.32247E-3,1.9438437E-3,7.810933E-3,-2.359304E-3,3.5E-2,2.7172505E-3,7.0065046E-3,6.8446E-3,9.517551E-3,1.1285345E-2,5.6932606E-3],"split_indices":[2,32,32,3,31,31,3,31,31,17,32,2,3,20,31,0,0,0,0,0,0,0,0,0,0,0,0,0,0,0,0],"split_type":[0,0,0,0,0,0,0,0,0,0,0,0,0,0,0,0,0,0,0,0,0,0,0,0,0,0,0,0,0,0,0],"sum_hessian":[2.9594912E5,1.7076034E5,1.25188766E5,1.6583431E5,4.9260356E3,2.743606E4,9.77527E4,1.06763375E5,5.9070934E4,5.677345E2,4.3583013E3,5.2612075E3,2.2174854E4,4.950588E4,4.824683E4,4.600336E4,6.0760016E4,2.2320062E4,3.675087E4,2.6049356E2,3.0724094E2,1.6917369E3,2.6665642E3,5.2473325E3,1.3874971E1,9.692416E3,1.24824375E4,3.0283268E4,1.9222611E4,4.5386996E4,2.8598323E3],"tree_param":{"num_deleted":"0","num_feature":"44","num_nodes":"31","size_leaf_vector":"1"}},{"base_weights":[3.2729768E-5,-1.19920574E-1,1.5430519E-1,-1.3275933E-1,-5.779814E-2,-4.2464215E-2,1.6631441E-1,-1.7069578E-1,-1.22012176E-1,-8.886775E-2,2.0211218E-3,-1.09255955E-1,-1.6458716E-2,1.2354737E-1,1.9969772E-1,-1.8436214E-2,-8.338004E-3,-6.472456E-3,-3.6963187E-3,-7.5496756E-3,-4.0091123E-3,-2.7640183E-3,1.6699238E-3,-1.12904245E-2,-3.938261E-3,-3.4712878E-4,-1.0513265E-2,3.9470433E-3,7.078286E-3,4.603627E-3,1.0315309E-2],"categories":[],"categories_nodes":[],"categories_segments":[],"categories_sizes":[],"default_left":[0,0,0,0,0,0,0,0,0,1,0,0,0,0,1,0,0,0,0,0,0,0,0,0,0,0,0,0,0,0,0],"id":34,"left_children":[1,3,5,7,9,11,13,15,17,19,21,23,25,27,29,-1,-1,-1,-1,-1,-1,-1,-1,-1,-1,-1,-1,-1,-1,-1,-1],"loss_changes":[5.468403E3,1.3257642E2,3.0547534E2,5.6149902E1,5.2938545E1,1.291731E1,1.7390356E2,2.3657288E1,3.8379272E1,1.0106506E1,1.7518282E1,7.3913975E0,9.891298E0,4.2913696E1,4.8630127E1,0E0,0E0,0E0,0E0,0E0,0E0,0E0,0E0,0E0,0E0,0E0,0E0,0E0,0E0,0E0,0E0],"parents":[2147483647,0,0,1,1,2,2,3,3,4,4,5,5,6,6,7,7,8,8,9,9,10,10,11,11,12,12,13,13,14,14],"right_children":[2,4,6,8,10,12,14,16,18,20,22,24,26,28,30,-1,-1,-1,-1,-1,-1,-1,-1,-1,-1,-1,-1,-1,-1,-1,-1],"split_conditions":[2.1E0,1.5E0,5E0,8.333333E-1,5E0,3E0,4.6666665E0,7.753226E1,6E0,8.6485214E1,1.6666666E0,2.828845E-1,7.777778E-1,3.2E0,8.55509E1,-1.8436214E-2,-8.338004E-3,-6.472456E-3,-3.6963187E-3,-7.5496756E-3,-4.0091123E-3,-2.7640183E-3,1.6699238E-3,-1.12904245E-2,-3.938261E-3,-3.4712878E-4,-1.0513265E-2,3.9470433E-3,7.078286E-3,4.603627E-3,1.0315309E-2],"split_indices":[2,3,31,3,31,31,0,20,31,21,3,10,4,3,21,0,0,0,0,0,0,0,0,0,0,0,0,0,0,0,0],"split_type":[0,0,0,0,0,0,0,0,0,0,0,0,0,0,0,0,0,0,0,0,0,0,0,0,0,0,0,0,0,0,0],"sum_hessian":[2.954965E5,1.6623861E5,1.2925791E5,1.377643E5,2.84743E4,7.434454E3,1.2182345E5,3.040684E4,1.0735746E5,1.8741377E4,9.732923E3,2.0814565E3,5.3529976E3,5.3409176E4,6.841428E4,5.902403E2,2.98166E4,9.29743E4,1.4383167E4,2.2953408E3,1.6446037E4,3.4424163E3,6.290507E3,4.296003E2,1.6518563E3,5.1039395E3,2.4905792E2,1.5369972E4,3.8039207E4,3.9595293E3,6.445475E4],"tree_param":{"num_deleted":"0","num_feature":"44","num_nodes":"31","size_leaf_vector":"1"}},{"base_weights":[1.7509727E-4,-1.1635535E-1,1.5206966E-1,-1.2154269E-1,1.1342351E-1,6.954769E-2,1.758006E-1,-1.3702849E-1,-7.923666E-2,-7.407683E-2,1.3387959E-1,-3.630856E-2,9.670669E-2,1.4563122E-1,2.06576E-1,-8.446723E-3,-6.3126357E-3,-5.5995476E-3,-3.0641886E-3,6.3970084E-3,-6.293724E-3,9.232876E-3,2.480937E-3,-3.6110661E-3,9.67561E-4,2.351066E-3,6.3705477E-3,7.5764097E-3,1.5937167E-3,1.0636288E-2,4.3437215E-3],"categories":[],"categories_nodes":[],"categories_segments":[],"categories_sizes":[],"default_left":[0,0,0,0,0,0,0,0,0,0,0,0,0,0,0,0,0,0,0,0,0,0,0,0,0,0,0,0,0,0,0],"id":35,"left_children":[1,3,5,7,9,11,13,15,17,19,21,23,25,27,29,-1,-1,-1,-1,-1,-1,-1,-1,-1,-1,-1,-1,-1,-1,-1,-1],"loss_changes":[5.2338286E3,1.9947583E2,2.5136426E2,1.0718628E2,1.4203369E1,8.245398E1,9.253418E1,4.1162598E1,2.5779694E1,3.8558764E0,1.4241642E1,1.1719874E1,3.4803864E1,3.3759033E1,3.629712E1,0E0,0E0,0E0,0E0,0E0,0E0,0E0,0E0,0E0,0E0,0E0,0E0,0E0,0E0,0E0,0E0],"parents":[2147483647,0,0,1,1,2,2,3,3,4,4,5,5,6,6,7,7,8,8,9,9,10,10,11,11,12,12,13,13,14,14],"right_children":[2,4,6,8,10,12,14,16,18,20,22,24,26,28,30,-1,-1,-1,-1,-1,-1,-1,-1,-1,-1,-1,-1,-1,-1,-1,-1],"split_conditions":[2.2E0,5.3E1,7.1E1,1.3333334E0,5E0,5E0,5E0,8.333333E-1,3E0,3.9729723E-1,7E0,4E0,3.5E0,1.9E1,1.1E1,-8.446723E-3,-6.3126357E-3,-5.5995476E-3,-3.0641886E-3,6.3970084E-3,-6.293724E-3,9.232876E-3,2.480937E-3,-3.6110661E-3,9.67561E-4,2.351066E-3,6.3705477E-3,7.5764097E-3,1.5937167E-3,1.0636288E-2,4.3437215E-3],"split_indices":[2,32,32,3,31,31,3,3,31,15,31,31,3,31,31,0,0,0,0,0,0,0,0,0,0,0,0,0,0,0,0],"split_type":[0,0,0,0,0,0,0,0,0,0,0,0,0,0,0,0,0,0,0,0,0,0,0,0,0,0,0,0,0,0,0],"sum_hessian":[2.956856E5,1.6732036E5,1.28365234E5,1.6362733E5,3.6930393E3,2.8671408E4,9.969383E4,1.19778664E5,4.384866E4,3.625349E2,3.3305044E3,5.8532964E3,2.2818111E4,5.034712E4,4.9346703E4,3.0234223E4,8.9544445E4,1.55208E4,2.8327861E4,7.329094E1,2.89244E2,2.0766682E3,1.2538362E3,3.5586719E3,2.2946245E3,8.717431E3,1.4100682E4,4.7864684E4,2.4824377E3,4.6933832E4,2.412871E3],"tree_param":{"num_deleted":"0","num_feature":"44","num_nodes":"31","size_leaf_vector":"1"}},{"base_weights":[4.7880627E-4,-1.1132703E-1,1.4961563E-1,-1.1801077E-1,6.9374904E-2,-4.1854147E-2,1.5872324E-1,-1.3110715E-1,-6.587337E-2,-6.326162E-2,8.78983E-2,-7.9945385E-2,1.7044587E-2,1.1890728E-1,1.8949924E-1,-7.6296194E-3,-5.736249E-3,-5.060383E-3,-2.4240734E-3,2.575695E-3,-5.790273E-3,6.278967E-3,4.631568E-4,1.7926298E-2,-4.20745E-3,-1.2835554E-2,1.7854499E-3,2.5909925E-3,6.5596583E-3,1.017963E-2,6.9421693E-3],"categories":[],"categories_nodes":[],"categories_segments":[],"categories_sizes":[],"default_left":[0,0,0,0,0,0,0,0,0,0,0,0,1,0,0,0,0,0,0,0,0,0,0,0,0,0,0,0,0,0,0],"id":36,"left_children":[1,3,5,7,9,11,13,15,17,19,21,23,25,27,29,-1,-1,-1,-1,-1,-1,-1,-1,-1,-1,-1,-1,-1,-1,-1,-1],"loss_changes":[4.9389536E3,2.0448486E2,2.2134058E2,1.1145557E2,1.4859575E1,1.2948024E1,1.4843066E2,4.590576E1,2.0139557E1,4.495083E0,1.56970825E1,6.52792E0,1.1605431E1,4.352484E1,4.8749023E1,0E0,0E0,0E0,0E0,0E0,0E0,0E0,0E0,0E0,0E0,0E0,0E0,0E0,0E0,0E0,0E0],"parents":[2147483647,0,0,1,1,2,2,3,3,4,4,5,5,6,6,7,7,8,8,9,9,10,10,11,11,12,12,13,13,14,14],"right_children":[2,4,6,8,10,12,14,16,18,20,22,24,26,28,30,-1,-1,-1,-1,-1,-1,-1,-1,-1,-1,-1,-1,-1,-1,-1,-1],"split_conditions":[2.3333333E0,4.8E1,5E0,1.45E0,5E0,4E0,4.6E0,3E0,3E0,5.1E1,8E0,1.5E0,8.372574E1,5.5E1,7E0,-7.6296194E-3,-5.736249E-3,-5.060383E-3,-2.4240734E-3,2.575695E-3,-5.790273E-3,6.278967E-3,4.631568E-4,1.7926298E-2,-4.20745E-3,-1.2835554E-2,1.7854499E-3,2.5909925E-3,6.5596583E-3,1.017963E-2,6.9421693E-3],"split_indices":[1,32,31,3,31,31,3,31,31,32,31,2,21,32,31,0,0,0,0,0,0,0,0,0,0,0,0,0,0,0,0],"split_type":[0,0,0,0,0,0,0,0,0,0,0,0,0,0,0,0,0,0,0,0,0,0,0,0,0,0,0,0,0,0,0],"sum_hessian":[2.96195E5,1.6928439E5,1.269106E5,1.6324716E5,6.0372275E3,5.761958E3,1.2114864E5,1.30470805E5,3.277635E4,7.3885474E2,5.298373E3,3.4998564E3,2.2621016E3,5.282075E4,6.832789E4,5.643794E4,7.403287E4,1.0807897E4,2.1968453E4,2.3143344E2,5.074213E2,3.580683E3,1.7176898E3,3.2208057E1,3.4676484E3,1.4322801E2,2.1188735E3,8.177983E3,4.464277E4,5.3451695E4,1.4876194E4],"tree_param":{"num_deleted":"0","num_feature":"44","num_nodes":"31","size_leaf_vector":"1"}},{"base_weights":[2.8272526E-4,-1.12995826E-1,1.4034002E-1,-1.1822205E-1,7.308709E-2,5.917473E-2,1.6503748E-1,-1.4393514E-1,-9.458518E-2,1.5123182E-2,1.4189097E-1,1.4414456E-2,1.13792896E-1,1.3545848E-1,1.9550504E-1,-1.8091166E-2,-7.0986557E-3,-5.110321E-3,-2.4494382E-3,1.9416136E-4,2.1345677E-2,1.6709687E-2,5.9743114E-3,-1.9906585E-4,3.8129345E-3,4.8634857E-3,9.489606E-3,5.4915715E-3,8.087994E-3,9.0722265E-3,1.1926843E-2],"categories":[],"categories_nodes":[],"categories_segments":[],"categories_sizes":[],"default_left":[0,0,0,0,0,0,0,0,0,0,0,0,0,0,0,0,0,0,0,0,0,0,0,0,0,0,0,0,0,0,0],"id":37,"left_children":[1,3,5,7,9,11,13,15,17,19,21,23,25,27,29,-1,-1,-1,-1,-1,-1,-1,-1,-1,-1,-1,-1,-1,-1,-1,-1],"loss_changes":[4.699269E3,1.5927686E2,2.6547437E2,9.6791504E1,1.7839664E1,7.554312E1,9.148291E1,3.2582275E1,2.8831665E1,1.1285167E1,8.785988E0,1.9344208E1,1.7463257E1,3.4713013E1,3.0221802E1,0E0,0E0,0E0,0E0,0E0,0E0,0E0,0E0,0E0,0E0,0E0,0E0,0E0,0E0,0E0,0E0],"parents":[2147483647,0,0,1,1,2,2,3,3,4,4,5,5,6,6,7,7,8,8,9,9,10,10,11,11,12,12,13,13,14,14],"right_children":[2,4,6,8,10,12,14,16,18,20,22,24,26,28,30,-1,-1,-1,-1,-1,-1,-1,-1,-1,-1,-1,-1,-1,-1,-1,-1],"split_conditions":[2.1E0,4.7E1,7.1E1,1.1E0,6.5E1,3.75E0,5E0,7.772349E1,1.7E0,6.001721E-1,2.1322401E-1,5.7E1,5E0,1E0,6.75E0,-1.8091166E-2,-7.0986557E-3,-5.110321E-3,-2.4494382E-3,1.9416136E-4,2.1345677E-2,1.6709687E-2,5.9743114E-3,-1.9906585E-4,3.8129345E-3,4.8634857E-3,9.489606E-3,5.4915715E-3,8.087994E-3,9.0722265E-3,1.1926843E-2],"split_indices":[2,32,32,3,32,3,3,21,3,14,10,32,8,40,2,0,0,0,0,0,0,0,0,0,0,0,0,0,0,0,0],"split_type":[0,0,0,0,0,0,0,0,0,0,0,0,0,0,0,0,0,0,0,0,0,0,0,0,0,0,0,0,0,0,0],"sum_hessian":[2.961891E5,1.6374853E5,1.3244058E5,1.5927608E5,4.4724424E3,3.089974E4,1.0154084E5,7.628309E4,8.299299E4,2.4288923E3,2.0435498E3,1.6984129E4,1.3915611E4,5.152612E4,5.001472E4,6.786916E2,7.56044E4,7.110473E4,1.18882705E4,2.3655754E3,6.3316902E1,2.1132672E2,1.8322231E3,1.3089833E4,3.8942954E3,1.1433435E4,2.482177E3,2.6102166E4,2.5423955E4,3.770294E4,1.2311779E4],"tree_param":{"num_deleted":"0","num_feature":"44","num_nodes":"31","size_leaf_vector":"1"}},{"base_weights":[-5.4921315E-4,-1.0088046E-1,1.4738548E-1,-1.1753516E-1,1.6064908E-2,1.19821675E-1,1.830337E-1,-1.4934257E-1,-1.0089104E-1,-7.511262E-2,5.035885E-2,-7.4632645E-2,1.2433756E-1,1.7745177E-1,2.8380927E-1,-1.4215124E-2,-7.294252E-3,-6.445157E-3,-4.0692003E-3,-7.878954E-3,-3.0783494E-3,5.742429E-3,7.2123634E-4,8.6863386E-4,-5.1010405E-3,6.66381E-3,1.5746609E-3,7.728959E-3,1.0057381E-2,1.2160632E-2,1.7174713E-2],"categories":[],"categories_nodes":[],"categories_segments":[],"categories_sizes":[],"default_left":[0,0,0,0,0,0,0,0,0,0,0,0,0,0,0,0,0,0,0,0,0,0,0,0,0,0,0,0,0,0,0],"id":38,"left_children":[1,3,5,7,9,11,13,15,17,19,21,23,25,27,29,-1,-1,-1,-1,-1,-1,-1,-1,-1,-1,-1,-1,-1,-1,-1,-1],"loss_changes":[4.389689E3,3.4325757E2,1.17418945E2,8.165381E1,6.8716576E1,5.922296E1,2.9274048E1,2.4697266E1,5.532959E1,6.704216E0,3.7000027E1,3.8746252E0,5.465979E1,2.6733643E1,6.5391693E0,0E0,0E0,0E0,0E0,0E0,0E0,0E0,0E0,0E0,0E0,0E0,0E0,0E0,0E0,0E0,0E0],"parents":[2147483647,0,0,1,1,2,2,3,3,4,4,5,5,6,6,7,7,8,8,9,9,10,10,11,11,12,12,13,13,14,14],"right_children":[2,4,6,8,10,12,14,16,18,20,22,24,26,28,30,-1,-1,-1,-1,-1,-1,-1,-1,-1,-1,-1,-1,-1,-1,-1,-1],"split_conditions":[4.8E1,2E0,5.2E0,1E0,4E0,5E0,7.75E0,8.0601204E1,3E0,2E0,7E0,5.1E1,1.3E1,1E0,9.230873E1,-1.4215124E-2,-7.294252E-3,-6.445157E-3,-4.0692003E-3,-7.878954E-3,-3.0783494E-3,5.742429E-3,7.2123634E-4,8.6863386E-4,-5.1010405E-3,6.66381E-3,1.5746609E-3,7.728959E-3,1.0057381E-2,1.2160632E-2,1.7174713E-2],"split_indices":[32,2,1,3,31,31,3,20,31,31,32,32,31,40,22,0,0,0,0,0,0,0,0,0,0,0,0,0,0,0,0],"split_type":[0,0,0,0,0,0,0,0,0,0,0,0,0,0,0,0,0,0,0,0,0,0,0,0,0,0,0,0,0,0,0],"sum_hessian":[2.957468E5,1.7622781E5,1.1951901E5,1.5425984E5,2.1967969E4,6.740641E4,5.2112605E4,5.2986707E4,1.0127314E5,6.003177E3,1.5964792E4,1.5290214E3,6.587738E4,4.9381145E4,2.7314595E3,1.3208053E3,5.16659E4,4.1569133E4,5.9704008E4,8.444021E2,5.158775E3,5.710814E3,1.0253978E4,3.499948E2,1.1790266E3,6.0090617E4,5.786769E3,2.5133043E4,2.4248102E4,1.6297109E3,1.1017485E3],"tree_param":{"num_deleted":"0","num_feature":"44","num_nodes":"31","size_leaf_vector":"1"}},{"base_weights":[3.1981332E-4,-1.0961311E-1,1.3240074E-1,-1.1676405E-1,4.8854817E-3,3.5750505E-2,1.5055552E-1,-1.3177171E-1,-8.000044E-2,-2.7551197E-2,1.1715668E-1,-1.4763394E-3,9.372258E-2,1.3192216E-1,1.8800537E-1,-9.119312E-3,-6.2585655E-3,-4.5607886E-3,-2.355241E-3,4.961782E-3,-1.7489967E-3,1.6196428E-2,5.1071187E-3,2.990668E-3,-8.344517E-4,3.3691188E-3,8.235792E-3,5.5247294E-3,7.6556304E-3,8.549779E-3,1.1306672E-2],"categories":[],"categories_nodes":[],"categories_segments":[],"categories_sizes":[],"default_left":[0,0,0,0,0,0,0,0,0,0,0,0,0,0,0,0,0,0,0,0,0,0,0,0,0,0,0,0,0,0,0],"id":39,"left_children":[1,3,5,7,9,11,13,15,17,19,21,23,25,27,29,-1,-1,-1,-1,-1,-1,-1,-1,-1,-1,-1,-1,-1,-1,-1,-1],"loss_changes":[4.292869E3,1.3212427E2,2.356311E2,8.377832E1,3.458133E1,4.585798E1,7.887085E1,3.60083E1,1.6237244E1,6.9495173E0,6.589264E0,1.2070846E1,1.5526344E1,3.4264893E1,2.4322266E1,0E0,0E0,0E0,0E0,0E0,0E0,0E0,0E0,0E0,0E0,0E0,0E0,0E0,0E0,0E0,0E0],"parents":[2147483647,0,0,1,1,2,2,3,3,4,4,5,5,6,6,7,7,8,8,9,9,10,10,11,11,12,12,13,13,14,14],"right_children":[2,4,6,8,10,12,14,16,18,20,22,24,26,28,30,-1,-1,-1,-1,-1,-1,-1,-1,-1,-1,-1,-1,-1,-1,-1,-1],"split_conditions":[2.1E0,3.6E1,5.7E1,1.3E0,6.4E1,3.75E0,5.75E0,6.666667E-1,2E0,2.3270889E-1,2.1435738E-1,1.0822511E-1,5E0,4.006746E-1,9.06237E1,-9.119312E-3,-6.2585655E-3,-4.5607886E-3,-2.355241E-3,4.961782E-3,-1.7489967E-3,1.6196428E-2,5.1071187E-3,2.990668E-3,-8.344517E-4,3.3691188E-3,8.235792E-3,5.5247294E-3,7.6556304E-3,8.549779E-3,1.1306672E-2],"split_indices":[2,32,32,3,32,3,1,3,0,11,11,16,8,7,20,0,0,0,0,0,0,0,0,0,0,0,0,0,0,0,0],"split_type":[0,0,0,0,0,0,0,0,0,0,0,0,0,0,0,0,0,0,0,0,0,0,0,0,0,0,0,0,0,0,0],"sum_hessian":[2.9564578E5,1.6135064E5,1.3429514E5,1.5186673E5,9.483893E3,2.1238219E4,1.1305692E5,1.07839266E5,4.4027477E4,7.357946E3,2.1259468E3,1.2932712E4,8.305507E3,7.549913E4,3.755779E4,1.2435689E4,9.540358E4,3.2829777E4,1.1197698E4,4.058279E2,6.9521177E3,1.4207692E2,1.98387E3,2.5698123E3,1.0362899E4,6.060334E3,2.2451729E3,3.7544957E4,3.795417E4,2.597697E4,1.1580817E4],"tree_param":{"num_deleted":"0","num_feature":"44","num_nodes":"31","size_leaf_vector":"1"}},{"base_weights":[-5.1927578E-5,-1.04771614E-1,1.2810454E-1,-1.20241016E-1,-4.6162296E-2,4.9977925E-2,1.461168E-1,-1.24119505E-1,-1.20238E-2,-5.9068263E-2,9.764088E-2,-6.566242E-2,6.9569565E-2,1.2231164E-1,1.7744763E-1,-7.725096E-3,-5.6024515E-3,6.2291753E-3,-1.7015887E-3,-4.684954E-3,-2.0924748E-3,4.7533517E-3,3.5E-2,-1.0086197E-2,-2.8201158E-3,2.3982916E-3,6.3757314E-3,6.369406E-3,1.4011577E-3,8.032956E-3,1.09963985E-2],"categories":[],"categories_nodes":[],"categories_segments":[],"categories_sizes":[],"default_left":[0,0,0,0,0,0,0,0,0,0,0,0,0,0,0,0,0,0,0,0,0,0,0,0,0,0,0,0,0,0,0],"id":40,"left_children":[1,3,5,7,9,11,13,15,17,19,21,23,25,27,29,-1,-1,-1,-1,-1,-1,-1,-1,-1,-1,-1,-1,-1,-1,-1,-1],"loss_changes":[3.9741953E3,1.4774194E2,1.8737524E2,5.4102905E1,6.3187943E1,5.6551003E1,8.068677E1,4.5631226E1,1.3442283E1,1.8621552E1,5.8763657E0,4.5554457E0,2.6708588E1,2.9422546E1,3.3284668E1,0E0,0E0,0E0,0E0,0E0,0E0,0E0,0E0,0E0,0E0,0E0,0E0,0E0,0E0,0E0,0E0],"parents":[2147483647,0,0,1,1,2,2,3,3,4,4,5,5,6,6,7,7,8,8,9,9,10,10,11,11,12,12,13,13,14,14],"right_children":[2,4,6,8,10,12,14,16,18,20,22,24,26,28,30,-1,-1,-1,-1,-1,-1,-1,-1,-1,-1,-1,-1,-1,-1,-1,-1],"split_conditions":[2.2E0,1.45E0,6.6E1,3.6E1,5.6E1,4E0,4.256019E-1,8.888889E-1,2.4129221E-1,3E0,8.055556E-1,2.580818E-1,4.3333335E0,1.7E1,9.029497E1,-7.725096E-3,-5.6024515E-3,6.2291753E-3,-1.7015887E-3,-4.684954E-3,-2.0924748E-3,4.7533517E-3,3.5E-2,-1.0086197E-2,-2.8201158E-3,2.3982916E-3,6.3757314E-3,6.369406E-3,1.4011577E-3,8.032956E-3,1.09963985E-2],"split_indices":[2,3,32,32,32,31,7,3,11,31,4,11,0,31,20,0,0,0,0,0,0,0,0,0,0,0,0,0,0,0,0],"split_type":[0,0,0,0,0,0,0,0,0,0,0,0,0,0,0,0,0,0,0,0,0,0,0,0,0,0,0,0,0,0,0],"sum_hessian":[2.9612328E5,1.6296317E5,1.3316011E5,1.289304E5,3.4032777E4,2.4950178E4,1.0820994E5,1.244684E5,4.461997E3,3.1231146E4,2.8016309E3,3.6135598E3,2.1336617E4,6.149453E4,4.6715406E4,3.538393E4,8.908447E4,6.178279E2,3.8441692E3,1.0368172E4,2.0862975E4,2.795231E3,6.399811E0,2.282487E2,3.385311E3,1.5544641E4,5.791977E3,5.835148E4,3.1430525E3,3.3487906E4,1.3227501E4],"tree_param":{"num_deleted":"0","num_feature":"44","num_nodes":"31","size_leaf_vector":"1"}},{"base_weights":[1.0857199E-3,-1.034408E-1,1.2335559E-1,-1.1070996E-1,9.342161E-3,-3.8603153E-2,1.3279347E-1,-1.3408531E-1,-8.8719755E-2,-2.2461979E-2,1.2876604E-1,-1.0684512E-1,-1.3753503E-2,1.0403114E-1,1.6437657E-1,-1.7481325E-2,-6.6101463E-3,-5.5712094E-3,-3.6200273E-3,-4.5697717E-3,2.2291193E-4,1.4230925E-2,4.9448884E-3,-5.4912805E-3,3.5E-2,-7.875572E-4,3.4618273E-2,2.5271166E-3,5.7923025E-3,7.7797556E-3,1.1436608E-2],"categories":[],"categories_nodes":[],"categories_segments":[],"categories_sizes":[],"default_left":[0,0,0,0,0,0,0,0,0,0,0,0,0,0,1,0,0,0,0,0,0,0,0,0,0,0,0,0,0,0,0],"id":41,"left_children":[1,3,5,7,9,11,13,15,17,19,21,23,25,27,29,-1,-1,-1,-1,-1,-1,-1,-1,-1,-1,-1,-1,-1,-1,-1,-1],"loss_changes":[3.7953142E3,1.3126672E2,2.0922754E2,7.729944E1,3.6860916E1,1.27832365E1,1.174646E2,2.9553345E1,2.8708618E1,1.4229902E1,9.478363E0,5.7943363E0,7.8783107E0,4.2768494E1,3.480432E1,0E0,0E0,0E0,0E0,0E0,0E0,0E0,0E0,0E0,0E0,0E0,0E0,0E0,0E0,0E0,0E0],"parents":[2147483647,0,0,1,1,2,2,3,3,4,4,5,5,6,6,7,7,8,8,9,9,10,10,11,11,12,12,13,13,14,14],"right_children":[2,4,6,8,10,12,14,16,18,20,22,24,26,28,30,-1,-1,-1,-1,-1,-1,-1,-1,-1,-1,-1,-1,-1,-1,-1,-1],"split_conditions":[2.1E0,3.6E1,5E0,1.1E0,6.5E1,3E0,5E0,7.772349E1,3E0,4E0,2.2673091E-1,9.4E1,7.3E0,5.7E1,9.201818E1,-1.7481325E-2,-6.6101463E-3,-5.5712094E-3,-3.6200273E-3,-4.5697717E-3,2.2291193E-4,1.4230925E-2,4.9448884E-3,-5.4912805E-3,3.5E-2,-7.875572E-4,3.4618273E-2,2.5271166E-3,5.7923025E-3,7.7797556E-3,1.1436608E-2],"split_indices":[2,32,31,3,32,31,1,21,31,31,10,32,3,32,20,0,0,0,0,0,0,0,0,0,0,0,0,0,0,0,0],"split_type":[0,0,0,0,0,0,0,0,0,0,0,0,0,0,0,0,0,0,0,0,0,0,0,0,0,0,0,0,0,0,0],"sum_hessian":[2.96957E5,1.6009431E5,1.3686269E5,1.5040145E5,9.692873E3,7.535531E3,1.2932716E5,7.289995E4,7.750149E4,7.654385E3,2.038488E3,2.0095614E3,5.525969E3,6.769012E4,6.1637043E4,6.290853E2,7.227087E4,3.240517E4,4.509632E4,2.1500818E3,5.504303E3,3.2592694E2,1.712561E3,2.0043707E3,5.190636E0,5.5114966E3,1.4472958E1,1.2249151E4,5.544096E4,5.4240734E4,7.396308E3],"tree_param":{"num_deleted":"0","num_feature":"44","num_nodes":"31","size_leaf_vector":"1"}},{"base_weights":[-1.5679217E-4,-9.9501476E-2,1.2315109E-1,-1.1324411E-1,-2.5437204E-2,6.685354E-2,1.4187393E-1,-1.3994193E-1,-9.738314E-2,-4.499426E-2,9.213145E-2,6.3139875E-3,9.178991E-2,1.16910875E-1,1.6422439E-1,-1.8476207E-2,-6.8664937E-3,-5.0680195E-3,-1.6689854E-3,1.9398805E-3,-2.672872E-3,2.494305E-3,6.7445673E-3,3.619081E-3,-7.356243E-4,2.7903179E-3,5.3729587E-3,4.895756E-3,7.216759E-3,7.087823E-3,9.763877E-3],"categories":[],"categories_nodes":[],"categories_segments":[],"categories_sizes":[],"default_left":[0,0,0,0,0,0,1,0,0,0,0,0,0,0,0,0,0,0,0,0,0,0,0,0,0,0,0,0,0,0,0],"id":42,"left_children":[1,3,5,7,9,11,13,15,17,19,21,23,25,27,29,-1,-1,-1,-1,-1,-1,-1,-1,-1,-1,-1,-1,-1,-1,-1,-1],"loss_changes":[3.6297695E3,1.6701611E2,1.3933936E2,5.8599E1,5.907997E1,4.9810944E1,5.5333252E1,3.0903564E1,2.2095093E1,1.5630833E1,6.609968E0,1.3399243E1,1.3168915E1,2.4404236E1,3.6490234E1,0E0,0E0,0E0,0E0,0E0,0E0,0E0,0E0,0E0,0E0,0E0,0E0,0E0,0E0,0E0,0E0],"parents":[2147483647,0,0,1,1,2,2,3,3,4,4,5,5,6,6,7,7,8,8,9,9,10,10,11,11,12,12,13,13,14,14],"right_children":[2,4,6,8,10,12,14,16,18,20,22,24,26,28,30,-1,-1,-1,-1,-1,-1,-1,-1,-1,-1,-1,-1,-1,-1,-1,-1],"split_conditions":[2.3333333E0,1.5555556E0,3.6666667E0,1E0,5.6E1,4.7E1,8.870409E1,7.785407E1,3.4E1,1E0,8.805551E1,1E0,8.708E1,9.3E1,4.3913218E-1,-1.8476207E-2,-6.8664937E-3,-5.0680195E-3,-1.6689854E-3,1.9398805E-3,-2.672872E-3,2.494305E-3,6.7445673E-3,3.619081E-3,-7.356243E-4,2.7903179E-3,5.3729587E-3,4.895756E-3,7.216759E-3,7.087823E-3,9.763877E-3],"split_indices":[1,3,1,3,32,32,20,23,32,32,22,32,23,32,7,0,0,0,0,0,0,0,0,0,0,0,0,0,0,0,0],"split_type":[0,0,0,0,0,0,0,0,0,0,0,0,0,0,0,0,0,0,0,0,0,0,0,0,0,0,0,0,0,0,0],"sum_hessian":[2.963027E5,1.6409683E5,1.3220584E5,1.384125E5,2.5684334E4,3.2997074E4,9.920877E4,5.157881E4,8.683369E4,2.2022459E4,3.6618762E3,9.627959E3,2.3369115E4,4.6870355E4,5.233842E4,5.782216E2,5.1000586E4,8.175143E4,5.0822646E3,2.0188563E3,2.0003602E4,1.844287E3,1.8175891E3,2.3249639E3,7.3029946E3,7.092511E3,1.6276604E4,2.769519E4,1.9175164E4,3.0372066E4,2.1966355E4],"tree_param":{"num_deleted":"0","num_feature":"44","num_nodes":"31","size_leaf_vector":"1"}},{"base_weights":[2.4652245E-4,-9.719189E-2,1.1945631E-1,-1.1246957E-1,-3.7261557E-2,-3.88769E-2,1.2654836E-1,-1.36016E-1,-9.5136546E-2,-5.3010877E-2,8.122525E-2,-2.8774511E-2,-2.1192403E-1,1.0848216E-1,1.6746192E-1,-9.381022E-3,-6.438417E-3,-1.7963823E-2,-4.665425E-3,-3.942748E-3,-1.1980784E-3,1.943953E-3,7.171561E-3,-5.367755E-3,-9.560653E-5,-1.3657939E-3,-1.2838422E-2,5.937772E-3,2.7501134E-3,8.6483415E-3,2.9663446E-3],"categories":[],"categories_nodes":[],"categories_segments":[],"categories_sizes":[],"default_left":[0,0,0,0,0,0,0,0,0,0,0,0,0,0,0,0,0,0,0,0,0,0,0,0,0,0,0,0,0,0,0],"id":43,"left_children":[1,3,5,7,9,11,13,15,17,19,21,23,25,27,29,-1,-1,-1,-1,-1,-1,-1,-1,-1,-1,-1,-1,-1,-1,-1,-1],"loss_changes":[3.4451096E3,1.4941333E2,1.498103E2,5.3062256E1,6.1889847E1,1.0007948E1,9.4355225E1,2.0601013E1,3.616388E1,2.19692E1,1.0242086E1,1.1414534E1,2.584693E0,4.8651367E1,2.3257324E1,0E0,0E0,0E0,0E0,0E0,0E0,0E0,0E0,0E0,0E0,0E0,0E0,0E0,0E0,0E0,0E0],"parents":[2147483647,0,0,1,1,2,2,3,3,4,4,5,5,6,6,7,7,8,8,9,9,10,10,11,11,12,12,13,13,14,14],"right_children":[2,4,6,8,10,12,14,16,18,20,22,24,26,28,30,-1,-1,-1,-1,-1,-1,-1,-1,-1,-1,-1,-1,-1,-1,-1,-1],"split_conditions":[2.25E0,1.5E0,5E0,3E0,5.6E1,6.9166666E-1,6E0,7.5E-1,7.772349E1,4E0,8.864867E1,3E0,2.4E0,8E0,1.1E1,-9.381022E-3,-6.438417E-3,-1.7963823E-2,-4.665425E-3,-3.942748E-3,-1.1980784E-3,1.943953E-3,7.171561E-3,-5.367755E-3,-9.560653E-5,-1.3657939E-3,-1.2838422E-2,5.937772E-3,2.7501134E-3,8.6483415E-3,2.9663446E-3],"split_indices":[1,3,31,31,32,6,0,3,21,31,22,31,2,31,31,0,0,0,0,0,0,0,0,0,0,0,0,0,0,0,0],"split_type":[0,0,0,0,0,0,0,0,0,0,0,0,0,0,0,0,0,0,0,0,0,0,0,0,0,0,0,0,0,0,0],"sum_hessian":[2.9658706E5,1.6319547E5,1.3339161E5,1.30042086E5,3.3153387E4,5.7179175E3,1.2767369E5,5.513291E4,7.490917E4,2.926488E4,3.8885042E3,5.4041694E3,3.1374805E2,8.8569945E4,3.9103742E4,6.784874E3,4.834804E4,5.131442E2,7.439603E4,1.5484101E4,1.378078E4,2.3154875E3,1.5730165E3,1.3750406E3,4.0291287E3,6.2069492E1,2.5167856E2,7.429506E4,1.4274877E4,3.7208047E4,1.8956963E3],"tree_param":{"num_deleted":"0","num_feature":"44","num_nodes":"31","size_leaf_vector":"1"}},{"base_weights":[2.3396175E-4,-9.8330244E-2,1.1181267E-1,-1.0534958E-1,1.0548493E-2,6.71193E-2,1.3979483E-1,-1.236449E-1,-7.745408E-2,-2.1264592E-2,1.3378847E-1,1.7640691E-2,9.818652E-2,1.1997434E-1,1.6193251E-1,-1.7097693E-2,-6.1034854E-3,-4.3237503E-3,-2.2271439E-3,1.9592462E-2,-1.1824263E-3,2.258773E-2,5.782209E-3,3.9128545E-3,1.5730462E-4,1.1671019E-3,5.2447286E-3,3.4375263E-3,6.333545E-3,7.63029E-3,1.0818759E-2],"categories":[],"categories_nodes":[],"categories_segments":[],"categories_sizes":[],"default_left":[0,0,0,0,0,0,0,0,0,0,0,0,0,1,1,0,0,0,0,0,0,0,0,0,0,0,0,0,0,0,0],"id":44,"left_children":[1,3,5,7,9,11,13,15,17,19,21,23,25,27,29,-1,-1,-1,-1,-1,-1,-1,-1,-1,-1,-1,-1,-1,-1,-1,-1],"loss_changes":[3.2547634E3,1.20107056E2,1.735863E2,7.532898E1,3.7355797E1,8.215614E1,3.7435547E1,3.0635864E1,1.735431E1,7.501156E0,1.1247658E1,1.81197E1,1.6474243E1,1.5437927E1,2.0444214E1,0E0,0E0,0E0,0E0,0E0,0E0,0E0,0E0,0E0,0E0,0E0,0E0,0E0,0E0,0E0,0E0],"parents":[2147483647,0,0,1,1,2,2,3,3,4,4,5,5,6,6,7,7,8,8,9,9,10,10,11,11,12,12,13,13,14,14],"right_children":[2,4,6,8,10,12,14,16,18,20,22,24,26,28,30,-1,-1,-1,-1,-1,-1,-1,-1,-1,-1,-1,-1,-1,-1,-1,-1],"split_conditions":[2.1E0,3.6E1,4.3333335E0,1.1818181E0,6.6E1,6.6E1,5.6666665E0,7.772349E1,2E0,1.6764706E-1,1.9574314E-1,1E1,3.014286E-1,8.595958E1,9.191083E1,-1.7097693E-2,-6.1034854E-3,-4.3237503E-3,-2.2271439E-3,1.9592462E-2,-1.1824263E-3,2.258773E-2,5.782209E-3,3.9128545E-3,1.5730462E-4,1.1671019E-3,5.2447286E-3,3.4375263E-3,6.333545E-3,7.63029E-3,1.0818759E-2],"split_indices":[2,32,0,3,32,32,1,21,0,11,9,32,6,21,23,0,0,0,0,0,0,0,0,0,0,0,0,0,0,0,0],"split_type":[0,0,0,0,0,0,0,0,0,0,0,0,0,0,0,0,0,0,0,0,0,0,0,0,0,0,0,0,0,0,0],"sum_hessian":[2.9594444E5,1.5713597E5,1.3880847E5,1.4761997E5,9.516008E3,5.344791E4,8.5360555E4,8.914621E4,5.8473758E4,7.5635693E3,1.9524388E3,2.0617166E4,3.2830742E4,4.5043137E4,4.0317418E4,6.3662317E2,8.8509586E4,4.5890547E4,1.2583209E4,4.2218246E1,7.521351E3,1.0381114E2,1.8486277E3,3.9764321E3,1.6640732E4,2.7020635E3,3.012868E4,5.210763E3,3.983237E4,3.4425527E4,5.8918887E3],"tree_param":{"num_deleted":"0","num_feature":"44","num_nodes":"31","size_leaf_vector":"1"}},{"base_weights":[1.7156963E-3,-9.440752E-2,1.1007824E-1,-1.1333156E-1,-6.0242232E-2,-3.7822235E-2,1.18297294E-1,-1.2757115E-1,-8.634323E-2,-7.759542E-2,-1.5105537E-2,-1.007658E-1,-1.4809292E-2,9.567119E-2,1.4800774E-1,-6.8890117E-3,-4.9958057E-3,-1.9372744E-2,-4.134031E-3,-6.1276797E-3,-3.3919234E-3,-2.2502562E-3,1.3288114E-3,-1.0961904E-2,-3.7341488E-3,-2.8135502E-4,-1.0104451E-2,5.2730828E-3,2.5400987E-3,7.657926E-3,3.6836062E-3],"categories":[],"categories_nodes":[],"categories_segments":[],"categories_sizes":[],"default_left":[0,0,0,0,0,0,0,0,0,0,0,0,0,0,0,0,0,0,0,0,0,0,0,0,0,0,0,0,